FANN_FLO_2.1
num_layers=5
learning_rate=0.700000
connection_rate=1.000000
network_type=0
learning_momentum=0.000000
training_algorithm=2
train_error_function=1
train_stop_function=0
cascade_output_change_fraction=0.010000
quickprop_decay=-0.000100
quickprop_mu=1.750000
rprop_increase_factor=1.200000
rprop_decrease_factor=0.500000
rprop_delta_min=0.000000
rprop_delta_max=50.000000
rprop_delta_zero=0.100000
cascade_output_stagnation_epochs=12
cascade_candidate_change_fraction=0.010000
cascade_candidate_stagnation_epochs=12
cascade_max_out_epochs=150
cascade_min_out_epochs=50
cascade_max_cand_epochs=150
cascade_min_cand_epochs=50
cascade_num_candidate_groups=2
bit_fail_limit=3.49999999999999977796e-01
cascade_candidate_limit=1.00000000000000000000e+03
cascade_weight_multiplier=4.00000000000000022204e-01
cascade_activation_functions_count=10
cascade_activation_functions=3 5 7 8 10 11 14 15 16 17 
cascade_activation_steepnesses_count=4
cascade_activation_steepnesses=2.50000000000000000000e-01 5.00000000000000000000e-01 7.50000000000000000000e-01 1.00000000000000000000e+00 
layer_sizes=27 14 8 4 2 
scale_included=0
neurons (num_inputs, activation_function, activation_steepness)=(0, 0, 0.00000000000000000000e+00) (0, 0, 0.00000000000000000000e+00) (0, 0, 0.00000000000000000000e+00) (0, 0, 0.00000000000000000000e+00) (0, 0, 0.00000000000000000000e+00) (0, 0, 0.00000000000000000000e+00) (0, 0, 0.00000000000000000000e+00) (0, 0, 0.00000000000000000000e+00) (0, 0, 0.00000000000000000000e+00) (0, 0, 0.00000000000000000000e+00) (0, 0, 0.00000000000000000000e+00) (0, 0, 0.00000000000000000000e+00) (0, 0, 0.00000000000000000000e+00) (0, 0, 0.00000000000000000000e+00) (0, 0, 0.00000000000000000000e+00) (0, 0, 0.00000000000000000000e+00) (0, 0, 0.00000000000000000000e+00) (0, 0, 0.00000000000000000000e+00) (0, 0, 0.00000000000000000000e+00) (0, 0, 0.00000000000000000000e+00) (0, 0, 0.00000000000000000000e+00) (0, 0, 0.00000000000000000000e+00) (0, 0, 0.00000000000000000000e+00) (0, 0, 0.00000000000000000000e+00) (0, 0, 0.00000000000000000000e+00) (0, 0, 0.00000000000000000000e+00) (0, 0, 0.00000000000000000000e+00) (27, 4, 6.50000000000000022204e-01) (27, 4, 6.50000000000000022204e-01) (27, 4, 6.50000000000000022204e-01) (27, 4, 6.50000000000000022204e-01) (27, 4, 6.50000000000000022204e-01) (27, 4, 6.50000000000000022204e-01) (27, 4, 6.50000000000000022204e-01) (27, 4, 6.50000000000000022204e-01) (27, 4, 6.50000000000000022204e-01) (27, 4, 6.50000000000000022204e-01) (27, 4, 6.50000000000000022204e-01) (27, 4, 6.50000000000000022204e-01) (27, 4, 6.50000000000000022204e-01) (0, 0, 6.50000000000000022204e-01) (14, 8, 7.50000000000000000000e-01) (14, 8, 7.50000000000000000000e-01) (14, 8, 7.50000000000000000000e-01) (14, 8, 7.50000000000000000000e-01) (14, 8, 7.50000000000000000000e-01) (14, 8, 7.50000000000000000000e-01) (14, 8, 7.50000000000000000000e-01) (0, 8, 7.50000000000000000000e-01) (8, 8, 7.50000000000000000000e-01) (8, 8, 7.50000000000000000000e-01) (8, 8, 7.50000000000000000000e-01) (0, 8, 7.50000000000000000000e-01) (4, 13, 8.00000000000000044409e-01) (0, 13, 8.00000000000000044409e-01) 
connections (connected_to_neuron, weight)=(0, -8.88749113381600608363e+00) (1, -1.14638729488452750793e+00) (2, 8.62328163386433116377e-02) (3, 2.60427767576212731981e+00) (4, 4.28446731761244981040e-01) (5, -1.39963883583208392736e+01) (6, 1.50000000000000000000e+03) (7, -5.91326106379937099788e-01) (8, 2.93335923675690235513e+00) (9, -2.02623033272378449965e+00) (10, -1.50000000000000000000e+03) (11, -8.51427455892072693189e+00) (12, 8.06001198979699040592e+00) (13, 1.80190188704455023228e-01) (14, 1.00664628563853303378e-01) (15, -1.48502436312794020523e+03) (16, -1.45434242820018688747e+01) (17, -2.08900687144494900949e+00) (18, -1.18803997114490140774e+01) (19, -1.94813008719729774398e+00) (20, -2.07406133526610636508e+00) (21, 2.32398106222751898997e+00) (22, 2.78874406889903392326e+00) (23, 4.06703513895378332421e+00) (24, 1.96143563007305621326e+00) (25, 2.04333700606347186124e+01) (26, -1.27832412939042772138e+00) (0, -3.16650601188605129721e+01) (1, 3.52748267774242929562e+00) (2, 2.28038284331954965722e+00) (3, -5.23341183926947461913e+00) (4, 1.10731735662306118861e+00) (5, 1.45884697841434523014e+01) (6, 1.50000000000000000000e+03) (7, -5.19049812761043019571e-02) (8, -5.24366047436172078022e+00) (9, -1.08394020404197021890e+03) (10, -1.50000000000000000000e+03) (11, -1.12367776587746811856e+03) (12, 3.06709433341161343378e+02) (13, 1.98526060102903967319e-01) (14, 2.71655371306860571323e-01) (15, 3.56091702149215393547e+02) (16, 1.63824801088665736870e+01) (17, -7.95558825904397082240e+00) (18, 1.17793598123563452162e+01) (19, -6.59302993895215933007e-02) (20, 4.59782928942043395137e-02) (21, 5.70247341191775003466e+00) (22, 7.48901384676125836393e+00) (23, -1.54972205108273985985e+00) (24, -3.84268530014441012099e+00) (25, 1.51400259156673433480e+00) (26, -2.79927499945514079993e-01) (0, -1.17511294274853117514e+01) (1, -2.36023865434460617507e+02) (2, -4.78660671183386625671e+01) (3, 1.50000000000000000000e+03) (4, 5.30598871566975271996e-01) (5, 3.65716141710584679458e+02) (6, 1.50000000000000000000e+03) (7, 9.20571790651799574334e+02) (8, 1.49985107432427685126e+03) (9, 1.50000000000000000000e+03) (10, 7.29397333312145178752e+02) (11, -1.50000000000000000000e+03) (12, 1.48536115619222255191e+03) (13, 2.65557458518469458042e-01) (14, 2.68431683896505957065e-01) (15, 3.37525410798630275622e+02) (16, -4.34642111946082394525e+01) (17, -8.31677903911946259541e+02) (18, -7.92142081998665275933e+02) (19, -6.86815519620711878446e+00) (20, -6.90319859598810747769e+00) (21, 1.50000000000000000000e+03) (22, -1.50000000000000000000e+03) (23, 1.50000000000000000000e+03) (24, 1.44638986949260856818e+03) (25, 2.08013891147922350910e+02) (26, -5.62733199168737541207e-01) (0, 7.19406940132278793776e-01) (1, -2.54571473247030422016e+00) (2, -2.15215553485505051157e+00) (3, 1.94565544655964006715e+00) (4, 1.82284975441002150554e+00) (5, -1.05714914799428267855e+01) (6, 1.50000000000000000000e+03) (7, -1.05275910813423334567e+00) (8, 8.24929263648477628657e-01) (9, 5.75046718321943117758e+00) (10, -1.50000000000000000000e+03) (11, -7.11687572013854730102e+00) (12, -4.19530375091487428563e+00) (13, 2.10834836481535559116e-01) (14, 1.45355539290633245519e-01) (15, -1.44898544591608970222e+03) (16, -2.62827502635690857247e+00) (17, -9.79275865407095302828e+00) (18, 1.61646600699437996695e+01) (19, 9.79145216772106308234e-01) (20, 1.04099845422222969660e+00) (21, 1.81944630938444174006e+00) (22, 3.88051710467253507808e-01) (23, 2.22076672450118595137e+00) (24, 8.24229327136809186705e-01) (25, 8.58928326613324910621e-02) (26, 5.94513691927573750817e-01) (0, -7.98959686790689573854e+01) (1, -2.89213041614121335598e+00) (2, -1.49192909742598711631e+00) (3, -3.61769407027807299304e-01) (4, -1.08231923459816670174e+00) (5, 5.41118099826885128323e+01) (6, 1.50000000000000000000e+03) (7, 3.66211625467343371287e-01) (8, 1.23689535841514119952e+00) (9, 1.90902980240413300272e+00) (10, -1.47500000000000000000e+03) (11, 2.87869401516211187442e+00) (12, -9.17537326450701629099e-01) (13, 1.80575055895769720493e-01) (14, 1.69116554676020269810e-01) (15, 1.03639461179579868144e+01) (16, 1.85796804149588830057e+01) (17, -1.67358743488966466018e+00) (18, 8.22857924735594004062e+00) (19, 3.40780973918709650938e-01) (20, 3.50989506132874384825e-01) (21, -3.56523542579476215852e-01) (22, 3.72553042145469781588e+00) (23, 8.36114359034656029479e-01) (24, 1.80558043663815026569e+00) (25, -1.46075596331470602962e+00) (26, -1.31481312792265075950e-01) (0, -3.98241348079581580777e+00) (1, -8.26094794431985857130e-01) (2, -4.01516524651290979131e-02) (3, 1.19300734018451137786e+00) (4, 2.37208040176579537661e-01) (5, -1.43852000121116680020e+03) (6, 1.50000000000000000000e+03) (7, 9.64149134912412469900e-02) (8, 9.42655907637214851569e-01) (9, 2.77359456427462447436e+00) (10, -1.50000000000000000000e+03) (11, -4.61496118418961043250e-01) (12, 1.78655787953213462949e+00) (13, 2.84126778958761816440e-01) (14, 1.62832973419153814731e-01) (15, -1.50000000000000000000e+03) (16, 3.28861874764009698424e+00) (17, 1.28570940661928756477e-01) (18, -2.61214093709378492036e+00) (19, 3.64408078345579644619e-01) (20, 2.58570405396732483361e-01) (21, 1.12188139490989380320e-01) (22, 6.48297653567550757892e-01) (23, 4.61670011290846116214e-01) (24, 2.09854970351983727284e+00) (25, -6.01906999499760009265e-01) (26, -8.39756135564208444633e-02) (0, 1.68018874558049908785e+01) (1, 5.01209348724782177698e+00) (2, 2.33752842952174733071e+00) (3, -4.68336020892116433600e+00) (4, 6.57293265428942508066e-01) (5, -6.31769136888931029716e+02) (6, 1.50000000000000000000e+03) (7, -5.91724956652033284854e+00) (8, 2.63839188479011266253e+00) (9, 1.31723951319843379792e-01) (10, -7.47540393168234018617e+00) (11, -1.00242842198428309075e+03) (12, 8.78727065894751490305e+02) (13, 2.84571295498335485874e-01) (14, 2.33797406671965246616e-01) (15, -8.77986990617857721020e+00) (16, 2.44601843712699569267e+01) (17, 1.34313691070661853644e+01) (18, -7.15620591201140587856e+00) (19, 9.78233865162688731587e-01) (20, 9.49208936354476229269e-01) (21, 2.60909861106064555614e+00) (22, -2.43184015415452670084e+00) (23, 3.36347511755596872973e+00) (24, 4.31686085974861200043e+00) (25, 3.84940096986191715445e+00) (26, 5.98697896313013622205e-01) (0, 3.22556258020550004062e+01) (1, 2.96192579906416675328e+00) (2, 9.58860467619325085309e-01) (3, 1.23242786118803993034e+00) (4, -1.14496204213509877173e-02) (5, -2.54118024833864737388e+01) (6, 1.50000000000000000000e+03) (7, 1.89138187409252545024e+00) (8, 3.66745369498432616240e+00) (9, 2.46360095593743028131e-01) (10, -2.10168489552147219612e+00) (11, 2.12245828032283201381e+00) (12, -7.31116969841393427032e+00) (13, 1.39281676976409862778e-01) (14, 1.51315523205723001521e-01) (15, -7.27637891049649265796e+00) (16, -1.47503721580157247217e+02) (17, 6.08014908734176895422e+00) (18, -5.19798587125647237883e+00) (19, -3.09686082486245017886e-01) (20, -3.33806525055501068788e-01) (21, -1.04715968425947858478e+00) (22, -4.42225078529421455897e+00) (23, -2.31357119724006077277e-01) (24, 1.01052539800962448702e+00) (25, -6.90254607305649781068e+00) (26, -4.27405997185962616136e-01) (0, -4.50876091656879296465e+01) (1, -3.13530842276016852299e-01) (2, -4.14072601252243188696e+00) (3, 1.00199449847554977744e+00) (4, 4.12138906476148569880e+00) (5, 5.58373426997886554091e+02) (6, 1.50000000000000000000e+03) (7, 2.44344395148032234033e+00) (8, -3.82219064222282634002e-01) (9, 2.86819099744254835116e+00) (10, -1.50000000000000000000e+03) (11, -6.79285362067544866704e+01) (12, 1.16637054343314106042e+00) (13, 1.30078693746058737801e-01) (14, 2.76793515203917150913e-01) (15, 1.50000000000000000000e+03) (16, 6.80059248683674582026e+01) (17, -4.07057804495399988554e+00) (18, 1.24595298310119950713e+00) (19, -6.40819443993634191292e-02) (20, -7.12934123802765225275e-03) (21, 3.10124139056873682208e+00) (22, 1.90120345167289217514e+00) (23, 1.18218651605279001515e+00) (24, -6.08071358248673998759e+00) (25, -3.85455220284864541469e+00) (26, -1.64717722602198607396e-01) (0, 3.69916652780513075527e+01) (1, 5.19768165854255581593e+00) (2, 5.30780822759516102138e-01) (3, -2.90160491737204095930e-01) (4, -3.98419898895803825667e+00) (5, 5.86333016262362818338e+01) (6, 1.50000000000000000000e+03) (7, -6.15897100225352822633e-01) (8, 1.28351490814072177749e+00) (9, 1.22334734205521034056e+00) (10, 1.50000000000000000000e+03) (11, 1.50000000000000000000e+03) (12, 2.11745272299720399545e+00) (13, 2.53347774861776953159e-01) (14, 2.60248621819937353550e-01) (15, -1.65600333674468593870e+01) (16, -4.18861409670371642733e+01) (17, 5.65512734074296208320e+00) (18, 7.81529542664491394532e+00) (19, -1.02116779527593171117e+00) (20, -1.07075839779305481692e+00) (21, 4.42480041081497965649e-01) (22, -9.19667351362277507576e+00) (23, 2.65918711668386598124e-01) (24, -2.14584689268343309365e+00) (25, 1.91792283837991850426e-01) (26, -4.28856797081795582116e-01) (0, -3.56994857522789521553e+00) (1, -5.21301931972047369324e-02) (2, -3.02201552423230546118e-01) (3, -2.16670790645115407536e-01) (4, 1.69074922418555839698e+00) (5, 7.64831253421127676972e+00) (6, 1.50000000000000000000e+03) (7, 1.17682879192336176111e+00) (8, -2.49372372757455025294e+01) (9, 2.37546581641899540172e-01) (10, 2.18772091397438384064e+00) (11, 1.02763482909115655417e+00) (12, 2.88514534881671025346e+00) (13, 1.97075543819391851841e-01) (14, 2.92767127870047216831e-01) (15, 6.29795784696137950220e+00) (16, 1.54099251314706123139e+02) (17, -2.01416419718612571543e+00) (18, 2.56416399073887468774e-01) (19, -2.45281119876034625626e-01) (20, -1.83117804162634706389e-01) (21, 2.40126880441419832124e-01) (22, 1.28214931046835389772e+00) (23, 8.35523320724157469996e-01) (24, -1.02986615069346099105e+00) (25, -1.47551670106632304424e+00) (26, -1.91191409739117607058e-01) (0, -2.46224155200818239919e+00) (1, -2.18046506418800989380e+00) (2, 8.18822729466526011421e-01) (3, 9.05542952949638713100e-01) (4, 2.95481359024894862930e-01) (5, 7.43662614654813758364e+00) (6, 1.50000000000000000000e+03) (7, -1.85498960302780097065e-01) (8, 1.65257789302675650589e+00) (9, 2.26227285400112165803e-01) (10, -1.50000000000000000000e+03) (11, -6.16514546743593314204e+02) (12, 7.90159044273891097987e+00) (13, 1.92117145179236059604e-01) (14, 1.57061325280392988235e-01) (15, 4.27526840684694064976e+00) (16, -1.39415666191065679413e+03) (17, -4.99781479149268570428e-01) (18, -1.95734011055488976716e+00) (19, 2.05651995620595405556e-02) (20, -2.20427188196311157897e-02) (21, 1.33643715844711769014e-01) (22, 3.53775194454071184591e-01) (23, 8.31295917178612869813e-02) (24, -2.11216460158251173596e+00) (25, -7.82548383319994655949e-01) (26, -6.44681246406893643242e-02) (0, -2.04321068469699262948e+01) (1, -3.75264622301707628793e+00) (2, -6.43231313453479502940e-01) (3, 2.30450574429238108642e-01) (4, 2.09053715467253181659e-01) (5, 1.42711148904069222709e+01) (6, 1.50000000000000000000e+03) (7, -2.12766245599451925274e-01) (8, 4.21189217285400996360e+00) (9, -6.77077674808125973271e-01) (10, 8.28196306946488469691e+00) (11, -1.45337403279552607183e-01) (12, -7.62522977102810362027e-01) (13, 2.55289992211783056675e-01) (14, 1.03148853300543560940e-01) (15, -1.33393052842907559352e+03) (16, -6.10224031373331214922e+01) (17, -1.51465492288365144447e+00) (18, -3.48113575532326491313e+00) (19, 8.93689013004345250701e-02) (20, 2.85637817263672856571e-02) (21, 9.36377363421368041907e-02) (22, 7.64129937711022333424e-01) (23, 6.63649151419705485289e-01) (24, 4.33325231444535219349e-01) (25, -1.29178193887022274566e+00) (26, 8.45459871669938661798e-02) (27, -2.41460455450647676345e-01) (28, -2.61927762229253388582e-02) (29, -6.88670674216787861988e-03) (30, -1.86253208842531242651e-01) (31, -1.24707715488683784644e-01) (32, -2.20569957144584355424e-01) (33, -7.13077488275181414767e-02) (34, -1.51528463271868779616e-01) (35, 2.66681817925778386069e-01) (36, 1.32435767532447096206e-02) (37, -2.41964207932002128842e-01) (38, -8.84252888348241450345e-02) (39, -3.16680281479142122780e-01) (40, -1.82641243052888174736e-01) (27, -9.25156225506539448000e-02) (28, -1.26119888297843846248e-01) (29, -1.22957156939811643181e-01) (30, -1.15505260931862349660e-01) (31, -3.91865775000037830367e-01) (32, -1.19263264614347802572e-02) (33, -7.50703266301288585360e-02) (34, -1.88529515053004297076e-02) (35, -4.64254956934579757211e-02) (36, 1.25776362498813742974e-01) (37, -1.88187451033711122816e-01) (38, 6.52499678205407940279e-02) (39, -9.08689557734124880861e-02) (40, -1.88859540618666527090e-01) (27, -8.15042547550579699056e-01) (28, -1.79705011114777796211e-01) (29, 1.50000000000000000000e+03) (30, 2.61894670935712059467e-01) (31, -3.00764324252943033855e+01) (32, -1.38761568181133068678e-02) (33, 2.33908319143898452142e-01) (34, -4.83507288839980198247e+00) (35, 6.54821640843301935320e+01) (36, 3.20575832240629736702e+01) (37, 9.92769692496590638875e-02) (38, 2.78059409480612251819e-01) (39, -5.40529964556128383890e+00) (40, 1.16838891154316115717e-01) (27, 5.73240111814354968978e-01) (28, 4.63852263826602995156e-01) (29, -4.97466757943487380977e-01) (30, 4.97884606556737996375e-01) (31, 7.62654559997934300419e-01) (32, -5.04927713736238459319e-01) (33, 5.76651012043537525287e-01) (34, 1.01929021605458980382e+00) (35, 2.66854199942984704474e-01) (36, -3.67015988957177519136e-02) (37, -2.47891883379821686972e+00) (38, 2.88577946880899827153e-01) (39, -1.66708491958747900830e-01) (40, 4.33439346927885660321e-01) (27, -2.36110626050393873632e-01) (28, -1.67532032581933248983e-01) (29, 7.50174680677456826722e-03) (30, -1.86351573748410381803e-01) (31, -5.87941513538540849737e-01) (32, -1.66169827605846837093e-01) (33, -2.76371975871667618918e-01) (34, 3.80584658758446672810e-02) (35, 1.55087777057045211881e-01) (36, 1.24084954815502773728e-01) (37, -1.48595900669511060688e-01) (38, -8.37359673932425302434e-02) (39, 9.39382418716895178923e-02) (40, -8.14985042122954306265e-02) (27, -2.58979660583237403237e-01) (28, -1.76051013864355926364e-01) (29, -3.26371369716121573212e-01) (30, -2.12852437721804316206e-01) (31, -3.02593369339670903440e-01) (32, -2.72787297451694610295e-01) (33, -1.60058094464213096497e-01) (34, -6.78994364763760183124e-01) (35, -1.62586650854871617167e-01) (36, 1.23069064737854771963e+00) (37, -3.51497503042228820469e-01) (38, -6.98279625881089993644e-02) (39, -3.76653020744390706898e-02) (40, -1.01130411866592287429e-01) (27, -1.92861532802611590487e-01) (28, -1.57128039079404036027e-01) (29, 2.82895753735927790729e-02) (30, -1.67823294049478932699e-01) (31, -1.66759576123313879581e-01) (32, -2.05013280700842293047e-01) (33, -8.09289746931637216099e-02) (34, -1.48876048724855519767e-01) (35, -2.32324021476203075587e-02) (36, 5.13833381382055587316e-02) (37, -2.40013636460454010679e-01) (38, 6.20189453945005630953e-02) (39, -5.33011040388624846020e-02) (40, -1.15342433474891065126e-01) (41, 2.57775546263583592577e+01) (42, 7.65962848526993145271e-01) (43, 5.93228573672958003904e-01) (44, 6.42942303185726871106e-01) (45, -1.12721233063538289754e-01) (46, -2.18720842057289893701e-01) (47, -1.73787571371481353033e+00) (48, 8.54772335604104371853e-01) (41, -1.25448468394961876182e-01) (42, 6.33226483651923577334e-02) (43, 2.51768936473741045123e-01) (44, -7.87345620509092708472e-02) (45, 6.26831628616095759554e-01) (46, -9.52104424188117554051e-02) (47, -3.12002762138903266820e-01) (48, 1.89959178744219164825e-01) (41, 2.52437113435841098408e+00) (42, 6.94419085823175907812e-01) (43, 4.50855351702807050085e-01) (44, 3.29123793276676357422e+00) (45, 3.89637868839762679940e+00) (46, 4.55878357337452833065e+00) (47, 5.59474655205817672510e+00) (48, 6.24017440467512285451e-01) (49, 8.66889484312819758038e-01) (50, 7.31108414217110702538e-01) (51, 6.30540587418083164906e-01) (52, 7.84975723596025964923e-01) 
