FANN_FLO_2.1
num_layers=5
learning_rate=0.700000
connection_rate=1.000000
network_type=0
learning_momentum=0.000000
training_algorithm=2
train_error_function=1
train_stop_function=0
cascade_output_change_fraction=0.010000
quickprop_decay=-0.000100
quickprop_mu=1.750000
rprop_increase_factor=1.200000
rprop_decrease_factor=0.500000
rprop_delta_min=0.000000
rprop_delta_max=50.000000
rprop_delta_zero=0.100000
cascade_output_stagnation_epochs=12
cascade_candidate_change_fraction=0.010000
cascade_candidate_stagnation_epochs=12
cascade_max_out_epochs=150
cascade_min_out_epochs=50
cascade_max_cand_epochs=150
cascade_min_cand_epochs=50
cascade_num_candidate_groups=2
bit_fail_limit=3.49999999999999977796e-01
cascade_candidate_limit=1.00000000000000000000e+03
cascade_weight_multiplier=4.00000000000000022204e-01
cascade_activation_functions_count=10
cascade_activation_functions=3 5 7 8 10 11 14 15 16 17 
cascade_activation_steepnesses_count=4
cascade_activation_steepnesses=2.50000000000000000000e-01 5.00000000000000000000e-01 7.50000000000000000000e-01 1.00000000000000000000e+00 
layer_sizes=79 40 15 8 2 
scale_included=0
neurons (num_inputs, activation_function, activation_steepness)=(0, 0, 0.00000000000000000000e+00) (0, 0, 0.00000000000000000000e+00) (0, 0, 0.00000000000000000000e+00) (0, 0, 0.00000000000000000000e+00) (0, 0, 0.00000000000000000000e+00) (0, 0, 0.00000000000000000000e+00) (0, 0, 0.00000000000000000000e+00) (0, 0, 0.00000000000000000000e+00) (0, 0, 0.00000000000000000000e+00) (0, 0, 0.00000000000000000000e+00) (0, 0, 0.00000000000000000000e+00) (0, 0, 0.00000000000000000000e+00) (0, 0, 0.00000000000000000000e+00) (0, 0, 0.00000000000000000000e+00) (0, 0, 0.00000000000000000000e+00) (0, 0, 0.00000000000000000000e+00) (0, 0, 0.00000000000000000000e+00) (0, 0, 0.00000000000000000000e+00) (0, 0, 0.00000000000000000000e+00) (0, 0, 0.00000000000000000000e+00) (0, 0, 0.00000000000000000000e+00) (0, 0, 0.00000000000000000000e+00) (0, 0, 0.00000000000000000000e+00) (0, 0, 0.00000000000000000000e+00) (0, 0, 0.00000000000000000000e+00) (0, 0, 0.00000000000000000000e+00) (0, 0, 0.00000000000000000000e+00) (0, 0, 0.00000000000000000000e+00) (0, 0, 0.00000000000000000000e+00) (0, 0, 0.00000000000000000000e+00) (0, 0, 0.00000000000000000000e+00) (0, 0, 0.00000000000000000000e+00) (0, 0, 0.00000000000000000000e+00) (0, 0, 0.00000000000000000000e+00) (0, 0, 0.00000000000000000000e+00) (0, 0, 0.00000000000000000000e+00) (0, 0, 0.00000000000000000000e+00) (0, 0, 0.00000000000000000000e+00) (0, 0, 0.00000000000000000000e+00) (0, 0, 0.00000000000000000000e+00) (0, 0, 0.00000000000000000000e+00) (0, 0, 0.00000000000000000000e+00) (0, 0, 0.00000000000000000000e+00) (0, 0, 0.00000000000000000000e+00) (0, 0, 0.00000000000000000000e+00) (0, 0, 0.00000000000000000000e+00) (0, 0, 0.00000000000000000000e+00) (0, 0, 0.00000000000000000000e+00) (0, 0, 0.00000000000000000000e+00) (0, 0, 0.00000000000000000000e+00) (0, 0, 0.00000000000000000000e+00) (0, 0, 0.00000000000000000000e+00) (0, 0, 0.00000000000000000000e+00) (0, 0, 0.00000000000000000000e+00) (0, 0, 0.00000000000000000000e+00) (0, 0, 0.00000000000000000000e+00) (0, 0, 0.00000000000000000000e+00) (0, 0, 0.00000000000000000000e+00) (0, 0, 0.00000000000000000000e+00) (0, 0, 0.00000000000000000000e+00) (0, 0, 0.00000000000000000000e+00) (0, 0, 0.00000000000000000000e+00) (0, 0, 0.00000000000000000000e+00) (0, 0, 0.00000000000000000000e+00) (0, 0, 0.00000000000000000000e+00) (0, 0, 0.00000000000000000000e+00) (0, 0, 0.00000000000000000000e+00) (0, 0, 0.00000000000000000000e+00) (0, 0, 0.00000000000000000000e+00) (0, 0, 0.00000000000000000000e+00) (0, 0, 0.00000000000000000000e+00) (0, 0, 0.00000000000000000000e+00) (0, 0, 0.00000000000000000000e+00) (0, 0, 0.00000000000000000000e+00) (0, 0, 0.00000000000000000000e+00) (0, 0, 0.00000000000000000000e+00) (0, 0, 0.00000000000000000000e+00) (0, 0, 0.00000000000000000000e+00) (0, 0, 0.00000000000000000000e+00) (79, 4, 6.50000000000000022204e-01) (79, 4, 6.50000000000000022204e-01) (79, 4, 6.50000000000000022204e-01) (79, 4, 6.50000000000000022204e-01) (79, 4, 6.50000000000000022204e-01) (79, 4, 6.50000000000000022204e-01) (79, 4, 6.50000000000000022204e-01) (79, 4, 6.50000000000000022204e-01) (79, 4, 6.50000000000000022204e-01) (79, 4, 6.50000000000000022204e-01) (79, 4, 6.50000000000000022204e-01) (79, 4, 6.50000000000000022204e-01) (79, 4, 6.50000000000000022204e-01) (79, 4, 6.50000000000000022204e-01) (79, 4, 6.50000000000000022204e-01) (79, 4, 6.50000000000000022204e-01) (79, 4, 6.50000000000000022204e-01) (79, 4, 6.50000000000000022204e-01) (79, 4, 6.50000000000000022204e-01) (79, 4, 6.50000000000000022204e-01) (79, 4, 6.50000000000000022204e-01) (79, 4, 6.50000000000000022204e-01) (79, 4, 6.50000000000000022204e-01) (79, 4, 6.50000000000000022204e-01) (79, 4, 6.50000000000000022204e-01) (79, 4, 6.50000000000000022204e-01) (79, 4, 6.50000000000000022204e-01) (79, 4, 6.50000000000000022204e-01) (79, 4, 6.50000000000000022204e-01) (79, 4, 6.50000000000000022204e-01) (79, 4, 6.50000000000000022204e-01) (79, 4, 6.50000000000000022204e-01) (79, 4, 6.50000000000000022204e-01) (79, 4, 6.50000000000000022204e-01) (79, 4, 6.50000000000000022204e-01) (79, 4, 6.50000000000000022204e-01) (79, 4, 6.50000000000000022204e-01) (79, 4, 6.50000000000000022204e-01) (79, 4, 6.50000000000000022204e-01) (0, 0, 6.50000000000000022204e-01) (40, 8, 7.50000000000000000000e-01) (40, 8, 7.50000000000000000000e-01) (40, 8, 7.50000000000000000000e-01) (40, 8, 7.50000000000000000000e-01) (40, 8, 7.50000000000000000000e-01) (40, 8, 7.50000000000000000000e-01) (40, 8, 7.50000000000000000000e-01) (40, 8, 7.50000000000000000000e-01) (40, 8, 7.50000000000000000000e-01) (40, 8, 7.50000000000000000000e-01) (40, 8, 7.50000000000000000000e-01) (40, 8, 7.50000000000000000000e-01) (40, 8, 7.50000000000000000000e-01) (40, 8, 7.50000000000000000000e-01) (0, 8, 7.50000000000000000000e-01) (15, 8, 7.50000000000000000000e-01) (15, 8, 7.50000000000000000000e-01) (15, 8, 7.50000000000000000000e-01) (15, 8, 7.50000000000000000000e-01) (15, 8, 7.50000000000000000000e-01) (15, 8, 7.50000000000000000000e-01) (15, 8, 7.50000000000000000000e-01) (0, 8, 7.50000000000000000000e-01) (8, 13, 8.00000000000000044409e-01) (0, 13, 8.00000000000000044409e-01) 
connections (connected_to_neuron, weight)=(0, 7.09274259075756474680e-01) (1, 7.71037251827382030811e-01) (2, 1.35225865999076688695e+01) (3, 3.27858498154511901479e-01) (4, 7.67684701522691526066e-01) (5, 1.07997190896582195840e+00) (6, 1.50000000000000000000e+03) (7, 6.00880380389915647044e-01) (8, 1.12786790234326895188e+03) (9, -8.01024308286513053723e-01) (10, 1.50000000000000000000e+03) (11, 5.59524202549732905254e+01) (12, 1.49180628359210277267e+03) (13, 4.06090909228080595983e-02) (14, 1.05691395102475271806e-01) (15, 4.44098335633408769496e+00) (16, 4.86551867823069472685e-01) (17, 1.03288977169061024775e+00) (18, 3.79323584958843156301e+01) (19, 9.24140442298123199194e-01) (20, 9.02779128537842590063e-01) (21, 2.09262444495993982230e+00) (22, 1.50000000000000000000e+03) (23, 2.68262899022747136613e+00) (24, 2.00705117116375175712e+00) (25, 2.28377089540532773881e+00) (26, -1.77862092562077606095e-01) (27, -5.61331349923994582518e-01) (28, 1.09535251844626935203e+00) (29, -6.80591761997986921529e+00) (30, 6.78271977972728423723e-01) (31, 1.22845503701500469163e+00) (32, 1.50000000000000000000e+03) (33, 1.59189031258041602257e+00) (34, 1.33674762017045100038e+03) (35, 7.07161527840684698276e+01) (36, 1.50000000000000000000e+03) (37, 9.30315241582104590634e+00) (38, 9.89238283901963910694e+01) (39, 1.03416881857846365556e-01) (40, 1.16245097814534292802e-01) (41, -8.77285348736178463014e+01) (42, 3.77763114073693095918e+00) (43, 2.61594163912247168469e+00) (44, 1.17893635440088528910e+00) (45, 2.92071959653380863742e+00) (46, 3.04303781965259068087e+00) (47, 1.02415932677363974435e+00) (48, -8.80698460412438954847e+00) (49, 3.48548284251554951751e+00) (50, 7.91285374882224501469e-01) (51, 1.94284486858494864769e+00) (52, 8.25916729960188278348e-01) (53, 7.02981020064419315219e-01) (54, 1.00345118338217265119e+00) (55, 7.14440460338719329769e-01) (56, 6.89927931956315965145e-01) (57, 5.83498302886617414842e-01) (58, 1.50000000000000000000e+03) (59, 1.37337755148885443113e+00) (60, 6.29447053076418114870e+01) (61, 7.76389019689116888223e-01) (62, 1.50000000000000000000e+03) (63, 6.36460593601611464010e+01) (64, 1.12277447813146500266e+03) (65, 6.22440123543495024694e-02) (66, 1.23877114950154409989e-01) (67, -4.97691837506662082546e+00) (68, 6.57769264256648611422e-01) (69, 7.87267277677119570178e-01) (70, 1.02293364595057667543e+00) (71, 9.19365566290860303234e-01) (72, 1.00426768890762807551e+00) (73, 9.82052466008717650503e-01) (74, -4.78075445505258378454e-01) (75, 1.82800737042313201641e+01) (76, 6.47747427177556178712e-01) (77, 1.22593209315939399850e+00) (78, 9.97640024116452139857e-01) (0, -2.46638313880109733001e-01) (1, -2.52474750268008163445e+00) (2, 2.67130918929703931042e+00) (3, 9.72418238024495340532e-01) (4, 1.85090529372276296760e-01) (5, 5.81269358583023976195e+00) (6, 1.50000000000000000000e+03) (7, 3.21574274294593120960e-01) (8, 9.11356358949299583116e+00) (9, -4.85984220262427601966e-01) (10, 2.42093830771898481657e+01) (11, 5.37268339058364352567e-01) (12, -5.48688461716440567528e+00) (13, 1.15697532294724569901e-01) (14, 1.17021239696477041825e-01) (15, 1.27533645784148341740e+00) (16, 2.18507603132194772044e+00) (17, -6.05291042810942148122e-01) (18, 8.23965524353173428551e+00) (19, 4.22961337698636065385e-03) (20, -4.17792827056531618224e-02) (21, 7.84056841961190964518e-02) (22, -4.70119382071010072366e+00) (23, 4.03772173436582537676e+00) (24, 5.30544997378992605475e-02) (25, 4.15478641420397198925e-01) (26, 4.50178793048662706511e-01) (27, -5.34298050410501357277e+00) (28, 3.58483456664432514893e-02) (29, 6.57352925725567915904e-01) (30, 3.70409590463873505950e-01) (31, 5.75708134637572865877e-01) (32, 1.50000000000000000000e+03) (33, -9.71311561568220932505e-02) (34, -9.19687777690448271528e+00) (35, -1.37263093375965650189e+00) (36, 4.03375734544094655121e+02) (37, 4.76100863816576946874e+00) (38, 5.63809001035487966647e+00) (39, 1.42874270080063925370e-01) (40, 7.64408999666911226356e-02) (41, 8.20539817744052513149e+00) (42, 2.87596703568818057306e-01) (43, -1.28456396442986520157e+00) (44, 4.98446221448955295585e+00) (45, 3.76672207991347318679e-01) (46, 2.30584501902327515532e-01) (47, -1.06103476415612951733e+00) (48, -2.85851022715851588174e+00) (49, 6.56381602452596180086e+00) (50, 3.14781548682755252244e+00) (51, 3.78406534774453962022e-01) (52, -1.65395563448803434303e-01) (53, -9.67349882816298245469e-02) (54, 1.18462775354527494187e+00) (55, 4.74087326605943282232e+00) (56, 6.90737332109065405028e-01) (57, 5.83283072234757837826e-01) (58, 1.50000000000000000000e+03) (59, 3.19771488481312926577e-01) (60, -6.22538251664763198079e+00) (61, 1.44720018912236305653e+01) (62, 7.66623758163671453758e+01) (63, -7.25940146067753211412e+00) (64, 8.10780524617762954342e-01) (65, 4.57612344608062590612e-02) (66, 9.77334448680621248329e-02) (67, 4.89716889724374937476e-01) (68, 5.96288106002907047909e-01) (69, -1.88164635398628332652e+00) (70, 1.20894097251960168649e+01) (71, -9.21633936482323945505e-02) (72, -1.16535609962309966159e-01) (73, -1.01420362033138822255e+00) (74, -1.00109312135028841184e-01) (75, 1.67739577891739379822e+01) (76, 6.55625711857348036915e+00) (77, 3.68157409427302961813e-01) (78, 1.55484807351805670583e-01) (0, 2.63585424217088581944e-01) (1, 1.44576837343281816572e+00) (2, -3.16684687385245855484e-01) (3, -7.33755145640757944214e-01) (4, -3.02064065396030478894e+00) (5, -8.95343530795921083154e+00) (6, 1.50000000000000000000e+03) (7, 2.60631339554984897688e+00) (8, -7.63929925573005341732e+00) (9, 3.17460262193738573799e+00) (10, 1.50000000000000000000e+03) (11, -1.99194027835908504809e-01) (12, -1.25534639177028282120e+02) (13, 1.05885475276444540604e-01) (14, 2.05874353049729452714e-01) (15, 6.24785155500915490023e+00) (16, 2.70187714683607249633e-01) (17, 2.33811825063568967664e+00) (18, 3.13491965347399759168e+00) (19, 1.92372000641021112521e-01) (20, 2.40049368566665144442e-01) (21, 2.67331788308292517264e-01) (22, 8.87885987165426286083e+02) (23, -3.29783556204124828071e+00) (24, -2.03681688623489298706e+00) (25, -1.55328058485496647845e-02) (26, 1.44504636184361978657e+00) (27, 7.03592679257567166218e+00) (28, 2.34153799006800666938e-01) (29, 5.65705334837476536691e-01) (30, -8.75378323515615952566e-01) (31, 1.51062980642555771960e-01) (32, 1.50000000000000000000e+03) (33, 1.79691598357424986432e+00) (34, 6.54605883376230281101e+02) (35, 9.13434721904660662517e+00) (36, 1.50000000000000000000e+03) (37, 1.06792444110648734323e+01) (38, -4.07303862832462471033e+00) (39, 5.14107638582938994420e-02) (40, 4.94053767606967772497e-02) (41, 5.97259782364400759747e+00) (42, 5.16002037016608169906e-02) (43, -2.54347658865225922931e-01) (44, -5.16253486701141350856e-01) (45, 9.22255698599414447392e-02) (46, 5.48137459911899049825e-02) (47, 4.79391662740913049312e-01) (48, -1.11765863479932736624e+00) (49, 6.80309062176615331197e+00) (50, 2.32506876207769497267e-01) (51, -2.51451073120750011325e-02) (52, 1.28665560062234229921e-01) (53, 2.41155264978424588307e+00) (54, -6.04748455621830494078e-02) (55, -5.50679451053864510435e-01) (56, -2.87432186115673093951e+00) (57, 1.18649967722143179216e+00) (58, 1.50000000000000000000e+03) (59, 1.17750937862318050264e+00) (60, -2.93300208907253168178e+00) (61, -5.96737514917476197240e+00) (62, 1.50000000000000000000e+03) (63, 3.74841803964080089173e+00) (64, 7.53603038549795343215e+01) (65, 1.99056410774938775943e-02) (66, 1.42866029737923727616e-01) (67, -4.01856800762043864239e+00) (68, -6.66966334336815513950e-01) (69, 4.94756479833861118056e-01) (70, -7.05064651892961191670e-01) (71, 1.59546651697728275598e-01) (72, 1.00313708937737763871e-01) (73, 1.06198795849775806666e+00) (74, 7.76441144401270100239e-01) (75, 8.31275551345807706127e+00) (76, -8.76762722509284442296e-01) (77, 4.04539506924514957742e-01) (78, 7.74034973458103542354e-02) (0, 3.89701549134840286026e-01) (1, 4.36030722473890075541e-01) (2, 5.08274490362368713825e-01) (3, 1.09173075802088153097e+01) (4, 8.10420539355115820968e+00) (5, 1.75343092628627914564e+01) (6, 1.50000000000000000000e+03) (7, 3.86805949573247265239e-01) (8, 6.72402160743599486281e-01) (9, 1.60538447204352578979e+01) (10, 3.24956777065949182770e+01) (11, 2.83231327287103429313e-01) (12, 1.01246310407132811271e+00) (13, 1.06546170412037954911e-01) (14, 1.10254197715256796464e-01) (15, -5.38308804243626481956e-01) (16, -1.46532313833805782899e+00) (17, 1.71765217281985442810e+01) (18, 5.49205533275539004023e-01) (19, 5.47152090175919925130e-01) (20, 4.16723246975713945695e-01) (21, 1.48523660897071563269e+00) (22, 6.77025280144637463309e+02) (23, 3.54636943757517753006e-01) (24, 6.42161214575733690912e-03) (25, 2.05748038908877189934e-01) (26, -1.10202506580773040845e+00) (27, -3.01278059000590014982e-01) (28, 1.90206584526386029976e-01) (29, 1.03580119154421335104e+00) (30, 8.66584705439453761855e-01) (31, 2.08235400577480828099e-01) (32, 1.50000000000000000000e+03) (33, 3.86318079025510685565e-01) (34, 6.55831706843262622897e+01) (35, 6.86962393532358328585e-01) (36, 1.18230748791987457480e+03) (37, 5.63003428251555693151e-01) (38, 1.71945733734003147752e+00) (39, 2.66729214772933806432e-02) (40, 8.05446350559931856239e-02) (41, -3.62922588449816796441e+00) (42, -1.18974718724523281788e-01) (43, -1.01202929576348044094e+00) (44, 1.43469652551721904565e+00) (45, 4.52484654411369757732e-01) (46, 4.54434903487259400645e-01) (47, 2.52216661587789658938e-01) (48, -5.40771023133640138525e+00) (49, 1.55925738437209489007e+01) (50, 3.34504500560041273527e-01) (51, -3.68325639908330948469e-01) (52, 1.17882211643985912453e+00) (53, -4.17485356369052418302e+00) (54, 4.78014603765047507711e-01) (55, 5.32214624808589888971e+01) (56, 2.63104750824426913969e-01) (57, 2.88177493943946538835e-01) (58, 1.50000000000000000000e+03) (59, 4.92202374384845597888e-01) (60, -2.70526161777527676122e+01) (61, -2.79859606904245907799e+01) (62, 3.88931340363978847563e+02) (63, 2.02004586799765881722e+01) (64, 3.05870768898480083209e-01) (65, 1.72820606813184028672e-02) (66, 4.83409011349433745397e-02) (67, 1.28456582316368255192e+01) (68, 4.08195239929359687814e-01) (69, 4.77887705002624119111e-01) (70, -3.03761464047767439922e+01) (71, 6.87956884577727634245e-01) (72, 6.26840211525416690641e-01) (73, 2.52202338678405302286e-01) (74, -6.22386760398693539287e+00) (75, -8.85602433783108544674e+00) (76, 5.37330253108877053947e-01) (77, -1.71336116812142502663e-01) (78, 6.05753696285537546196e-01) (0, 6.04881923298061563443e-01) (1, -9.80709894813295157689e+00) (2, 6.99456230294817249415e+00) (3, -4.76504898130756604502e+00) (4, 3.51854269276323794458e+00) (5, -4.00018626903389851179e-01) (6, 1.50000000000000000000e+03) (7, -1.19925944075068935391e+00) (8, -1.10966530045732247878e+00) (9, 9.37407528042870552554e+00) (10, -1.50000000000000000000e+03) (11, -2.04396241680355261749e+00) (12, 3.87617332238217272788e+02) (13, 1.73030703662369833573e-01) (14, 1.15739315150712118729e-01) (15, 4.33205453233890036557e+00) (16, -5.72368190877125471161e+01) (17, 2.99432453839021039954e+00) (18, 1.42547264588240629735e+00) (19, 2.98119390433169317856e-01) (20, 3.60645810191965898728e-01) (21, 7.85618030618310814184e-01) (22, -7.74565580288320809643e+00) (23, 1.11897870171695612562e+00) (24, 1.47629257469503301081e+02) (25, 4.17107300298916350290e-01) (26, 1.37859330696108295378e+00) (27, 1.64898626121775332409e-01) (28, -3.19183649030181948447e+00) (29, 1.71506804654065891924e+00) (30, 2.20835436589546585395e+00) (31, 3.31310782060242061675e+01) (32, 1.50000000000000000000e+03) (33, 5.04781875053102568884e-01) (34, 3.80981026138521716717e+00) (35, 1.21959554976410666782e+00) (36, -1.50000000000000000000e+03) (37, -3.38762971856437600238e+00) (38, -4.13689217266967943942e+02) (39, 1.55651375053856955155e-01) (40, 2.13303783521406886692e-02) (41, 2.47412618689972019226e+00) (42, 8.06326564536902434810e-01) (43, 6.77244102671996550669e+00) (44, 3.02142143300276133644e+00) (45, 1.03041986170223601182e-01) (46, 1.64251832095893661456e-02) (47, 8.59068401697964056929e-01) (48, 1.09960596664064258476e+00) (49, -6.69119299250804200341e+00) (50, 3.23036154695633903611e-01) (51, 2.39388883876619523727e-01) (52, 6.39054367412346668864e-01) (53, 5.87668228146430049463e-01) (54, 6.70133867892975243485e-01) (55, 4.66445341348805619930e+00) (56, 1.34232991953352831516e+00) (57, 2.42184265993509573178e+00) (58, 1.50000000000000000000e+03) (59, -2.82206077646564162942e-02) (60, -5.38221111514020300604e+00) (61, -4.09887429698588490190e-01) (62, -1.50000000000000000000e+03) (63, 3.91454148569650683953e+00) (64, -9.02817410728599440972e+01) (65, 4.49443230018371428502e-02) (66, 1.68044983743165121659e-01) (67, 9.85658717690665895361e+01) (68, 1.03059912911147512204e+03) (69, 6.91385297318563796232e-01) (70, 3.01985325565577644724e+00) (71, -5.71833771963219938961e-01) (72, -5.07042584319215339228e-01) (73, 1.56752917016194071032e+00) (74, 6.49287743226430791310e-01) (75, 1.97616476686106712357e+00) (76, 1.27143433856772092305e+00) (77, 3.76812753714869108634e-02) (78, 3.94954383792363195038e-01) (0, -1.13866068138157180978e-01) (1, -1.96863442911012931358e-01) (2, 9.92010628914892111929e-01) (3, 1.93877977604625617580e+00) (4, -3.19689662504006100185e-01) (5, 3.93585349443532406255e+00) (6, 1.50000000000000000000e+03) (7, 8.50104668533438800893e-01) (8, 5.84304167798241191889e+00) (9, -4.01926903552487502225e+00) (10, 1.12362628687761434776e+03) (11, 8.37215206647477283575e-01) (12, -1.12281048851743818773e+01) (13, 2.03930943606827841386e-01) (14, 5.59627296015971983922e-02) (15, -4.30905076886136484404e+00) (16, -7.74288632672744725483e+00) (17, -1.91327034511360283275e+00) (18, -3.06453344439986175018e+00) (19, -2.55487821177459162314e-01) (20, -3.70259150043940665764e-01) (21, 9.75920401647480395546e-02) (22, 3.27328238875996424539e+00) (23, -1.69798762253589208271e+00) (24, 3.71199113458350438144e-01) (25, 1.03385771552727559475e-01) (26, 1.91666338609923805336e+01) (27, 1.71100445029247927309e+00) (28, 1.06405797286443282168e+00) (29, 1.07774065613624542292e-01) (30, -2.60302544463276164244e-01) (31, 1.16531269362852918370e+00) (32, 1.50000000000000000000e+03) (33, 6.63588164988774931174e-01) (34, -2.12926153462289091678e+00) (35, 8.36489885899383267542e+00) (36, 1.50000000000000000000e+03) (37, -1.79025250096586097115e-01) (38, 2.56302367962367441123e+02) (39, 1.38804926870797262772e-01) (40, 8.31382492170077425087e-02) (41, 9.50669481549520467567e-01) (42, 1.09069807224175496785e+00) (43, -7.06665731099369409662e+00) (44, 2.89862855894731097361e-01) (45, 1.12914827094639569349e-01) (46, 1.97658423708046648848e-01) (47, 1.24473069881591957841e-01) (48, 1.19553164962781686143e+01) (49, -2.38295180435333098234e-01) (50, 3.57491222101751091600e+01) (51, -3.77038349806595729508e-01) (52, -2.19275040704343865405e-01) (53, -1.49201457690193522998e-01) (54, 4.33241822602661474928e-01) (55, 2.46209506912649045418e+00) (56, -3.54839233427408917709e-01) (57, 1.04706918244109647986e+00) (58, 1.50000000000000000000e+03) (59, -5.28715177526149204823e+00) (60, 2.94619999681874222830e+00) (61, 5.97031580109127713030e+00) (62, 1.50000000000000000000e+03) (63, 2.88703948099011720174e+00) (64, -1.00693421169931642822e+01) (65, 1.63256659506295309647e-01) (66, 4.33994525656455840124e-02) (67, -2.69101540016075946316e-01) (68, 7.48273686207923383051e+00) (69, 6.86031317448067667897e-01) (70, -6.39322460197936681681e+00) (71, -3.65084433312337031108e-01) (72, -2.88679392392556632974e-01) (73, 2.17716914688739743289e-01) (74, 4.91428842664613707569e+00) (75, 4.16732365399975979159e+00) (76, -1.37909387794607418698e+00) (77, -1.74290603354088302623e+00) (78, 5.80315566019152795363e-01) (0, 4.11682177766762913418e-01) (1, -7.01171363630601507388e-01) (2, -9.31917190800702760489e-02) (3, -1.08984608463632726139e-01) (4, -7.57151249179182223026e-02) (5, 2.63952204155003422592e-01) (6, 1.50000000000000000000e+03) (7, -4.25721017448735317146e+00) (8, -3.69022988238251192783e-02) (9, -4.59904385407218369020e-02) (10, 1.81253307662030715974e+00) (11, -1.92676638221586093991e-01) (12, -1.27424206460898048476e+00) (13, 1.89394235013459311112e-01) (14, 1.37532591222260580643e-01) (15, 2.88061368285598196071e-01) (16, -1.76955564145345611848e+00) (17, 4.70517998057847774973e-01) (18, -4.69894007623245890497e-04) (19, -1.17950393738726570098e-02) (20, -1.40376153487203420012e-01) (21, 2.24880709854301391593e-01) (22, 1.33258155114950382902e+00) (23, 4.18457350101475555881e-01) (24, 8.57301875002181690277e-01) (25, -2.70225353617030705777e-01) (26, 3.10393574969831609334e-01) (27, -9.08232631268119927626e-01) (28, -8.78451384909118143662e-02) (29, 1.62472830412960678181e-01) (30, -9.62395821324002614938e-02) (31, 6.26250058207157955792e+00) (32, 1.50000000000000000000e+03) (33, -6.38347997377632658811e+00) (34, 1.60564271125899593606e+00) (35, 6.17156171420289112461e-01) (36, 1.50000000000000000000e+03) (37, 9.18388835298863503986e-01) (38, -2.81063884825807352996e-02) (39, 1.33113093076680288895e-01) (40, 2.02966624483816478197e-02) (41, 2.48863247093593598080e+00) (42, 2.67655522163893211385e-01) (43, 6.28086126620763796069e-01) (44, -1.17321398316059782863e-01) (45, -2.83673381552173309306e-02) (46, -1.28661227796979277249e-01) (47, 1.03891799786811012130e-01) (48, 7.25766157973957048988e-01) (49, 1.08047480682648067152e+00) (50, 2.49740722591124342244e-01) (51, -7.79001402925794290966e-03) (52, 3.15763142128348606175e-01) (53, -3.76052134192500553400e-01) (54, -4.54952042521318336665e-02) (55, -7.57370855306450097011e-01) (56, -1.09690482412407919188e-01) (57, 4.60436175116232193627e-01) (58, 1.50000000000000000000e+03) (59, -7.74113930820007234423e-01) (60, -1.94500114365262333216e+00) (61, -1.19109697537771397347e-01) (62, 7.73632126034411982118e+01) (63, 2.04818386963370901999e-01) (64, -2.16705872245306963020e-01) (65, 2.63054215893501128209e-02) (66, 1.03939577339623556718e-01) (67, 1.82936135335822064318e-01) (68, 6.11073352529059810045e-01) (69, -2.47020601493928487757e-01) (70, -1.46135934074067663779e+00) (71, -1.97619316007832002136e-01) (72, -6.05113178751261401866e-02) (73, 2.84155731808799383309e-01) (74, 1.57953003934003466391e-01) (75, 7.03679636599486624249e-01) (76, 2.52604304547712987805e-01) (77, -1.35217015195298384533e-01) (78, -7.54275356264228619141e-02) (0, 8.23240224601980152830e-02) (1, -3.89533194570794050193e-01) (2, 1.66223825763546506629e+00) (3, -6.03396229910076840497e+02) (4, -9.59281953950901433714e-01) (5, 2.70372865142155638374e-01) (6, 1.50000000000000000000e+03) (7, 1.30572349296886464076e-01) (8, 6.45506418175250701097e+02) (9, 1.42225342544575369175e+03) (10, 1.50000000000000000000e+03) (11, 1.79093650258765251237e+01) (12, -8.78129748145219224398e+01) (13, 1.51909529565308676347e-01) (14, 1.31956353186104879960e-01) (15, -6.33685906305391899451e-01) (16, -2.58883053507781379921e+00) (17, -1.40960161314267300170e-02) (18, 1.30199757596109816404e+03) (19, 7.12057350258425980627e-02) (20, 1.37563735065897030374e-01) (21, 7.59268882254955090882e-02) (22, 7.61672971731008097152e+00) (23, -6.79234122892846681196e-02) (24, -5.63746261683263027997e-01) (25, -9.22098148444637333299e-01) (26, 2.21688169586793115684e+01) (27, 1.46737032866541161624e+00) (28, -7.43606915553390035445e-02) (29, 6.09263627385976169748e-01) (30, 6.53522171318759892422e-01) (31, 1.54243611430504090620e+00) (32, 1.50000000000000000000e+03) (33, 1.56040188328377849025e+00) (34, 9.70244866318276535821e+02) (35, 1.50000000000000000000e+03) (36, 1.50000000000000000000e+03) (37, -3.88579653305669880936e+00) (38, -2.19962177275457831938e-01) (39, 1.43763854502175436600e-01) (40, 2.77817690357917632116e-02) (41, 2.12975115640310832532e+01) (42, 5.39976050212259250927e-01) (43, -5.62863904722399194247e-02) (44, -9.36124877396447452327e-01) (45, -1.89890589108923424355e-01) (46, -1.26814834317425323418e-01) (47, 1.10349878901879625004e-01) (48, -9.72237675899651820899e-01) (49, 7.93723866442895431561e+00) (50, -3.99471427614185081723e+00) (51, -3.71875317855982434612e-01) (52, -3.40924246909683981155e-01) (53, -1.34150689278283490324e+01) (54, 6.58620038024128051646e-02) (55, 1.05900265976885887831e+00) (56, 7.79391951048103859279e+00) (57, 3.01981768447401544009e+00) (58, 1.50000000000000000000e+03) (59, -2.18162055503194407535e+00) (60, 9.42288401242663553603e+02) (61, 1.44359010973179374560e+03) (62, 1.50000000000000000000e+03) (63, 7.23787740845598115413e+00) (64, 3.54919341158416792870e-02) (65, 1.49272053836320028886e-01) (66, 2.04131841062043295487e-01) (67, -8.45386504003446589195e+02) (68, -5.29333320816569585787e-01) (69, 3.10491411100316666571e-02) (70, -2.04400931105944216881e+01) (71, 2.43588147234623297877e-01) (72, 1.78248753320877362238e-01) (73, 1.02364282527648331467e+00) (74, -1.12273513551266682953e+03) (75, 2.36760321205053719806e-01) (76, -3.60524661933502910127e-01) (77, -1.74406946838792342724e+00) (78, -1.51966248773820561402e-01) (0, 7.10359828803580839462e-01) (1, 6.89460946275892161417e-01) (2, 9.58289420818822512693e-01) (3, 2.70581906022386320387e+00) (4, 1.33175634139139820178e+00) (5, -5.95054320073855724793e-01) (6, 1.50000000000000000000e+03) (7, 3.62912513889775656395e+00) (8, 8.36775847642784853520e+00) (9, 5.00065982227720873254e+00) (10, 2.25719381031865168552e+02) (11, 1.10017725850311336444e+02) (12, -3.12325295915605991581e+01) (13, 7.60517486915331941688e-02) (14, 1.90434529779885397538e-01) (15, -5.35146907636503321726e+00) (16, 1.24215725743503320189e+01) (17, 4.88773677838159267828e-02) (18, 1.25422280120006912618e+00) (19, 1.47169975861329205280e+00) (20, 1.45649043395537480805e+00) (21, 1.14173875497802246315e+00) (22, 1.43292687658001960394e+00) (23, 1.06743108838208700107e+00) (24, 8.87721672004308515191e-01) (25, 8.07192707871198678049e-01) (26, 1.50000000000000000000e+03) (27, 1.50000000000000000000e+03) (28, 4.38613164384883624791e+00) (29, 1.85987678980100978876e+00) (30, 1.51165346125654709297e+00) (31, 1.62298079256739612219e+02) (32, 1.50000000000000000000e+03) (33, 1.34235233798115349835e+00) (34, -5.21464580181490067190e+00) (35, 5.16977591463661578786e+00) (36, 7.73736375637755600110e+01) (37, 9.45948297001643027215e+02) (38, 2.44169606421494300719e+01) (39, 1.99069896325819208072e-02) (40, 1.65474846361611471757e-01) (41, -2.56793798416969032417e+01) (42, -4.07791832381561675902e+02) (43, 1.98144304139016597111e-01) (44, 4.35459532828270123872e+00) (45, 1.51401253888110698398e+00) (46, 1.62796945595841013876e+00) (47, 1.21362616242623211349e+00) (48, 8.13223770002302726034e-01) (49, -3.96892532058716485110e+00) (50, 6.23018342182445006294e-01) (51, 7.82998015840145833444e-01) (52, 2.38857147403296277144e-01) (53, 1.38111253151675494877e+00) (54, 1.57564230052017317796e+00) (55, 1.18870817885734368247e+03) (56, 1.25923542643893693338e+00) (57, 8.70037210244108072388e-01) (58, 1.50000000000000000000e+03) (59, 1.12166874467881405586e+00) (60, 7.93500686464696514122e-01) (61, 1.02648625180459829309e+00) (62, 8.51495524589464025667e+00) (63, 8.34216820420913940382e+00) (64, 4.08163349525853845989e+02) (65, 2.04668262586347980692e-02) (66, 1.74722596405480490311e-01) (67, 2.00586401307013728612e+00) (68, -3.68186371796117350996e-01) (69, 1.26677809094929400002e-01) (70, 2.45231456863684682546e+00) (71, 1.96229119582423905399e+00) (72, 2.08747777326354633232e+00) (73, 1.31613598373900364535e+00) (74, 8.49381573738113848648e-01) (75, -2.05585853878127861050e-01) (76, 7.20974760120049573686e-01) (77, 8.28280383749514625968e-01) (78, 1.20124947011886384907e+00) (0, 1.28550437244520837643e-01) (1, -3.09849745905108997501e-01) (2, 9.05868904730317225926e-01) (3, -2.51694397198124386605e+00) (4, -5.76980704005819911018e-01) (5, 8.36047570179247756528e+00) (6, 1.50000000000000000000e+03) (7, 7.31031619879472760459e+00) (8, 1.40053168921896258325e+01) (9, 9.99595748230869385331e-01) (10, 1.50000000000000000000e+03) (11, 2.08705775175932606302e+00) (12, 1.98082526358481601392e+02) (13, 1.09456933437321768388e-01) (14, 3.14249017820113982213e-02) (15, 8.36165790823324317493e-01) (16, 1.00923060087794169704e+00) (17, 5.45671267617188759935e-01) (18, 2.72665169693818654206e-01) (19, -3.21083725252305440812e-01) (20, -2.81268083312665506668e-01) (21, 6.11459334846002455777e-01) (22, 1.12199411056857215385e+02) (23, -1.18231334892423078919e+00) (24, 5.04508586058566854682e-01) (25, -1.08026129321900185576e-01) (26, 3.11708484623030246397e+00) (27, 7.47017047617735130416e-01) (28, 3.01563277784937211479e+00) (29, 1.10553026896684292169e+00) (30, 5.02878493049738972687e-01) (31, 6.16192501906370537768e+01) (32, 1.50000000000000000000e+03) (33, 9.66705601833579120097e-01) (34, 2.63254473606003394082e+01) (35, -7.76991005872717965808e-01) (36, 1.50000000000000000000e+03) (37, 7.74531515765325001555e-02) (38, 7.49066908464185843286e+00) (39, 7.96826624855738741005e-02) (40, 1.52355650052776962072e-02) (41, 1.26208363336162987522e+00) (42, 7.40407680552682911923e-01) (43, 7.96958713011007890969e+00) (44, 7.08037761482604111052e-01) (45, 4.13977438768280137094e-01) (46, 3.85572159847152817758e-01) (47, 5.54100033548062365085e-01) (48, 1.45551889420815627751e+00) (49, -1.90092848505503742018e+00) (50, 4.00723852141631020629e+00) (51, -1.19866738533393868416e+00) (52, 2.17196178942878459495e+00) (53, 3.47313701046189027277e-01) (54, 6.03627956447689850705e-01) (55, 5.37821473353195966816e-01) (56, -5.94133139149425670844e-01) (57, 3.19561081365756072259e+00) (58, 1.50000000000000000000e+03) (59, 3.96480252316638548393e+00) (60, 1.71880787334698781343e+00) (61, 9.91728173850403571521e-01) (62, 1.50000000000000000000e+03) (63, 5.75368538840243370913e+00) (64, -1.33402026814291350121e+01) (65, 1.44486277698014364823e-01) (66, 1.69448255895112143143e-01) (67, 2.22913480443038769518e-01) (68, 8.34519555981072436168e+00) (69, 1.58394466067794814634e+00) (70, 5.53378329241684738804e+01) (71, 3.61168442379543930265e-01) (72, 3.35993019949505478117e-01) (73, 4.37003387013342903256e-01) (74, -4.53337003669146998419e+00) (75, -9.62495591330351230042e-01) (76, 1.90172133538683603149e+01) (77, -8.74975819545445965275e+00) (78, 3.79746060232503346299e-01) (0, 4.49625593361533959502e-01) (1, 2.54550016165890957698e-01) (2, 3.70612179541210839950e-01) (3, 2.81791709865698458692e-01) (4, 1.72702754981897632636e-01) (5, -3.50322700588399649213e-01) (6, 1.50000000000000000000e+03) (7, 4.23989545169939974212e-01) (8, 7.55868629702276195736e-01) (9, 7.47390622526645342916e-01) (10, 1.36253145679386807387e+03) (11, -2.91787679504679708931e-01) (12, 1.02418923240438417110e+02) (13, 2.27833980307334191262e-02) (14, 1.09250462947819815263e-01) (15, 3.19384158906915471832e+00) (16, 9.29271160547837093979e-01) (17, 4.70647203608800579477e-01) (18, 8.20867875099868626876e+01) (19, 4.47242745510569084111e-01) (20, 4.32003000132075043460e-01) (21, 6.50623082585362610963e-01) (22, 1.50000000000000000000e+03) (23, 1.97356352875581309014e+00) (24, 2.62123482377598060467e+00) (25, 1.31746558954546943987e+00) (26, -6.60158245202723814593e-01) (27, -1.95010545361540194031e-01) (28, 5.29853719393800659532e-01) (29, -1.42538041071679111305e+00) (30, 5.17372346249040382382e-01) (31, -2.20247024548389264131e-01) (32, 1.50000000000000000000e+03) (33, 4.57834853041531819606e-01) (34, 7.20934979239729614164e+02) (35, -7.57929899056104794397e+00) (36, 1.50000000000000000000e+03) (37, -1.40244150069462225616e+00) (38, 5.06325713740096716720e+02) (39, 1.86752884982560263261e-01) (40, 1.44418954251740561112e-01) (41, 9.58615982392012289104e-01) (42, 2.01291119632897974601e-01) (43, 3.96256293800415271278e-01) (44, 8.68613993551458030140e+00) (45, 3.92995124692853803339e-01) (46, 4.78443427021440659264e-01) (47, 3.51260824273171956555e-01) (48, -3.91224684193539484767e+00) (49, 4.70484927311038259035e+00) (50, 3.45080043766182120724e-01) (51, 1.24309718444223604727e+00) (52, 1.15733143133729647900e+01) (53, -3.40688231749902126211e+00) (54, 3.59392921288054889573e-01) (55, 3.31053474656409496557e-01) (56, 1.25414461129303295150e-01) (57, -4.04653692076308801884e-01) (58, 1.50000000000000000000e+03) (59, 4.84864646549223315963e-02) (60, 3.13546536086068670102e+02) (61, -5.40492610628985570287e+00) (62, 1.36225864190269885512e+03) (63, -1.30469401017182795588e-01) (64, 6.41978050674239057116e+02) (65, 2.06764459012482748612e-01) (66, 7.90549659714442354286e-02) (67, 3.98926404184209104642e-01) (68, -2.03093085528658762184e-01) (69, 7.62374219253816320929e-02) (70, -3.79684551856646734791e+00) (71, 5.53521795400959026878e-01) (72, 4.90828154811245420674e-01) (73, 3.70548192373114537723e-01) (74, -2.68423503576674438165e+00) (75, 3.63567696376483029397e+00) (76, 2.75060809589599166713e+01) (77, 7.00427032106296532099e-01) (78, 6.37885304180527912266e-01) (0, 7.37779110671241356023e-01) (1, 2.32889829325198249865e-01) (2, 4.74226799674195231837e-01) (3, 1.08245052652407758309e+00) (4, -3.97560383433322570568e+01) (5, -2.54918925397288731460e+00) (6, 1.50000000000000000000e+03) (7, 1.44026419081637913067e+00) (8, 4.10203803839044756074e+00) (9, 9.07087551381148500695e+02) (10, 1.50000000000000000000e+03) (11, 6.95601875246282475018e+01) (12, -8.72809634824868538772e+01) (13, 1.57834097145531759843e-01) (14, 1.06187201438878164872e-01) (15, -1.11297207515373752784e+00) (16, -2.77300041844419942194e+00) (17, 2.52099341147766597970e+00) (18, -2.44216849885635234330e+01) (19, 7.65030539996737424246e-01) (20, 7.68571607239359799735e-01) (21, 6.74646935813040471430e-01) (22, 1.50000000000000000000e+03) (23, 2.48613565231854671822e+00) (24, -2.27782867101765340578e+00) (25, 3.60524667179095315017e-01) (26, 1.26217525362238504272e+02) (27, 1.50000000000000000000e+03) (28, 7.18144300624104947595e-01) (29, 1.62421447941989582908e+00) (30, -1.75176312193179972709e+00) (31, -8.18604936693296925121e-01) (32, 1.50000000000000000000e+03) (33, 4.84093162519344588635e-01) (34, 3.18915461018037049712e+01) (35, 1.12348800918942993121e+03) (36, 1.50000000000000000000e+03) (37, 4.75214336555431088982e+02) (38, 2.44053257970016401757e+00) (39, 1.92046597002480612382e-01) (40, 1.15874483583901510819e-01) (41, -4.81915971763972539321e+00) (42, 1.09329192960794596701e+00) (43, 8.14107271955642697314e-01) (44, 6.54482164082618510292e+02) (45, 8.09149744844460672155e-01) (46, 7.30025428271316001450e-01) (47, 7.70275268002818425117e-01) (48, 6.93273635475586846866e-01) (49, -6.00229965745666937948e+00) (50, -2.27479996111052962249e+00) (51, 4.11400137630845208481e-01) (52, -1.62627429110489135633e-01) (53, -1.29543845282019037812e-01) (54, 5.86153597596495101740e-01) (55, 1.12366313897588976367e+00) (56, 7.85919657933942361616e-01) (57, -1.08624693912665470918e+00) (58, 1.50000000000000000000e+03) (59, 6.37342333850005271501e+00) (60, 7.34927092109367663397e+01) (61, 1.47994833981741837903e+01) (62, 1.50000000000000000000e+03) (63, 3.09591578489458951751e+00) (64, 1.41938028283418411490e+01) (65, 1.88226594923470602616e-01) (66, 1.13000898955796347245e-01) (67, 1.22193959530789264534e+00) (68, 2.26384734576789176108e-01) (69, 3.91760295242039902064e+00) (70, 3.36222893938713185413e-01) (71, 6.95903759917110065203e-01) (72, 5.92056412717193225603e-01) (73, 6.28404544067828418896e-01) (74, -2.60045399678555577694e+00) (75, 3.34285766277705942429e+00) (76, -4.19357551905630572264e+01) (77, 5.63402873566220763202e-01) (78, 6.93218160798171889603e-01) (0, -1.21367616501008353941e-02) (1, 6.65918804684673265593e-02) (2, -1.76252620726767422754e-01) (3, -1.22540663144589556666e+00) (4, 2.16295470081094043380e+00) (5, 1.47885823336842059383e+00) (6, 1.50000000000000000000e+03) (7, -4.65898631973589272270e-01) (8, 6.79232603755916430899e-01) (9, 7.10448896792340089945e+00) (10, -1.94935563357963019371e+02) (11, 5.68701384777907437140e-01) (12, 6.43970332145912394139e+00) (13, 1.05121835468743429765e-01) (14, 1.71403571365807638749e-01) (15, 4.58670068171098954668e-01) (16, -5.93381394679937557157e-01) (17, -4.06066332961767617604e+00) (18, -3.00430901254370663622e-01) (19, 3.57686405304967758312e-01) (20, 2.80807649020253902172e-01) (21, -2.01696018132259541344e-01) (22, -2.46806171787156669595e+00) (23, -3.49059989569221418293e+00) (24, -3.83126739094793389295e-01) (25, -1.68170321960372709524e-01) (26, 1.82381437015249059375e-01) (27, 9.29774727274321477477e-02) (28, 2.44273859428681872075e+00) (29, 5.63700655422547325379e-01) (30, 1.90869138165207186120e+00) (31, 5.14200602403042994482e-01) (32, 1.50000000000000000000e+03) (33, -5.59764143417101345257e-01) (34, -2.14403206752431740867e+00) (35, -2.47967452858007986194e+00) (36, 1.23373753197377888924e+00) (37, 8.11554558339305920356e+00) (38, -3.99580251808561603966e-01) (39, 2.21184262618773462561e-02) (40, 1.33087165056202993973e-01) (41, 3.14162606332281324484e-01) (42, 1.88221709375236634365e-01) (43, -1.42816986350213531720e-01) (44, 3.53896006160053955281e-01) (45, 5.81890186650603213891e-01) (46, 5.45193752629607009119e-01) (47, -2.89469388708911701258e-01) (48, -8.10582474665428098781e-01) (49, 1.18064069982235106404e-01) (50, 3.30953729452675204925e+00) (51, -2.01633629302299971497e-01) (52, 4.07093220046779558086e-01) (53, 3.87447146893366511922e-01) (54, -3.76374601657462545812e-02) (55, -6.74007737936976547566e-01) (56, 1.29068523390562184261e+00) (57, 5.35655362293429582188e-01) (58, 1.50000000000000000000e+03) (59, -3.67461870373120558231e-01) (60, -6.32357472646805085503e-01) (61, 7.12538410598322013989e-01) (62, -1.80986615051151147782e+02) (63, 1.92558807559882229354e-02) (64, 5.65029378557315858922e-02) (65, 2.07426989063971070615e-02) (66, 1.13016659006825240241e-02) (67, -1.33706555429633083820e-01) (68, 5.86868904475898456319e-01) (69, -8.49710921481478392847e-02) (70, 1.61131495206709263179e+00) (71, 3.62700903443217259614e-01) (72, 4.70349246291041467316e-01) (73, -2.63955649861799146461e-01) (74, -2.32595718424382003064e+00) (75, -4.37919461819150812598e-01) (76, 1.64046024786517063987e+00) (77, -1.18175783003863901777e-01) (78, -2.79340238847483934848e-01) (0, 3.83279401887886395084e-01) (1, -2.39878581731099727037e+00) (2, -1.37921978369251352348e-01) (3, 8.28173933983588073104e-01) (4, 3.96149879273794580659e-01) (5, -1.82246209634447708936e+01) (6, 1.50000000000000000000e+03) (7, -3.78448879315136585411e-02) (8, 6.25768168367872745783e-01) (9, 1.18249397472266992715e+00) (10, 6.44039976812883878665e+02) (11, 7.61311254586694161617e+01) (12, -6.29836474265572210385e+00) (13, 1.06474391518567190751e-01) (14, 1.03827200232480154618e-01) (15, -9.75830807608682349041e-01) (16, 2.78239384052938153180e-02) (17, 2.39429989439473661639e-01) (18, 3.60246329915432317303e-01) (19, 1.23740786377835876308e+00) (20, 1.36604747239995605312e+00) (21, 6.18770534868140154039e-01) (22, 6.47074851543113481966e+02) (23, 2.95007268789869159242e-01) (24, 7.49642855974886557213e-01) (25, 3.97013093673812433870e-01) (26, 1.86845270377145755702e+00) (27, 3.77192441950941192985e+00) (28, 4.81310030102182984102e-01) (29, 1.77658864950436257146e+00) (30, 8.18140195770138523024e-01) (31, 1.43800281668975016292e-01) (32, 1.50000000000000000000e+03) (33, -8.37853718840391947786e-01) (34, -9.28533973351007446695e+00) (35, 8.49404928497847322433e+01) (36, 1.81195285635522196799e+02) (37, 1.50000000000000000000e+03) (38, -2.14990584102002699751e+01) (39, 8.25367936477404695594e-02) (40, 1.84599249957535849198e-01) (41, -2.09062632588925811916e+00) (42, 6.32880248170239689820e-01) (43, 3.68544200888750339562e-01) (44, 5.02090108981451876957e+01) (45, 5.30968426763712586514e-01) (46, 5.32017803787886323086e-01) (47, 5.72244687992496836593e-01) (48, 2.02294086530995365081e+00) (49, -5.61762839742522945841e+00) (50, -4.20101323389760494820e+00) (51, 3.90738463255737411561e-01) (52, 4.66195643342128762665e-01) (53, -3.94317883632738830357e+00) (54, 3.67582754832956437596e-01) (55, 1.50000000000000000000e+03) (56, 5.11904796160031816399e-01) (57, 2.74963738709768312773e-01) (58, 1.50000000000000000000e+03) (59, 2.24248255376031824238e-01) (60, 4.57464770250940566676e-01) (61, -4.19270130348008329690e+00) (62, 8.86716884012801642712e+02) (63, 2.31203382310771310415e+00) (64, -3.86926201928198310043e+00) (65, 1.43438353537057028397e-01) (66, 1.57163738606904135331e-01) (67, 9.64441074919547389754e+01) (68, -8.32357495649468925869e-02) (69, -1.50488171413222859840e+00) (70, 1.50000000000000000000e+03) (71, 5.86861400183586678914e-01) (72, 4.25000345584302552382e-01) (73, 4.39475516848576219786e-01) (74, 4.02668098242780547746e-01) (75, 2.05972940382551650274e+00) (76, 7.26415330393013825017e+00) (77, 3.59463423665377035388e-01) (78, 5.96526863403983198531e-01) (0, 2.06162277965940310409e+00) (1, -6.61285703560305804238e-01) (2, -5.28992686883935012143e-02) (3, 8.86034020505942709889e-01) (4, 3.82665682203830292973e-01) (5, -7.15526097958699125456e+01) (6, 1.50000000000000000000e+03) (7, -1.79947464266679535427e+00) (8, 2.83607345930942633672e+00) (9, -1.02071909172579089464e+00) (10, -1.50000000000000000000e+03) (11, -8.49989568863760069917e+00) (12, 1.22527654232765881304e+00) (13, 1.11029117701981649979e-01) (14, 5.50616750106567229284e-02) (15, -3.73298455057259725987e-01) (16, -7.81253364745438494410e-01) (17, -2.36196029218914516079e+00) (18, 1.23077100685562901283e+00) (19, 6.30049257647938620863e-01) (20, 6.31364016902394187269e-01) (21, 2.28432227854244190857e-01) (22, 2.66497520092038975292e-01) (23, 2.88000345818247460716e-01) (24, -1.88444094278917728680e-01) (25, -1.61901913547929399151e+00) (26, -1.04326562067177999182e+01) (27, -2.17968209842229843076e+00) (28, 6.43923980008358709526e-01) (29, -1.30148984136458756300e-01) (30, 6.51786891331847750841e-01) (31, -3.21870814282520001370e+00) (32, 1.50000000000000000000e+03) (33, 1.44824157631759820042e+00) (34, 3.63827035241079999039e+00) (35, -2.38614730037764788406e+00) (36, -1.50000000000000000000e+03) (37, -1.50000000000000000000e+03) (38, 3.71626996721066094054e+00) (39, 1.74904226659272299393e-01) (40, 2.03894763587449179276e-01) (41, -9.15885840925424798975e-01) (42, 5.53404671252130686554e+00) (43, 4.07688098489376427036e-01) (44, -7.96028911594402543983e+00) (45, 5.08194890813568611598e-01) (46, 5.63520041303376295616e-01) (47, 1.09045127404270125737e+00) (48, 3.54244654265166269980e+00) (49, -3.11599671866709171386e-01) (50, 8.23283566351350887258e-02) (51, -1.62945706094933795427e+00) (52, -4.62279790029774956261e-02) (53, -6.11389856424065736284e-01) (54, -1.29804401244049461006e+00) (55, 1.23482335915343810484e+00) (56, 5.68816969566251828816e-01) (57, -6.13585947287606625622e-01) (58, 1.50000000000000000000e+03) (59, -1.94086395746708051391e-01) (60, 2.51677670172860379338e+00) (61, 5.95249715632464537762e-01) (62, -1.50000000000000000000e+03) (63, -8.22918410961823241223e+01) (64, 1.83334267343376167148e+00) (65, 1.21365203855965719804e-01) (66, 1.73661752937768087968e-01) (67, -1.70006405536845028870e+00) (68, -2.78433876089100635909e+02) (69, -2.95179632854918150286e+00) (70, -4.05184543015895837215e+00) (71, 1.02289713925254077687e+00) (72, 1.00317795208227389381e+00) (73, 9.70518790919842055942e-01) (74, -2.58781112606385832464e+00) (75, -7.97411401366595384843e-01) (76, -1.25476553780617477996e-01) (77, -8.75422497688682521577e-01) (78, -2.58442541597791557162e-02) (0, 4.96896334172524434258e-01) (1, 6.04174726071964179885e-02) (2, -1.14089004373847113794e-02) (3, -3.17360469847423609657e-02) (4, 4.93388663562564833143e-01) (5, 7.37397190079676168040e+00) (6, 1.50000000000000000000e+03) (7, 1.15734192057703877410e+00) (8, -5.21911675154371401675e+00) (9, -4.50133736180994592502e+00) (10, 1.39737529569222147074e+03) (11, 3.42178231038203606307e-01) (12, -2.75108424481224966840e+00) (13, 9.09266242370349031532e-02) (14, 1.92507072685692892655e-01) (15, 1.13790883674204899023e+01) (16, 9.87059919349096226426e+00) (17, 2.17499665590760171696e+00) (18, -8.36357994046802444288e-01) (19, 2.37484329997081355934e-02) (20, -6.10152950824718251499e-02) (21, -4.16087357194686369155e-01) (22, 1.23206690274613187008e-01) (23, -6.30141477698572094468e-01) (24, -1.17092362626636048439e+00) (25, -2.93225350808260648572e-02) (26, 4.68918642973135013641e-01) (27, -4.68063910326893650726e-01) (28, 2.91353204715234070932e-01) (29, 4.82176976977901072807e-01) (30, 1.27166301667038128542e+00) (31, 1.69050662034390786204e+00) (32, 1.50000000000000000000e+03) (33, 2.81882231157097096208e-01) (34, 9.42735727289562142062e+00) (35, 2.38075050240867253093e-01) (36, 1.04822810048565506769e+00) (37, 2.85667360926881102046e+01) (38, 3.69541352053066152195e-01) (39, 6.16711297616714324010e-02) (40, 9.53877189740878206337e-02) (41, 3.58721623116453187663e+01) (42, 1.11881362451475929731e+00) (43, -1.69761107845682185369e-01) (44, 1.58291938792123900726e+01) (45, 8.30118249115061601628e-02) (46, 3.39197854456021394287e-02) (47, -1.01017312877713816288e-01) (48, 2.62578928114465748322e+00) (49, -1.00402347410394068850e-01) (50, -7.29703134291812882672e-01) (51, -7.52771848480472127729e-02) (52, 2.72730796166488920207e+00) (53, 3.55217210475868983011e+00) (54, -4.64089036820812608775e-02) (55, 6.94293092682582280162e+00) (56, 1.12417157512221491111e-01) (57, 3.17623172096656736230e+00) (58, 1.50000000000000000000e+03) (59, 1.85656767031852659722e-01) (60, 1.14398764864470967950e+03) (61, -3.73980676971309655698e+00) (62, 6.47293952366987582536e+02) (63, 9.29294824201476821202e+00) (64, 1.12035074584261633390e+03) (65, 8.66044753775340181434e-02) (66, 1.50085418818925009354e-01) (67, 5.34461802090289594958e+00) (68, 4.71484896304661005306e-01) (69, 2.08747116741416743890e-01) (70, -6.04313172773350948397e-01) (71, 8.66083316541441383674e-02) (72, 7.55915008521804154817e-02) (73, 4.54018740754767377577e-02) (74, -3.47977439521279963142e-01) (75, -4.18899468224465287847e+00) (76, -2.77471863184523770407e-01) (77, 1.76011387466243167388e-02) (78, -1.64360180581602982608e-01) (0, 7.67126279262898549405e+01) (1, 4.22726120812725258968e-01) (2, 1.08108473757889855804e+00) (3, 7.73663285138461098711e+00) (4, 1.69493864871695576468e+00) (5, 3.00705646517043376775e+01) (6, 1.50000000000000000000e+03) (7, 7.97432169029705706365e-01) (8, 1.94368327614355895783e+00) (9, 1.90957334346831885341e+02) (10, 1.50000000000000000000e+03) (11, 1.53734207765329013995e+01) (12, -8.68696848743333021048e+01) (13, 1.49883001445267782792e-01) (14, 7.23314428314906221473e-02) (15, -3.48117247060057888319e+00) (16, 2.29500588865251771153e+01) (17, 7.15451850793441423981e-01) (18, 9.13150660259656632434e-01) (19, 1.05220643928383283949e+00) (20, 1.20211217304800443983e+00) (21, 1.31818313444356216557e+00) (22, 6.46794646120140441781e+02) (23, -7.27453649077491633079e+01) (24, -2.26244997269514858118e+00) (25, 7.03448269742704246354e-01) (26, 1.50000000000000000000e+03) (27, 1.50000000000000000000e+03) (28, 3.55175962121980859365e+00) (29, -2.83036547617042577585e+00) (30, 4.61488115304049983934e+00) (31, 5.81920451320681220153e+00) (32, 1.50000000000000000000e+03) (33, 1.03657302478279222946e+00) (34, 8.99083633116264081764e+02) (35, 1.50000000000000000000e+03) (36, 1.50000000000000000000e+03) (37, 5.41595921266500113234e+02) (38, 6.13996831405028657969e+01) (39, 1.29628188310597525223e-01) (40, 4.95116220400089110387e-02) (41, -1.13311578031207869088e+01) (42, 4.51125024289539524602e+01) (43, 5.70437556202628370805e-01) (44, 6.64149358546287942318e+01) (45, 1.17211145007811601282e+00) (46, 1.19938658768139894129e+00) (47, 1.44072485577349063135e+00) (48, 8.45958375846505794549e-01) (49, -2.91360662940521475406e+00) (50, -3.67580647189778730866e-01) (51, 6.63440764697004192740e-01) (52, 1.53397592371656754651e+00) (53, 3.78151592293679450485e-01) (54, 3.78765384180570237049e+01) (55, 1.50000000000000000000e+03) (56, 1.64280488352553355469e+00) (57, 3.95906412926520998030e-02) (58, 1.50000000000000000000e+03) (59, 7.00819703971042518020e+00) (60, 7.73190537546609579778e+00) (61, 7.74341297777161372551e+01) (62, 1.50000000000000000000e+03) (63, 4.05225048630489492751e+00) (64, 8.89124224208059331431e+02) (65, 1.19211233554814444169e-01) (66, 1.72003402708504782304e-01) (67, 1.16116177868386216687e+00) (68, 5.33241048450435850548e-01) (69, 5.13790952185793847740e-01) (70, 4.71217236161905894676e+00) (71, 1.58217770730364226672e+00) (72, 1.50112474461305045459e+00) (73, 1.42850198723041388327e+00) (74, -1.84501179005772371511e+02) (75, -1.32878504730011726132e+00) (76, 1.02981707169822267467e+00) (77, 1.15608383113191970359e+00) (78, 1.10566764057117583597e+00) (0, 1.88370799682870043723e-01) (1, 4.79203872058744262397e-01) (2, -1.44076523820931945430e-01) (3, -1.83004625239460771979e+00) (4, -1.27955341783087339635e+00) (5, -1.35829778690869518165e+00) (6, 1.50000000000000000000e+03) (7, -4.59210016840267909455e-01) (8, -9.96406290090822999161e+00) (9, 1.36171445286974179822e+00) (10, 1.94107432264857315829e+00) (11, 1.30969979274381609358e+00) (12, -4.59160570288456515442e+00) (13, 3.70595225677245940221e-02) (14, 4.81461131558173979772e-02) (15, 3.42770167545468540382e+00) (16, -2.93625531800324413023e-01) (17, -2.40980943944070491458e-01) (18, 1.00933296669161198800e+00) (19, 8.72067285788794416268e-02) (20, 4.43229300988456295651e-02) (21, 2.20940949356864563269e-01) (22, 9.25101431445686794852e-01) (23, 2.53682988685647936578e+00) (24, 6.36707794149234729275e-01) (25, -3.31444930915951785355e-01) (26, 3.48581839723781261586e-01) (27, 4.67576178306655432237e-01) (28, -3.41149417093140339130e-01) (29, -3.54597464184371924389e+00) (30, -1.26257941382670990649e-01) (31, 3.01608328518143187225e+00) (32, 1.50000000000000000000e+03) (33, 1.34653980239359566395e-01) (34, 1.33690796147849932929e+00) (35, 7.15024314873864086373e-01) (36, 3.36842920335203865889e+00) (37, 1.09213815972030747758e+00) (38, 3.81430960623022219380e+00) (39, 9.85816189632159334266e-02) (40, 4.99361859247440184606e-02) (41, 8.63311281631900762079e+00) (42, -4.07824526942262455265e+00) (43, 7.69255999165632392556e-02) (44, 2.31034764999204966784e+00) (45, 5.49536726290211913204e-02) (46, 1.56507388394497265471e-01) (47, 4.64501375743522695871e-02) (48, -4.35485138479024769254e+00) (49, 4.23719435984706827014e+00) (50, 7.65938215875181960257e-01) (51, -1.99674836552266865564e-01) (52, -3.12701843735680773406e+00) (53, -4.47755592308909711186e-01) (54, -2.43336002282555252663e-01) (55, -4.52541570401565707016e+00) (56, -3.69498970656858283235e+00) (57, 5.73923660400369017864e-01) (58, 1.50000000000000000000e+03) (59, -3.25202084460475659977e-01) (60, -4.38636586446163101449e-01) (61, -8.12843449657364214289e-01) (62, 3.56431486786725670868e+00) (63, 2.83793133460423563363e+00) (64, 5.44171741925343965818e+01) (65, 5.85320287928336943639e-02) (66, 1.36495798228715048417e-01) (67, -8.82964629702255088262e+00) (68, -1.28050995255439459264e+00) (69, -3.04321918528024759620e-01) (70, -2.82630769551684146723e-01) (71, -1.71944390608318703473e-01) (72, -1.40892054511555009366e-01) (73, -7.39498185050330020252e-02) (74, 7.43962853560258263741e-02) (75, 5.70319755632029146142e+00) (76, 5.21788300913431979389e-01) (77, -3.56145879226451966826e-01) (78, 9.57759192945059345536e-02) (0, 3.04550929912332679628e-01) (1, -5.48681135793726770800e+00) (2, 9.86143328830131005169e-01) (3, 2.12693445440979500560e+00) (4, 6.12122734725736417083e-01) (5, 4.64460864414057450489e+00) (6, 1.50000000000000000000e+03) (7, 1.29406133573026371764e+00) (8, 1.50844488491476447223e+01) (9, 8.88608203028325771555e-01) (10, 1.12180719067686663948e+03) (11, 1.17365193502164233408e+00) (12, 6.24755856091618699821e+00) (13, 1.13885372279618368729e-01) (14, 6.00588166699165190709e-02) (15, 4.23964374821855294329e+00) (16, -4.11839362727137503484e-01) (17, 4.47008077523565583444e-01) (18, 8.33873638480053003263e+00) (19, -1.43741395359500767626e+00) (20, -1.33368226175769732933e+00) (21, -4.34402236150462750519e-01) (22, 2.93504390756891675451e+00) (23, 6.08501547455547520116e+00) (24, 4.54920139101052556363e-01) (25, 1.62045610174671628201e+00) (26, -2.39259853150510182207e-01) (27, 3.58422773831333196792e-01) (28, 3.97359311031182549367e-01) (29, -2.98987446419707758594e+00) (30, 3.87126050528773191228e-01) (31, 1.84434040620458872262e+00) (32, 1.50000000000000000000e+03) (33, 4.47003802103148384361e-01) (34, 1.28377444815541412737e+01) (35, 4.69830291861513760221e-01) (36, 1.12240321200779430910e+03) (37, 4.40422741924064098384e+00) (38, -5.14550906950928634842e+01) (39, 8.05806586131793123329e-02) (40, 1.07757873235676870927e-01) (41, 2.61578768104046233134e+00) (42, 8.04881814753167503795e+01) (43, 1.01703320259224905264e+00) (44, 3.39756956555750999627e-01) (45, 2.47423204730638279791e-01) (46, 2.26868177901395684515e-01) (47, -3.57526098958534432892e-01) (48, -4.34977438338596567036e+00) (49, 4.91257687782563934320e+00) (50, 3.21749321880643174287e-02) (51, 1.60923355543771684495e+00) (52, -3.22477580340541691850e-01) (53, 4.29762910655476004784e-01) (54, 3.93243001550692694579e+00) (55, 6.47492528034767023115e+00) (56, 1.08659690774626804810e+00) (57, 3.83102247191303701968e-01) (58, 1.50000000000000000000e+03) (59, -2.32580723951478152145e+00) (60, -9.85181571050837412429e+00) (61, 1.50246652720819486859e+01) (62, 4.07181462904905856703e+02) (63, 6.44819362276573571080e+00) (64, -3.27452553976791662649e+01) (65, 2.16017284974806614284e-02) (66, 4.89040048405879820836e-02) (67, 2.48888587567308916526e-01) (68, 2.28805656177629179737e+00) (69, -7.60604316939725411117e-01) (70, 2.07765498537730053386e+00) (71, -3.89705696830695003108e-01) (72, -2.56682490686123809809e-01) (73, -2.65245396029820834638e-01) (74, -2.69641400317852664159e-01) (75, 1.37865045158074774889e+01) (76, 1.82551244809868129515e+00) (77, 4.78628538927456714802e-01) (78, 1.90729380506181017685e-01) (0, 3.28332353745605303175e+01) (1, -5.66028820421700729071e+00) (2, 1.15687413188981058632e+00) (3, 1.44380188985769764010e+00) (4, 1.36891293909773104076e+00) (5, 7.59730505453873945498e+01) (6, 1.50000000000000000000e+03) (7, 1.03415718362407971220e+00) (8, 1.81503358021429903602e+02) (9, -1.55991772153723502470e+01) (10, 1.50000000000000000000e+03) (11, -4.05260020375151555072e+01) (12, -5.16890576769571730154e+00) (13, 5.35136902317756499303e-02) (14, 1.93284257648919211015e-01) (15, 9.26157198423527319164e+01) (16, -9.93519212054335465467e-01) (17, 6.63200672765745347093e-01) (18, 1.90397177887529789331e+00) (19, 1.38715051397083222184e+00) (20, 1.45425440653560578141e+00) (21, 1.35720135794914353866e+00) (22, 1.50000000000000000000e+03) (23, -3.54293233240047982235e+01) (24, 2.97923463915191391038e+01) (25, 1.26809913851515609906e+00) (26, 1.50000000000000000000e+03) (27, 1.50000000000000000000e+03) (28, 3.38279624354175245671e+00) (29, -9.22731334159122162930e+00) (30, 2.96027092502710065247e+00) (31, -5.33002188205127458431e-01) (32, 1.50000000000000000000e+03) (33, 9.24305628071160456649e-01) (34, 1.50000000000000000000e+03) (35, 1.50000000000000000000e+03) (36, 1.50000000000000000000e+03) (37, 4.01258762913583609588e+02) (38, 1.47624182213218890780e+01) (39, 6.33275167629473306752e-02) (40, 1.34348242877457724198e-01) (41, -2.57320119942318248363e+00) (42, -2.78001076988948227608e+02) (43, 7.62140767114886319433e-01) (44, 1.47111169896951365921e+00) (45, 1.39244818128187963779e+00) (46, 1.40523009188015768345e+00) (47, 1.28510272797013325174e+00) (48, -1.50000000000000000000e+03) (49, -1.23618036733735481292e+00) (50, -1.84737174575064173609e+01) (51, 1.13990730125462946809e+00) (52, 5.06465436941140012550e+00) (53, -1.77825729579102587152e+00) (54, 1.35567272023441787177e+00) (55, 1.85941763818087646420e+00) (56, 5.18712014049636738200e-01) (57, -7.48832408453904641021e-01) (58, 1.50000000000000000000e+03) (59, 2.16053593536682519982e+00) (60, 1.94891243489707534309e+02) (61, 1.50000000000000000000e+03) (62, 1.50000000000000000000e+03) (63, 7.10612899058947107278e+01) (64, -8.67630675693928665737e+00) (65, 1.92736222742531881913e-01) (66, 1.06375164686177359208e-01) (67, -3.29314881487719731012e+02) (68, -7.59611268642792847317e+00) (69, 7.95339645016792551324e-01) (70, -1.02091767713410792595e+01) (71, 1.72033488356100527916e+00) (72, 1.89902798437105757579e+00) (73, 1.31874333395652376666e+00) (74, -1.50000000000000000000e+03) (75, -1.86922564819414844806e+01) (76, -3.64856487456067712927e+00) (77, 1.15230580120489989326e+00) (78, 1.46467210539632652910e+00) (0, -6.13928817781906777107e-01) (1, -3.32563522852356463488e-01) (2, 9.55380464257379324877e-01) (3, -3.83927639760328287544e-01) (4, 3.90990249728152342024e-02) (5, 3.26463603938915767344e+01) (6, 1.50000000000000000000e+03) (7, 2.22559977895666699643e-01) (8, 1.76560652923129640657e-01) (9, -9.72731435412057976464e-01) (10, 1.50000000000000000000e+03) (11, 6.11181396710902130609e-02) (12, -1.43523929938843664011e+00) (13, 1.77792757152054892167e-01) (14, 1.51564522980187521561e-01) (15, 1.20417140166009262181e+00) (16, 1.08248161789341490469e-01) (17, 1.29679412489044659784e-01) (18, 1.39609011857511933208e+00) (19, -7.42001854103148533737e-02) (20, -1.00835210106903369609e-01) (21, -4.36495992523186632228e-02) (22, 1.12439536129695127897e+00) (23, -8.88127184694510773966e+00) (24, 2.43915428202489681375e-02) (25, -1.65152865527708123117e-02) (26, 6.33732295623545272001e-01) (27, 4.14371129469286780811e-01) (28, -9.69674399220993160631e-02) (29, 6.38984996713397368495e-01) (30, -5.63706700754478262638e-01) (31, 4.57467387222373726707e-03) (32, 1.50000000000000000000e+03) (33, -1.76205955457698071331e-01) (34, 3.23484202739696735662e+00) (35, 3.76427353443124668164e-01) (36, 1.94970849380026379549e+02) (37, 3.18294953136499580992e+00) (38, 9.91323409542451372545e+00) (39, 1.41550689338181601151e-01) (40, 3.10850957021468962682e-02) (41, 2.46804261205793185052e-01) (42, -3.73132015511534476104e+00) (43, -3.74499298788603662835e-01) (44, 7.90947022317185832740e-01) (45, -2.53982506009550572379e-02) (46, 5.72563298729447667235e-02) (47, 6.33896466808613837790e-03) (48, 1.02655436540144133772e+01) (49, 2.50397847832942321844e+00) (50, 4.36417236677354852814e-03) (51, -7.55023276230423756594e-02) (52, 1.35057189376098812916e-01) (53, -2.71130380031239792693e-01) (54, -4.16639537806407292408e-03) (55, 1.65847158766254304529e-01) (56, 1.15071692565919936335e+00) (57, -2.04197574032251166765e-01) (58, 1.50000000000000000000e+03) (59, 2.32122324137969626712e-01) (60, 6.77607280281704106528e+02) (61, 2.09458384680639175812e+00) (62, 1.50000000000000000000e+03) (63, 6.83568912447823873180e+00) (64, 1.95826227837922717256e+00) (65, 1.76272928117249594315e-01) (66, 2.07625746129487143143e-01) (67, 1.04110775414988832033e+00) (68, 3.25087251537783283872e-01) (69, 1.82545205537538390850e-01) (70, 6.87624656418652335788e+00) (71, 1.73629513142441425921e-02) (72, -7.78981828930045694381e-02) (73, 1.21274696226157219225e-01) (74, -1.56604579882900774024e+00) (75, -7.47559265945699102929e+00) (76, -4.11407203155182588095e-01) (77, 3.08900786178842243213e-02) (78, 4.44123105995566230808e-02) (0, -1.54182696209780395469e-01) (1, -4.05305331130276572105e-02) (2, 2.45640188414091908964e-01) (3, 1.64032423454004017138e+00) (4, 1.09019238846398747178e-01) (5, 8.48310841681761296229e+00) (6, 1.50000000000000000000e+03) (7, 1.41810346762913375152e-01) (8, 1.45751851821408831000e+01) (9, 7.61303658797007010151e+00) (10, 1.50000000000000000000e+03) (11, -2.46653193901404665933e-01) (12, -3.86254102688304579161e+00) (13, 6.16838553533309782995e-02) (14, 1.09232298432324514970e-01) (15, 1.11354762887651692616e+00) (16, 7.28925562318715192234e-01) (17, -2.05192064496240722526e-01) (18, -7.09326038691249394219e+00) (19, 3.39537435863797032454e-01) (20, 3.65497434233013951399e-01) (21, 2.52442739171378660590e-01) (22, -2.26207902887864298336e-01) (23, 5.81449497842471973996e+00) (24, -3.35186189565247094624e-01) (25, 3.01630296290357069466e+00) (26, 1.99807669074717941804e+00) (27, 7.37123876399420119299e-01) (28, 2.34771738647049893478e-01) (29, -3.13867500499606499886e+00) (30, 1.02327140578368136481e+00) (31, -3.11452501171223516963e+01) (32, 1.50000000000000000000e+03) (33, 2.24352246111868242062e-01) (34, 6.22894249795328178720e+01) (35, 1.71726696581545201781e+00) (36, 1.50000000000000000000e+03) (37, 4.58595065744935470597e-01) (38, 1.74843501043738115186e+02) (39, 7.77517327651721101844e-02) (40, 1.61974518893693075761e-01) (41, 3.40110234392999544184e+00) (42, 1.26793710767665435135e+00) (43, -2.30996101430632760909e+00) (44, -2.96765094570577425692e-01) (45, 4.24333990516343517729e-01) (46, 3.79577712120690746733e-01) (47, 4.38250197362921520283e-02) (48, -4.68988008441382753233e+00) (49, 3.69102121218194900720e+00) (50, -1.48150139567954891584e-01) (51, 3.03744216298291647149e+00) (52, -1.61734681854544648516e-01) (53, -1.57740811923275425777e+00) (54, -5.73764882270873854964e-01) (55, -1.37786040377850738103e+00) (56, 4.75077387114281102232e-01) (57, 7.06441096368961241048e-01) (58, 1.50000000000000000000e+03) (59, 1.77996588797505267410e-01) (60, 1.24112651729140512913e+01) (61, 7.87578226536308108052e+01) (62, 1.50000000000000000000e+03) (63, -2.29345765177325455753e+00) (64, -2.14867263846956028928e-02) (65, 1.67335926888917074784e-01) (66, 2.03399061559174643143e-01) (67, -6.47401799056701449109e-02) (68, 8.27959127654610660407e-01) (69, 9.92979824435857527654e-01) (70, -8.19621938718057130302e+00) (71, 6.66504145477484932769e-01) (72, 6.34883203421305886138e-01) (73, -3.44575992697808558551e-02) (74, -2.68601191345976153535e-01) (75, 5.55971261338736422175e+00) (76, 1.00759267985862055461e+00) (77, 6.21002617228513242864e-01) (78, 2.15008572162268069006e-01) (0, 3.24608673803854164142e-01) (1, -3.79730515314160299578e-01) (2, 4.58939814777959476100e-01) (3, -4.10872592862399466096e-01) (4, 4.96135088831240800289e+00) (5, 7.24474775930723158268e+00) (6, 1.50000000000000000000e+03) (7, 9.54829355058453427274e-02) (8, 4.09745158009123322529e+00) (9, -3.62643240088141949329e+00) (10, 1.12262065249267971012e+03) (11, -3.01543267592731822901e+00) (12, -2.94905551551117017794e+00) (13, 4.07224217042678679479e-02) (14, 1.04653158769360404845e-02) (15, 5.63641490228203312363e-01) (16, -3.65490206304864484466e+00) (17, 2.95843719933815585410e-01) (18, 5.21817444541074504372e+00) (19, -1.34575514147822983269e+00) (20, -1.36327613542621262077e+00) (21, 1.87664576044185398007e-02) (22, 1.50000000000000000000e+03) (23, 4.48928928582535036185e+00) (24, -3.36642179052415224660e-01) (25, 1.03922345210574390562e-01) (26, 3.26109112023428115990e+00) (27, 1.05850957551852675742e+00) (28, 2.68777748023991736037e-01) (29, 1.60816298436364690794e+00) (30, 1.55012923545716968521e-01) (31, 5.81422421828963198465e-01) (32, 1.50000000000000000000e+03) (33, 4.04394534580659048562e-01) (34, 2.41111061578482654966e+01) (35, 3.65728631972256623683e+00) (36, 1.50000000000000000000e+03) (37, -2.94131260309269615405e-01) (38, 1.50000000000000000000e+03) (39, 1.02377026675675497636e-01) (40, 3.93927761897796477331e-02) (41, 2.85140862525691076712e+01) (42, 3.43536812661757240406e+00) (43, -1.99531586558374190998e-01) (44, 8.01144066396257459317e-01) (45, 1.32482094544888268084e-01) (46, 2.05244695622444933703e-01) (47, -6.91647678780013097644e-01) (48, -2.69962775438706614750e+00) (49, 5.36198230500584926972e+00) (50, -4.84953517377920195752e-01) (51, 1.25586118387785078410e-01) (52, -3.33395720509870596704e-01) (53, -2.62522484095066288567e-01) (54, 1.76930390385191427249e-01) (55, 3.26916798096751504143e-01) (56, 3.17214543060423803666e+00) (57, 1.11589013776628354080e+00) (58, 1.50000000000000000000e+03) (59, 1.58007991535036362851e-01) (60, 8.81361800464379108178e+00) (61, 1.05284506830913556996e+02) (62, 1.50000000000000000000e+03) (63, -3.17119644644150655566e+00) (64, -9.14532703431770288560e-01) (65, 1.41479089258645163163e-01) (66, 2.77714350805038298620e-02) (67, -2.11781902258281862217e-01) (68, 3.94311371702596669131e-01) (69, 1.48857788149412084699e+00) (70, 8.92645795003712438920e-01) (71, -1.31864888046932704491e+00) (72, -1.36454184179258830589e+00) (73, -5.23291068454677987809e-01) (74, -1.43358900498688885961e+01) (75, 8.57363648575727310686e+00) (76, -7.88686716387347885870e-02) (77, -4.23461931924093926138e-01) (78, 3.28109247398850056854e-02) (0, 1.82968741579609101011e-01) (1, 3.43639452604729778162e-01) (2, 5.27024067535055151801e-01) (3, 9.93408994550109669674e-01) (4, -1.96276252119824312636e+00) (5, -5.36119213114274373311e+00) (6, 1.50000000000000000000e+03) (7, 1.34279506768382383974e+00) (8, 6.40264207831903631174e-01) (9, 1.51407641119027869259e+00) (10, 1.36068337086219548837e+03) (11, 1.26561611864125111993e+02) (12, -8.49069841461080017098e+01) (13, 9.53138986215334993446e-02) (14, 1.29405773578618155106e-01) (15, 1.24574329219525758994e+00) (16, -4.00760975251453022139e+00) (17, 2.76012048043185409529e-01) (18, 2.91066635323746603081e-01) (19, 8.14857921135355933728e-01) (20, 6.97672641408373817029e-01) (21, 6.94171954478599362304e-01) (22, 5.54269840558131221542e-01) (23, 2.39000268405232096924e+00) (24, 4.93918732613580768742e-01) (25, 5.81529375000088943892e-01) (26, 7.55279433178696564255e+01) (27, 1.50000000000000000000e+03) (28, 7.48348403869147693612e-01) (29, 7.24779913577628605026e+01) (30, 4.52383166633156696967e-01) (31, -2.37937799340084588096e+00) (32, 1.50000000000000000000e+03) (33, 2.86874623116638804987e-01) (34, 1.23027152835566622180e+00) (35, 1.75641523065805138515e+00) (36, 1.35873707960743126932e+03) (37, 1.30653584511387384737e+03) (38, 2.65635784024110762402e+02) (39, 1.57176419495080099686e-01) (40, 5.26474410280937041295e-02) (41, -2.94766346185074912256e+00) (42, -2.72001305198296883248e+01) (43, 2.84054768035540972093e-01) (44, 6.47339867236795356575e+01) (45, 9.28244732415597018083e-01) (46, 9.52844560241620119889e-01) (47, 7.54782790531392300259e-01) (48, 1.26687814471971949004e+00) (49, -5.27931710415217292365e+00) (50, 5.81713486986768946174e-01) (51, 4.13148858585089540085e-01) (52, 8.42316520267593661642e-03) (53, 4.96651166275022371011e-01) (54, 7.47718974925756119099e-01) (55, 1.49504398881443512437e+03) (56, 7.71965676679940981941e-01) (57, -7.86408124133639852005e+00) (58, 1.50000000000000000000e+03) (59, 1.35331392182370446875e+00) (60, 7.41806521654401307408e-01) (61, 8.03701077582371636865e-01) (62, 1.50000000000000000000e+03) (63, -8.35847682098841282539e+00) (64, 1.54297852469702476697e+01) (65, 1.46123647092316732987e-01) (66, 8.86655816421252351844e-02) (67, 7.30404778430798429234e-01) (68, -1.73224394535479730983e+00) (69, -2.41467305794148962006e-01) (70, 2.65261227153364913534e+01) (71, 7.20541248068288564532e-01) (72, 6.58235924288705587237e-01) (73, 6.67818568771393450412e-01) (74, -5.08824414207228699070e+01) (75, 2.27254233773909186667e+00) (76, 1.71736032656293752252e-01) (77, 4.62305519259543495902e-01) (78, 7.85616572524824752222e-01) (0, 3.31277229384339566565e-01) (1, 1.39630479167210802549e-01) (2, 3.75809133104061776631e-01) (3, 4.71916090104933072524e+00) (4, -6.90591320013648202192e-02) (5, -3.91705903254586651485e-01) (6, 1.50000000000000000000e+03) (7, 4.64334069936114257615e+00) (8, 9.91535501455030110485e-01) (9, -1.99992185320143489591e+00) (10, 1.19962159242611008381e+01) (11, -2.15369937591058241422e-01) (12, 1.73485796694432692355e+00) (13, 1.90247207282517538651e-01) (14, 7.34594383821230989540e-02) (15, 1.68515192461598628526e+00) (16, -1.61363372791081732815e-01) (17, 4.09353644613323741641e-01) (18, 3.93825481295381862878e+01) (19, -2.34335898944791815035e-01) (20, -3.26595969089921334128e-01) (21, 1.75802805009081852816e-01) (22, -4.24395692900001275660e+00) (23, 9.75435776953387373434e-02) (24, 1.26120339475981624311e+00) (25, 4.88424929818809305804e-01) (26, 4.77565654390975757870e-01) (27, 5.04318796821528247953e-01) (28, -2.15409370972311886572e-01) (29, 3.09379433972265394104e+00) (30, -1.78087002261090510125e+00) (31, -3.55098528760264542381e-01) (32, 1.50000000000000000000e+03) (33, -1.28881981494774899843e+00) (34, -4.38691178043356888594e+00) (35, -1.08911340439319701545e+01) (36, 1.61715147396359171239e+01) (37, 1.24872898614226528480e+01) (38, 7.95973823895875343126e-01) (39, 3.52844664439910735143e-02) (40, 1.46541663989773422033e-02) (41, 2.07205742642398016429e+00) (42, 1.67477938182107233267e+00) (43, -1.91977325548047517145e+00) (44, 1.12981066010194499682e+01) (45, -2.67404820846924018429e-01) (46, -3.56564074831613675443e-01) (47, 1.67870968190822617006e-01) (48, -5.12561316947992384740e+00) (49, -2.32837371943293769405e+00) (50, 3.31534028427831084507e-01) (51, 3.09584720730915308184e-01) (52, 5.01881767596692340838e-01) (53, -1.82827932892701466860e-01) (54, -1.94237980484532801739e+00) (55, 3.22840206693305464825e+00) (56, 5.66756580878478133378e-01) (57, -2.13350909430900431696e-01) (58, 1.50000000000000000000e+03) (59, 2.91174336905375662210e-02) (60, 6.09464100927965723997e+00) (61, -7.80682040624010120666e+00) (62, 3.63559813739926596554e+02) (63, 2.86350055657197355430e+00) (64, -8.82616294814631032750e+02) (65, 5.81110970661395873083e-02) (66, 6.19526126966232146276e-02) (67, -1.99449762965883303778e+00) (68, 3.85939163536729434867e+00) (69, -1.20179981644891942238e+00) (70, 9.11163089271429882388e+00) (71, -2.83327615209860672607e+00) (72, -2.69584194892091622009e+00) (73, 3.79196772331081496943e-02) (74, 1.16683110103534923296e-01) (75, 2.17338729945048242387e-01) (76, 1.37172439892350372936e+00) (77, 2.28908762058176062926e-01) (78, -1.76387535578416326798e-01) (0, 2.39705273281677033737e+00) (1, 4.32805026589868635511e-01) (2, 2.02489027826095657758e+00) (3, -1.83048655957516070991e+00) (4, -1.23205577725215276175e+00) (5, 1.54979023850584702870e+01) (6, 1.50000000000000000000e+03) (7, -6.67307991488825663629e-02) (8, 1.37154579545267824869e+03) (9, 1.41345744875471091007e+01) (10, 1.50000000000000000000e+03) (11, 1.57509837703506327955e+01) (12, -1.18536281896307755801e+01) (13, 6.48216263935318393052e-02) (14, 4.58190658673995818151e-02) (15, -1.04134195441055421583e+00) (16, 1.41712450949780799370e+00) (17, 5.08930323212971824631e-01) (18, 1.49153633864125279018e+00) (19, 9.90661748998779678743e-01) (20, 8.93002190940994533541e-01) (21, 1.05014416052582770789e+00) (22, 1.50000000000000000000e+03) (23, -1.75655832548046255681e+01) (24, 2.14386513014235946528e+00) (25, 6.06162153718740048802e-01) (26, 3.69346429592573155531e+00) (27, 3.81337650261082288239e+01) (28, 1.11817064291055334735e+00) (29, -3.58116438868041164767e+00) (30, 1.09072015329260119110e+00) (31, 9.73556443895501222308e-01) (32, 1.50000000000000000000e+03) (33, -1.04300947659296941450e-01) (34, 1.50000000000000000000e+03) (35, 7.65672516892165688773e+00) (36, 1.50000000000000000000e+03) (37, -3.88135487350034269483e+00) (38, 1.50000000000000000000e+03) (39, 1.98791915163747980044e-02) (40, 9.82359120235186678016e-02) (41, 1.65548599723101408365e+00) (42, 6.24643700772910204222e-01) (43, -1.43732266116565476910e-01) (44, 4.19254314737921907064e-01) (45, 9.02267790856011164813e-01) (46, 1.01920924660766876180e+00) (47, 8.28548482322689516799e-01) (48, 7.68049925263669996944e-01) (49, -1.42640503690638738021e+01) (50, 7.31561581590875475989e-01) (51, 5.71366361815645706912e-01) (52, 7.81308211969822585807e-01) (53, -6.44064370015377529732e-01) (54, 9.85221047628524027040e-01) (55, 6.92948850206581568045e+00) (56, 8.49993068877113677750e-01) (57, 8.78023908494358629184e-01) (58, 1.50000000000000000000e+03) (59, 4.82585283152717370303e-01) (60, 7.79867142013823144708e+00) (61, 7.73956311497658333565e+00) (62, 1.50000000000000000000e+03) (63, 5.17863435124416184863e+01) (64, 1.81886395353084935778e+02) (65, 5.62876717731708373083e-02) (66, 1.55654320106259017736e-02) (67, -4.24014829671586435111e-01) (68, 9.38556370351603885815e-01) (69, 6.19728783715727038484e-01) (70, -2.45695872875057252926e+00) (71, 9.70382728562840468634e-01) (72, 9.74663817272671484382e-01) (73, 8.80051650111489447426e-01) (74, -1.50000000000000000000e+03) (75, -2.53004096285958368640e+00) (76, 4.34097010308727770944e-01) (77, 5.02325282624746294324e-01) (78, 1.11161061559248541819e+00) (0, 1.51256989086190429816e+02) (1, 3.76831678115770118964e-01) (2, 7.69003379504136663769e-01) (3, 1.93240113089818921210e+00) (4, 1.01512630569007034076e+00) (5, -1.75441386740299232194e+00) (6, 1.50000000000000000000e+03) (7, 5.16709345573366718440e+00) (8, 6.67659602924784878475e-01) (9, 1.71445563703126491184e+00) (10, 1.50000000000000000000e+03) (11, 6.08328203717616045054e+00) (12, -8.74003077772507737109e+01) (13, 3.31016474947685088170e-02) (14, 1.28114692269299612626e-01) (15, 2.86161477085263404874e+00) (16, 3.23759144418225105255e+02) (17, -3.43205483835046010199e-01) (18, 1.96878022233217930825e+00) (19, 7.71053045304593731579e-01) (20, 9.53368499191579510388e-01) (21, 1.25790967022639499362e+00) (22, 3.54509610570893896053e+00) (23, 8.00855391136900407467e-01) (24, 1.16056392820129500310e-01) (25, -9.67568353031722921953e-02) (26, 1.50000000000000000000e+03) (27, 1.50000000000000000000e+03) (28, 2.96896593980442524696e+00) (29, 2.07931693553176444311e+00) (30, 1.27634002762836540334e+00) (31, 1.34251683817510358843e+00) (32, 1.50000000000000000000e+03) (33, 3.65215554277011911211e+00) (34, -5.35827808125116433757e+00) (35, 3.20801670138942540689e+01) (36, 1.50000000000000000000e+03) (37, 8.21338940213897528153e-01) (38, 5.27564976451551359560e+01) (39, 2.13216462716810904732e-02) (40, 1.41671597360108481034e-01) (41, -1.06555111125616743806e+01) (42, 6.42896284917468165077e+02) (43, 7.91816774214453289460e-02) (44, 2.54863881049256377764e+01) (45, 9.63843247889808907303e-01) (46, 8.90377840995125069412e-01) (47, 1.23849229076559419482e+00) (48, 3.06407868204321776062e+00) (49, -2.13223639534374642679e+00) (50, 9.42311360840889289392e-01) (51, 4.71818837608519933702e-02) (52, 7.47757090790938150349e+01) (53, 2.86261645886723536947e+00) (54, 1.11021276575312177748e+00) (55, 2.82903170882272192443e+01) (56, 1.62566876052486808391e+00) (57, 1.98552875637743958537e-01) (58, 1.50000000000000000000e+03) (59, 2.40778203394423861994e+00) (60, 1.70068516246835321759e+00) (61, 3.37770416778525506274e+00) (62, 8.81713837138817552841e+02) (63, -7.14924781856792423973e-01) (64, 8.19013575824537838344e+01) (65, 1.69622510074112997636e-01) (66, 3.42484334096664275182e-02) (67, 1.75346228130216275076e+00) (68, 3.51928784676081747307e+01) (69, 1.41109673781451061547e-01) (70, 3.50253873013158454341e+01) (71, 1.33467020453954776649e+00) (72, 1.19984593601966960108e+00) (73, 1.17272883508922931561e+00) (74, 8.57154868945288805904e-01) (75, -3.98615309605761691802e-01) (76, -1.81895736979695179514e+01) (77, -7.27323298471254930941e-02) (78, 1.06981581565111638632e+00) (0, 8.81146671107240347931e-02) (1, -7.93714519611289914813e-01) (2, 9.97723884897050578013e-02) (3, -1.97659865133299583739e-01) (4, 3.18949687613968524413e-01) (5, 5.78254608012583926069e+00) (6, 1.50000000000000000000e+03) (7, 6.32892681154544667343e-01) (8, 1.75939065089927759722e+00) (9, -5.93011615038463357763e+00) (10, -1.50000000000000000000e+03) (11, 3.98765620297135114924e+00) (12, 8.04123734964362455457e+01) (13, 1.27995915113423452958e-01) (14, 1.59930282816639693366e-02) (15, -2.43097096530982409446e-01) (16, 1.40176960210707424181e+00) (17, -5.94282723900248166515e-01) (18, -1.95406603112955346013e+00) (19, -3.88333319598919840532e-02) (20, -3.89710633928067179399e-02) (21, -2.39841494243372393980e-01) (22, -2.37305957781577883670e-02) (23, 1.32948921476675030462e+00) (24, 3.28149219913103129542e+00) (25, -1.14327627746028182010e+00) (26, -1.56254713803929554672e+01) (27, -6.29061880035316822735e-01) (28, 5.33700672743950277344e-01) (29, 2.42246719948766481290e-01) (30, -6.93288460415072416154e-02) (31, 1.36020649886919281490e-01) (32, 1.50000000000000000000e+03) (33, 3.25186850943067595754e-01) (34, 1.99276058231959640743e+00) (35, -4.78400053644682099474e+00) (36, -1.12030749156541696721e+03) (37, -2.54760375700289332102e+00) (38, -3.32608256032009963477e+00) (39, 1.47630839942429648026e-01) (40, 2.00933882579557680781e-02) (41, 4.40488549167199838763e+00) (42, 1.10778350743342652862e+01) (43, -3.62701274984494270726e+00) (44, 4.33305466555501084258e+00) (45, -1.17735918918018073187e-01) (46, -8.07099159148976785794e-02) (47, -2.19770122501051871911e-03) (48, 3.34966592381310337978e-02) (49, 2.48647864125701500981e+00) (50, 8.44278658805502901785e-01) (51, -9.50484868298502760808e-01) (52, -7.70007428601591659145e-01) (53, -7.90063525164418356539e-01) (54, -2.59490080512368055665e-02) (55, 8.84729531995739476580e-02) (56, -1.05380957869076377631e-01) (57, 1.19730555629070178902e+00) (58, 1.50000000000000000000e+03) (59, 1.38879071354930383464e+00) (60, 2.87868188972615457466e-01) (61, 1.19253081657972237473e+00) (62, -1.50000000000000000000e+03) (63, -1.52602019973112490447e+00) (64, 9.50149657430110761158e-02) (65, 8.60611566886645418251e-02) (66, 1.85767331704847077356e-02) (67, 1.42454325498132750027e+00) (68, -4.08704757041353104796e+02) (69, -1.65612510423006953353e+00) (70, -6.49174050992384676917e-01) (71, 3.22878264998113589067e-04) (72, -5.74219674829497678248e-02) (73, -7.81426420691190212753e-03) (74, -2.82954240949411239825e-01) (75, 2.23069723410351228310e+00) (76, 5.95804492381822869973e-01) (77, -5.06050803724172104658e-01) (78, -3.39491346437781671419e-01) (0, -8.36840308063724558352e-01) (1, -8.04110890253532106797e-01) (2, -1.82242671528536487324e-01) (3, -1.05688790178150338051e+00) (4, 1.65188516938311654586e-03) (5, 5.52048155885940139420e-01) (6, 1.50000000000000000000e+03) (7, -6.33005552410178973233e-01) (8, 1.30301652949305712959e+00) (9, 1.82817052121183531987e+00) (10, 3.25165639408443496450e+01) (11, 1.10699724558755141501e+00) (12, 4.33391100135842866070e-02) (13, 2.84059116229766692174e-02) (14, 2.06825494168732748612e-01) (15, 6.44012210980360988444e-01) (16, 3.42958684359483512161e-01) (17, -3.43450294599388861183e-01) (18, 1.03251468580639427230e+00) (19, -8.17574772017708728544e-02) (20, 1.40015867573509492083e-02) (21, -2.27037152745673320720e-01) (22, -1.56863440681074073346e+00) (23, 2.31313121565314228079e+00) (24, -4.03351556440806668924e-01) (25, -1.01139633504133172326e-01) (26, 6.41822121828904551544e-02) (27, -3.18241013317853871367e-01) (28, -1.89587202373350832696e-01) (29, 9.24790257921140224084e-01) (30, -2.32899980075552726078e+00) (31, 2.06827949171458591593e+00) (32, 1.50000000000000000000e+03) (33, 1.39796550938999092351e-01) (34, 5.96607546761244833533e-01) (35, 4.88175294433792095194e-01) (36, 8.81429551162946381737e+02) (37, -3.37089333353238485014e-01) (38, -4.24610847919946195361e+02) (39, 2.03395068047974691972e-01) (40, 4.96869118497127379430e-02) (41, 2.43487948396588782529e+00) (42, 7.82869925792104237594e-01) (43, -1.43708281590908398817e-01) (44, 2.16177235371728126978e+00) (45, -3.65486539258372544747e-01) (46, -4.00788120283496196450e-01) (47, -2.12485634598207157042e-01) (48, -3.95764690828308607351e+00) (49, 1.61924664311112920245e+00) (50, -7.54921821290959460526e+00) (51, -1.07454472432292946760e-01) (52, -8.13977642534248424511e-01) (53, -3.75129595342361066290e-01) (54, -3.34939706046896712444e-01) (55, -1.53982556903890732691e-01) (56, -2.69280828740585786996e-01) (57, 3.47942696673132878527e-01) (58, 1.50000000000000000000e+03) (59, -3.13038175877756674748e-01) (60, -2.71076861147797998353e-01) (61, 1.00815697115125968431e+00) (62, 1.81615731802374938297e+02) (63, 4.91861035133586033119e-01) (64, -7.75699892292042676445e+01) (65, 1.67938351033661947831e-01) (66, 1.28664127884839163407e-01) (67, 5.04120981020894864955e-01) (68, 1.32369342745934037708e+00) (69, -1.34868344985060728547e+00) (70, -1.63471341821192606147e-01) (71, -3.21656774400017497761e-01) (72, -4.27855688749096740864e-01) (73, -5.22054874849136874015e-02) (74, -4.08104684729443476954e+02) (75, 1.14132033206424154947e+00) (76, -2.84107434854948914804e+00) (77, -1.58257877777780692208e-01) (78, -8.73725481245020835219e-02) (0, 9.00713624584644989568e-01) (1, 5.43176975584840238120e-01) (2, 9.88171410965688612471e-01) (3, 4.29530888106525898795e-01) (4, 1.02456770769771421392e+00) (5, 9.67646702508086486993e-01) (6, 1.50000000000000000000e+03) (7, 3.39863068005294033380e-01) (8, 1.46163983339159653241e+00) (9, 2.23532547247055290995e+00) (10, 1.50000000000000000000e+03) (11, -1.04192307706984982341e-01) (12, 4.21053072872561717777e-01) (13, 4.09894132599586333288e-02) (14, 9.77767476424914461219e-02) (15, 6.11008100292357414496e-01) (16, 2.39100279588177949686e-01) (17, 5.78222905209166171403e+00) (18, 6.73433144519874626877e-02) (19, 7.20070850542873119871e-01) (20, 7.08458673647731518308e-01) (21, 8.32734305313692968475e-01) (22, 1.50000000000000000000e+03) (23, -2.07145824292476188333e+00) (24, 3.59493567871802144342e-01) (25, 1.00740907369779297831e+00) (26, 5.11667806651752710145e-01) (27, 9.78092413343263245018e-01) (28, 9.74710871478367657517e-01) (29, 8.75665401250410702083e-01) (30, 1.09748201865962724533e+00) (31, 2.14034438383632175107e-01) (32, 1.50000000000000000000e+03) (33, 3.68424238991989909664e+01) (34, 3.37947296104000027839e+00) (35, 4.45814592064152037665e+00) (36, 1.12203841264566108293e+03) (37, 1.12428177437883505263e+03) (38, 8.85877260074569861104e+00) (39, 1.32436282335255728348e-01) (40, 4.52277430877441252721e-02) (41, -3.35177275129726337521e-01) (42, 4.22345778707783026107e+00) (43, 8.27797384773380384715e-01) (44, 8.66049928011410674600e-01) (45, 9.36586285132537055276e-01) (46, 7.89252208668360544230e-01) (47, 6.91781200192892353762e-01) (48, -9.04873071958725816444e+00) (49, 1.30755434443142481982e+00) (50, 4.33321945954902809639e-01) (51, 1.12146186554212867748e+00) (52, 8.38006180283502488670e-01) (53, -1.60244319304337912158e+00) (54, 1.01554635264298731556e+00) (55, 8.04731738522107331590e-01) (56, 1.05891977450754937173e+00) (57, 2.31340385126396430593e-01) (58, 1.50000000000000000000e+03) (59, 7.32927906602626744181e-01) (60, 7.45670081702790668032e+01) (61, 3.28790183100777611003e+00) (62, 1.36281358045315300842e+03) (63, 3.50010508445052348492e+00) (64, -1.28005898839107123965e-01) (65, 7.07986460611564477619e-02) (66, 1.01516670881245718583e-01) (67, 8.14369926974512492457e-01) (68, 2.44075257762747144241e+00) (69, 6.37983071138083390750e-01) (70, 1.70271409720644117947e+00) (71, 9.54168545376112176015e-01) (72, 8.33872219841529926931e-01) (73, 5.78590604665162100417e-01) (74, -9.98816235027927312728e+00) (75, 8.10415188462566771221e-01) (76, 5.24152837996920806241e-01) (77, 9.88627955007581826763e-01) (78, 8.95231514119842031185e-01) (0, 7.65776759458307196837e+01) (1, -5.20537663851629306411e-02) (2, 1.12366469061312312938e+00) (3, 2.33059044231114498302e+00) (4, 1.95925440948386087037e+00) (5, 7.26428021640141263759e+00) (6, 1.50000000000000000000e+03) (7, 7.58830470740666784835e-01) (8, 6.77349789649229450106e+00) (9, 4.15811054301161618696e+02) (10, 1.50000000000000000000e+03) (11, 2.88036363244851578713e+01) (12, -3.45464285684655791897e+01) (13, 1.89651890991662130936e-01) (14, 6.79237501308666141719e-02) (15, 2.42277972810270192383e-01) (16, -1.53115053956031688109e+00) (17, 7.58104440024059744729e-01) (18, 5.85581986209348648309e-01) (19, 1.66071982579989585460e+00) (20, 1.65956121581359061778e+00) (21, 1.58149295342853268842e+00) (22, 1.36494917741624021801e+03) (23, -4.50024170726013039712e+01) (24, 6.06333623933789978011e-01) (25, 8.85344727002252418480e-01) (26, 7.55055002797870429276e+01) (27, 1.50000000000000000000e+03) (28, 2.06451900570620106024e+00) (29, -1.50389682728098694753e+01) (30, 1.79783849426927888615e+00) (31, -1.46680353033716159850e+00) (32, 1.50000000000000000000e+03) (33, 1.10898273501386124273e+00) (34, 1.82198596671504162714e+02) (35, 1.36926318165395832693e+03) (36, 1.50000000000000000000e+03) (37, 9.56193777718324554371e+02) (38, 4.21306870990893056472e+00) (39, 1.35795980094407187089e-01) (40, 1.11678972242806540116e-01) (41, -1.65950465537138769356e+00) (42, -6.14907358485680674676e+02) (43, 4.50521995339531688973e-01) (44, 9.91101493533608248754e+01) (45, 1.99810717556252370741e+00) (46, 2.06583833250775361634e+00) (47, 1.51292824392965652436e+00) (48, 7.93564893664245207816e-01) (49, -4.84519831623291796774e+00) (50, -4.04018729056769920760e+00) (51, 7.70452789619876066141e-01) (52, 1.16709223617429330488e+02) (53, -3.73306065545324861077e+00) (54, 2.87047618387193548273e+00) (55, 1.50000000000000000000e+03) (56, 1.33507560963629234863e+00) (57, -3.30793066518224987416e-01) (58, 1.50000000000000000000e+03) (59, 9.03074534475078904983e-01) (60, 5.78514976617928944336e+00) (61, 1.50000000000000000000e+03) (62, 1.50000000000000000000e+03) (63, -2.64544271097461658471e+00) (64, 6.28946309511222523270e+00) (65, 1.38190283773873434647e-01) (66, 1.52734666465256796464e-01) (67, 1.55618386656851370731e+00) (68, -2.40882304511111922096e-01) (69, 5.89959086575695512700e-01) (70, 4.17717280582580983150e+01) (71, 1.78981174013318966587e+00) (72, 1.83631348094644519797e+00) (73, 1.48844398782305598061e+00) (74, -8.93224643478191183021e+02) (75, -9.55894479599879498544e-01) (76, -1.92519369844133017011e+01) (77, 8.81970420886114436776e-01) (78, 1.35988156907570600929e+00) (0, 3.87767302881843800577e-01) (1, 2.15155126593849915784e-01) (2, -4.23472973034565713935e-01) (3, 7.67669281917106038904e-02) (4, -9.53376856194541009992e-03) (5, -7.73336354766339127309e+02) (6, 1.50000000000000000000e+03) (7, -1.81222181583724599452e-02) (8, 3.60992805762247626067e-01) (9, 2.31614131178145266077e+00) (10, -4.33055496286740915224e+00) (11, -4.19609740189902868934e+00) (12, 5.15507495506370005955e+00) (13, 1.32987833915684805497e-01) (14, 1.15270986555550680741e-01) (15, 3.81725130779567711770e+00) (16, 5.20649764718841012723e+00) (17, -1.06006186468444632554e-01) (18, -1.38549772065839960078e+00) (19, 3.79892784766569582833e-02) (20, -1.22422355074463917735e-01) (21, -1.83760023217376770865e-02) (22, 9.77245886698127064207e-01) (23, 8.21068049731399351998e-01) (24, -1.07936545883304299553e-01) (25, -6.29444858457069544855e-01) (26, -4.19999524438637550361e+01) (27, -3.76774128163336854414e+01) (28, -1.62720028076583062004e-01) (29, 2.54967905965484270547e-02) (30, -1.07977106079920906478e-01) (31, -1.82024177712943995289e+01) (32, 1.50000000000000000000e+03) (33, -1.20380443114364998891e+00) (34, 2.13504836310174894720e+00) (35, 1.97925460491750970782e+00) (36, -3.29585245171485823334e+01) (37, -3.66444097064185791979e+00) (38, -1.27338510487525358172e+00) (39, 2.06098943351243124589e-01) (40, 9.35250589236956697547e-02) (41, 8.27285941497442323111e+00) (42, 7.30467572710781212209e+01) (43, -7.75232618897825687121e-01) (44, -9.21432495396334338977e+00) (45, -9.42426839394914228620e-02) (46, -3.10355195327148801476e-02) (47, 1.41703296496487008913e-03) (48, 2.15442064672690403171e+00) (49, 2.08599683221277665268e+00) (50, -1.49123953597817560102e+00) (51, -6.45416936303596644464e-01) (52, 6.79726882683899913395e-01) (53, -2.45289743783919156339e-01) (54, -8.79841412721927007556e-02) (55, -8.31182420562059598446e-01) (56, -4.09227650052846128603e-02) (57, 1.18957018126332036978e+00) (58, 1.50000000000000000000e+03) (59, 2.88333156027071491057e-01) (60, 4.44805652602911916205e+00) (61, 1.57577171399030335763e+00) (62, -7.36613835093173552337e+00) (63, -4.07363266096835996422e+00) (64, 1.50000000000000000000e+03) (65, 2.01164543031190024003e-01) (66, 1.61135553716157065018e-01) (67, 6.01535606155629487546e+00) (68, -4.64422259462945817177e+02) (69, -3.91893408634354289966e-01) (70, 3.85767095978907514908e-02) (71, 3.24652730040127235345e-02) (72, 1.17359542708831421365e-01) (73, -1.96745960831468169605e-01) (74, -9.50776551703828715079e-02) (75, 2.18289109947969517389e-01) (76, -2.55493464224709967425e+01) (77, -3.46318608805710304033e-01) (78, -1.84952986634715627057e-01) (0, -2.99630967994594210602e-01) (1, 1.33896444653859442164e-01) (2, -9.89311474484033115395e-01) (3, 1.04919797264747156618e+01) (4, -2.49445945098361904213e-01) (5, 1.02990145106859980473e+01) (6, 1.50000000000000000000e+03) (7, 2.15689584779639531575e+00) (8, 4.66698656079834606203e+00) (9, 4.92513830146421405232e+00) (10, -1.50000000000000000000e+03) (11, 5.50459637131003010069e+00) (12, 3.42017385271167029259e+01) (13, 5.10237993285411681188e-02) (14, 1.45700349806283102616e-01) (15, -1.27619548482738647266e+01) (16, -3.46417904538601506559e+00) (17, -6.25697662747254579330e-01) (18, 3.64277121075967769137e-01) (19, 4.84661285437764599582e-01) (20, 4.83099301017941906711e-01) (21, 1.73155198264598686464e-01) (22, -8.27764612214647588218e-02) (23, 4.11213581152464087154e+02) (24, 1.43520222500412159006e-01) (25, 1.50106985093654415886e-02) (26, -1.93059052081978177462e+00) (27, -2.97328547731212311511e-01) (28, 6.88517046809249272377e-02) (29, 2.63588687862979931253e+00) (30, -1.09286210577218345641e+00) (31, -4.60621845860987111365e+00) (32, 1.50000000000000000000e+03) (33, -2.45456138933101408739e+00) (34, 4.36289976332100870593e+00) (35, 1.32877425074714383690e+00) (36, -1.50000000000000000000e+03) (37, 1.74155885875081501979e+01) (38, -7.30401888296947543466e+00) (39, 1.32660321293805227860e-01) (40, 1.06113919601193273240e-02) (41, 1.01073597681198350529e+01) (42, -1.07553746103531921996e+00) (43, -6.30428709195000380738e-01) (44, 6.88015964662656465123e+00) (45, 1.45733201581329685492e-01) (46, 1.19998918551296740453e-01) (47, 5.12227960368931770074e-02) (48, 2.38521073461053703113e+01) (49, 4.18339709515139634988e+00) (50, -5.54590616299895367014e-01) (51, 7.96580428639698134852e-01) (52, -5.46310174292497507942e-01) (53, 9.05827353184997241531e-02) (54, -4.31576063240348362093e-01) (55, 4.07166170438690508404e-02) (56, -5.08629959997555580742e+00) (57, -2.98863408626969651039e+00) (58, 1.50000000000000000000e+03) (59, 1.29245059049120691874e+00) (60, 1.39115457217749902696e+01) (61, 2.79170856965187663690e+00) (62, -1.50000000000000000000e+03) (63, -9.82844299083856065558e-01) (64, 2.95405694877882651905e-01) (65, 9.62701380107315943246e-03) (66, 1.89933493135903463944e-01) (67, 5.48832766885450951122e+00) (68, -2.57980999952023282162e+00) (69, -3.47874998570131710451e+00) (70, -1.03568637842425581574e+00) (71, 1.48779333901803596796e-02) (72, 5.67650751543443063407e-02) (73, -1.32616889946984891496e-02) (74, 6.44710769889191169568e+02) (75, 4.83414020346405404194e-01) (76, 8.99754819754627899187e-02) (77, 6.95531512556462505614e-01) (78, -5.66523341558537035789e-03) (0, -2.30731455468795310093e-01) (1, 5.38096287703930187263e+00) (2, -4.23389901807048718574e-01) (3, -6.58643504831348082007e+02) (4, 3.38883933129791092842e-01) (5, 2.01414968696080975974e+00) (6, 1.50000000000000000000e+03) (7, -2.41809415448138942395e+00) (8, 5.08155979447952699246e+00) (9, 1.40705975548610151549e+01) (10, 1.12221020803007559152e+03) (11, -5.74067468318091478352e+00) (12, -1.08334535561823908090e+00) (13, 3.63112831101173247350e-02) (14, 7.23963224873286348426e-02) (15, -3.73827284374066926009e-01) (16, -7.03787860386215990971e-01) (17, -1.16937424869587958121e+00) (18, -4.37247341856400339566e+02) (19, 3.49978333800167240586e-01) (20, 2.99445419102043308701e-01) (21, 5.89755162229909535299e-01) (22, 2.72413157009677275866e+00) (23, -3.51868633542731998887e+01) (24, -1.93617868556412542347e+00) (25, -2.80962979048782779401e+00) (26, -1.77749468896278517427e+00) (27, -5.31754726464678562081e+00) (28, -1.08900226547876469163e-01) (29, 2.34760309135410638604e+00) (30, 1.35020704878179009789e+00) (31, 5.29864662616212123147e-01) (32, 1.50000000000000000000e+03) (33, -1.13359697606399545400e+00) (34, 2.04683994811930517699e+02) (35, -2.21590568362372053457e+01) (36, 1.50000000000000000000e+03) (37, 1.98448105808753503254e+01) (38, 2.29490549462387036783e+01) (39, 7.00472140297634937589e-02) (40, 7.21906790122729402626e-02) (41, 1.74627892067270340526e+00) (42, -4.69588283958117713723e+00) (43, -1.44757668766020564100e+00) (44, -5.38665725358644298382e+00) (45, 5.21300894562569117063e-01) (46, 4.51736619119015414547e-01) (47, 4.76317033104352804962e-01) (48, 8.34846665411551214220e+00) (49, 1.29141822808728989891e+00) (50, -7.99816249255632549797e-01) (51, -1.10492539899273656268e+00) (52, -8.05840783595528908911e-01) (53, -7.41159020024675596616e-01) (54, 8.85658836565688944997e-02) (55, 2.22243132089605971435e-01) (56, -7.82647124350036538232e+00) (57, -3.07265346306249798047e-01) (58, 1.50000000000000000000e+03) (59, 1.96301473454923658402e+00) (60, 9.10338198016771684706e+02) (61, 1.88559400424355843029e+01) (62, 1.12233632944777968987e+03) (63, 1.89813390945899094220e+01) (64, 5.34701593927185081512e-01) (65, 1.24963908790085898026e-01) (66, 5.70502088949436034215e-02) (67, -2.14514943564088983452e-01) (68, -1.16228992509261930266e+00) (69, -3.54600847227173598952e+00) (70, -2.52363464755976139031e+01) (71, 2.66035971612670618658e-01) (72, 3.39252134234645896793e-01) (73, 4.12623436658745623706e-01) (74, -1.93782822463818789060e+01) (75, -7.73926879115894017502e+00) (76, 6.88529014239240066964e-01) (77, -6.69422915724711908858e-01) (78, -7.04226498925609289969e-01) (0, 1.91863782310065844605e+00) (1, 3.34077949833601672847e-01) (2, -7.23370264797777373644e+00) (3, 6.07093275766701800933e+00) (4, 1.39977862331596147882e+00) (5, -1.57060212384261976837e+00) (6, 1.50000000000000000000e+03) (7, 7.16113438155560722009e-01) (8, 3.26216372579201703275e+01) (9, 6.55362757660174565899e+02) (10, 1.50000000000000000000e+03) (11, 6.40523676204929728328e+01) (12, -8.80176750258703748386e+01) (13, 1.47687196134064779862e-01) (14, 1.67456611393426046952e-01) (15, -1.62291061424129274826e+01) (16, -4.06452098923500537708e-01) (17, 2.96418795822844305388e-01) (18, 3.38621011286908171201e+01) (19, 1.30772682275197094093e+00) (20, 1.29863554235121791969e+00) (21, 1.54797191012697482604e-01) (22, 3.85224465805233506899e+01) (23, -4.54490504507407990786e+01) (24, -1.67900919913151147611e-01) (25, 5.72186577567807996836e-01) (26, 1.12438367474999790829e+03) (27, 1.50000000000000000000e+03) (28, 6.68450894002776352387e-01) (29, -1.90336025148050737299e-02) (30, -1.33302928523336849942e+00) (31, -6.21278252475669034993e-01) (32, 1.50000000000000000000e+03) (33, 3.53456030536416332399e-01) (34, 1.31124699603719596652e+00) (35, 4.04226711497324572520e+02) (36, 1.50000000000000000000e+03) (37, 2.65836841048840256008e+02) (38, -1.28942478073593889576e+02) (39, 1.49958907960389242753e-01) (40, 1.47887199519608603104e-01) (41, -4.79329173808488349096e+01) (42, 4.95167596812966266384e+01) (43, 6.20895079012971251586e-01) (44, 2.85072454797923180436e+00) (45, 1.50952808779767200242e+00) (46, 1.51335047406247302781e+00) (47, 5.67273501806652702406e-01) (48, 1.18780711530922511443e+00) (49, -9.59221214148414880185e+00) (50, 3.92273503844282278585e-01) (51, 5.73489363739244306650e-01) (52, 1.09723581071250220198e+00) (53, 4.44333194876062820278e-01) (54, 5.98807367876823537500e-01) (55, 3.07855009774870724826e+00) (56, 1.38177760705420848986e+00) (57, -2.28999297024431058833e-01) (58, 1.50000000000000000000e+03) (59, 1.44308254031722416749e-02) (60, 6.88299693166022841240e+00) (61, -2.43998035871997629442e+01) (62, 1.50000000000000000000e+03) (63, 5.86309911908414704840e+00) (64, 7.59801221715531660550e+00) (65, 1.30270972250435934647e-01) (66, 5.29440933451408232702e-02) (67, 9.28373137546109172824e-01) (68, -6.56865139562122557493e-01) (69, 3.75171675008385718808e-01) (70, 5.37834287832454793765e-01) (71, 1.21584763280248187023e+00) (72, 1.29598112306689761120e+00) (73, 6.13634766885054583341e-01) (74, -3.67045591054342024151e+00) (75, 3.76665786534873836544e+00) (76, -6.14825387838789794159e+00) (77, 6.77808204988395224255e-01) (78, 1.20214262266808113999e+00) (0, 3.38205462454473082534e-01) (1, -2.13521213805722744894e+01) (2, -2.72031727455192076093e+01) (3, 2.03782613600715345470e+00) (4, -3.21488942678077727066e+00) (5, 1.13992403688850507670e+00) (6, 1.50000000000000000000e+03) (7, 4.66862157616127204651e-01) (8, 3.03769249651680439683e+00) (9, 4.17782078856863108740e+02) (10, 1.50000000000000000000e+03) (11, 4.78904598632272708869e+01) (12, -8.73743103315707543288e+01) (13, 7.71983632430773836219e-02) (14, 6.15806126579994048131e-02) (15, 3.30542005509250280681e+00) (16, -4.21872096674498597846e-01) (17, 3.17828006822013564570e-01) (18, 7.69258674796988817235e+00) (19, 6.03847112844647981866e-01) (20, 6.56871278176965334161e-01) (21, 6.10070898991423637980e-01) (22, 1.50000000000000000000e+03) (23, -6.01041537958286475885e+00) (24, -3.26864507020594885489e+01) (25, 6.63073623947392110090e-01) (26, 4.44037703009685724709e+00) (27, 1.08712283765566508009e+03) (28, 6.09039418013271105501e-01) (29, 1.07481784845075409307e-01) (30, -2.05216177469139199330e-01) (31, 5.02639796838176722282e-01) (32, 1.50000000000000000000e+03) (33, 8.59366361343158047248e+00) (34, 1.82571700355524129122e+01) (35, 1.50000000000000000000e+03) (36, 1.50000000000000000000e+03) (37, 1.50000000000000000000e+03) (38, 1.88603230785653241952e+00) (39, 2.02236145137284384354e-01) (40, 1.71544312833283529862e-01) (41, -9.03090300729292572157e+00) (42, 9.32233631456582045871e+00) (43, 3.23200712431651160372e+00) (44, -3.80531266137812007599e+00) (45, 5.96088034805281385964e-01) (46, 5.92252081033213362282e-01) (47, 7.91351211294378353855e-01) (48, -8.03710907958405300633e+01) (49, -1.32910602203954137934e+01) (50, -2.51723152227116553359e-02) (51, 6.27324581407986303638e-01) (52, 1.53567777376744263318e-01) (53, -5.90611424423881481438e-01) (54, 7.33052055307080285829e-01) (55, 4.17064527247689966316e+02) (56, 6.45612330675654155776e-01) (57, 2.52965826215852174208e-01) (58, 1.50000000000000000000e+03) (59, 