FANN_FLO_2.1
num_layers=5
learning_rate=0.700000
connection_rate=1.000000
network_type=0
learning_momentum=0.000000
training_algorithm=2
train_error_function=1
train_stop_function=0
cascade_output_change_fraction=0.010000
quickprop_decay=-0.000100
quickprop_mu=1.750000
rprop_increase_factor=1.200000
rprop_decrease_factor=0.500000
rprop_delta_min=0.000000
rprop_delta_max=50.000000
rprop_delta_zero=0.100000
cascade_output_stagnation_epochs=12
cascade_candidate_change_fraction=0.010000
cascade_candidate_stagnation_epochs=12
cascade_max_out_epochs=150
cascade_min_out_epochs=50
cascade_max_cand_epochs=150
cascade_min_cand_epochs=50
cascade_num_candidate_groups=2
bit_fail_limit=3.49999999999999977796e-01
cascade_candidate_limit=1.00000000000000000000e+03
cascade_weight_multiplier=4.00000000000000022204e-01
cascade_activation_functions_count=10
cascade_activation_functions=3 5 7 8 10 11 14 15 16 17 
cascade_activation_steepnesses_count=4
cascade_activation_steepnesses=2.50000000000000000000e-01 5.00000000000000000000e-01 7.50000000000000000000e-01 1.00000000000000000000e+00 
layer_sizes=27 14 8 4 2 
scale_included=0
neurons (num_inputs, activation_function, activation_steepness)=(0, 0, 0.00000000000000000000e+00) (0, 0, 0.00000000000000000000e+00) (0, 0, 0.00000000000000000000e+00) (0, 0, 0.00000000000000000000e+00) (0, 0, 0.00000000000000000000e+00) (0, 0, 0.00000000000000000000e+00) (0, 0, 0.00000000000000000000e+00) (0, 0, 0.00000000000000000000e+00) (0, 0, 0.00000000000000000000e+00) (0, 0, 0.00000000000000000000e+00) (0, 0, 0.00000000000000000000e+00) (0, 0, 0.00000000000000000000e+00) (0, 0, 0.00000000000000000000e+00) (0, 0, 0.00000000000000000000e+00) (0, 0, 0.00000000000000000000e+00) (0, 0, 0.00000000000000000000e+00) (0, 0, 0.00000000000000000000e+00) (0, 0, 0.00000000000000000000e+00) (0, 0, 0.00000000000000000000e+00) (0, 0, 0.00000000000000000000e+00) (0, 0, 0.00000000000000000000e+00) (0, 0, 0.00000000000000000000e+00) (0, 0, 0.00000000000000000000e+00) (0, 0, 0.00000000000000000000e+00) (0, 0, 0.00000000000000000000e+00) (0, 0, 0.00000000000000000000e+00) (0, 0, 0.00000000000000000000e+00) (27, 4, 5.00000000000000000000e-01) (27, 4, 5.00000000000000000000e-01) (27, 4, 5.00000000000000000000e-01) (27, 4, 5.00000000000000000000e-01) (27, 4, 5.00000000000000000000e-01) (27, 4, 5.00000000000000000000e-01) (27, 4, 5.00000000000000000000e-01) (27, 4, 5.00000000000000000000e-01) (27, 4, 5.00000000000000000000e-01) (27, 4, 5.00000000000000000000e-01) (27, 4, 5.00000000000000000000e-01) (27, 4, 5.00000000000000000000e-01) (27, 4, 5.00000000000000000000e-01) (0, 0, 0.00000000000000000000e+00) (14, 4, 5.00000000000000000000e-01) (14, 4, 5.00000000000000000000e-01) (14, 4, 5.00000000000000000000e-01) (14, 4, 5.00000000000000000000e-01) (14, 4, 5.00000000000000000000e-01) (14, 4, 5.00000000000000000000e-01) (14, 4, 5.00000000000000000000e-01) (0, 0, 0.00000000000000000000e+00) (8, 4, 5.00000000000000000000e-01) (8, 4, 5.00000000000000000000e-01) (8, 4, 5.00000000000000000000e-01) (0, 0, 0.00000000000000000000e+00) (4, 13, 5.00000000000000000000e-01) (0, 13, 0.00000000000000000000e+00) 
connections (connected_to_neuron, weight)=(0, 1.50000000000000000000e+03) (1, 1.50000000000000000000e+03) (2, -1.50000000000000000000e+03) (3, -1.13123154154959752304e+03) (4, -1.50000000000000000000e+03) (5, -1.50000000000000000000e+03) (6, -1.50000000000000000000e+03) (7, 9.97329926227031478447e+02) (8, -1.50000000000000000000e+03) (9, -1.49829031586971768775e+03) (10, 1.50000000000000000000e+03) (11, 1.50000000000000000000e+03) (12, 5.58139614571248444008e+02) (13, 3.31303394852586086117e-01) (14, 3.60342278598256404720e-01) (15, 1.50000000000000000000e+03) (16, 1.50000000000000000000e+03) (17, 1.49839300417421213751e+03) (18, 1.34905852272017273208e+03) (19, -1.46349369656281305652e+03) (20, -1.46349369656281305652e+03) (21, -1.21812266122450159855e+03) (22, 8.84987095902916621526e+02) (23, -1.49760293403606715401e+03) (24, -3.37395569115473620059e+02) (25, 1.50000000000000000000e+03) (26, 2.48263007333140306443e+00) (0, 1.50000000000000000000e+03) (1, 1.50000000000000000000e+03) (2, -3.30073312567783361260e+01) (3, -1.30586566135440875769e+02) (4, -1.23869918345438350116e+03) (5, 6.55764460262261991375e+02) (6, 6.55763056826197271221e+02) (7, 3.61354665943762995539e+02) (8, -1.50000000000000000000e+03) (9, 4.44537696423510567456e+02) (10, 1.50000000000000000000e+03) (11, 1.50000000000000000000e+03) (12, 6.08275593266163468797e+02) (13, 3.38153652368493373714e-01) (14, 2.92548402665565643321e-01) (15, 1.50000000000000000000e+03) (16, 1.50000000000000000000e+03) (17, 1.41990185345583108756e+03) (18, -1.48712286606807469980e+03) (19, -2.44709881892727487696e+01) (20, -2.45013235261963444600e+01) (21, -3.27458169066767993627e+02) (22, -1.32706263653042401529e+03) (23, -6.76820325489388324058e+02) (24, -1.21071409471586639484e+03) (25, 1.50000000000000000000e+03) (26, 5.64432241120101263476e+00) (0, -1.50000000000000000000e+03) (1, -1.50000000000000000000e+03) (2, 1.50000000000000000000e+03) (3, 1.28912571017127697814e+03) (4, 1.50000000000000000000e+03) (5, 1.50000000000000000000e+03) (6, 1.50000000000000000000e+03) (7, -6.53725328416222851047e+02) (8, 1.50000000000000000000e+03) (9, 1.50000000000000000000e+03) (10, -1.50000000000000000000e+03) (11, -1.50000000000000000000e+03) (12, 5.44668258901927856641e+02) (13, 2.78471208630514333038e-01) (14, 4.09783347962804134212e-01) (15, -1.50000000000000000000e+03) (16, -1.50000000000000000000e+03) (17, -1.44653527766695628998e+03) (18, -3.95972725815062347010e+02) (19, 1.49079386461078411230e+03) (20, 1.49079386461078411230e+03) (21, 9.28042283364232389431e+02) (22, 2.98488663402104350553e+02) (23, 1.50000000000000000000e+03) (24, 8.50905820984396768836e+02) (25, -1.50000000000000000000e+03) (26, 1.09558199917177574889e+02) (0, -1.50000000000000000000e+03) (1, -1.50000000000000000000e+03) (2, 1.50000000000000000000e+03) (3, 1.43006409486904067307e+03) (4, 1.50000000000000000000e+03) (5, 1.50000000000000000000e+03) (6, 1.50000000000000000000e+03) (7, 8.31177954719076410584e+02) (8, 1.50000000000000000000e+03) (9, 1.50000000000000000000e+03) (10, -1.50000000000000000000e+03) (11, -1.50000000000000000000e+03) (12, 5.44668258901927856641e+02) (13, 2.94173031567047049695e-01) (14, 3.10363817481704273860e-01) (15, -1.50000000000000000000e+03) (16, -1.50000000000000000000e+03) (17, -1.44653527766695628998e+03) (18, -4.03180812742411660565e+02) (19, 1.49111749346401802541e+03) (20, 1.49111749346401802541e+03) (21, 6.56055569698513863841e+02) (22, -6.95353139194521077115e+01) (23, 1.50000000000000000000e+03) (24, 8.55843000234579903918e+02) (25, -1.50000000000000000000e+03) (26, 6.51771628389416779470e+00) (0, -1.50000000000000000000e+03) (1, -1.50000000000000000000e+03) (2, 1.50000000000000000000e+03) (3, 4.66973878113697594472e+02) (4, 1.49999415816598798301e+03) (5, 1.49698134247636244254e+03) (6, 1.49698134247636244254e+03) (7, -1.46652747074987337328e+03) (8, 1.50000000000000000000e+03) (9, 1.50000000000000000000e+03) (10, -1.50000000000000000000e+03) (11, -1.50000000000000000000e+03) (12, -6.56732011253417454100e+02) (13, 2.63913012562706272846e-01) (14, 3.30217919765420253597e-01) (15, -1.50000000000000000000e+03) (16, -1.50000000000000000000e+03) (17, -1.35160499715585365266e+03) (18, -1.37142982715830908091e+03) (19, 1.97686867773745518662e+02) (20, 1.97686867773745518662e+02) (21, -3.80895380078240009425e+02) (22, -3.68006174437049139669e+02) (23, 1.49966769809965921922e+03) (24, 9.19768714951374590783e+02) (25, -1.50000000000000000000e+03) (26, -4.52353320221169585835e+00) (0, 1.50000000000000000000e+03) (1, 1.50000000000000000000e+03) (2, 1.20773797614598220207e+03) (3, 3.61313284937361132165e+01) (4, -1.05860299007534808879e+03) (5, 6.23404128768002919969e+02) (6, 6.23404128768002919969e+02) (7, 1.46384435030369809283e+03) (8, -1.50000000000000000000e+03) (9, 1.55414070280559656112e+02) (10, 1.50000000000000000000e+03) (11, 1.50000000000000000000e+03) (12, 5.58139614571248444008e+02) (13, 2.58591264008000254471e-01) (14, 2.87588349996518000129e-01) (15, 1.50000000000000000000e+03) (16, 1.50000000000000000000e+03) (17, 1.44961879627221924238e+03) (18, 1.19059296763709835432e+03) (19, -1.49555582727704199897e+03) (20, -1.49555582727704199897e+03) (21, -4.73649159546442945157e+02) (22, -5.71190661514563430501e+02) (23, -1.46865614583548426708e+03) (24, -1.42564596966260921818e+02) (25, 1.50000000000000000000e+03) (26, 1.34824653054504182137e+02) (0, 1.50000000000000000000e+03) (1, 1.50000000000000000000e+03) (2, -1.50000000000000000000e+03) (3, -9.81392595305978716169e+02) (4, -1.20297598799571187556e+03) (5, -1.43694028536033192722e+03) (6, -1.43694028536033192722e+03) (7, 1.37705517972917823499e+03) (8, -1.50000000000000000000e+03) (9, -1.49122000800347109362e+03) (10, 1.50000000000000000000e+03) (11, 1.50000000000000000000e+03) (12, 5.58139614571248444008e+02) (13, 4.25541102407880122982e-01) (14, 4.13475125549741084896e-01) (15, 1.50000000000000000000e+03) (16, 1.50000000000000000000e+03) (17, 1.48299550010430880320e+03) (18, 1.34905852272017273208e+03) (19, -1.46011613788423119331e+03) (20, -1.46011613788423119331e+03) (21, 1.46483969302191962925e+03) (22, 6.21857414320815337305e+02) (23, -1.48671653159504217001e+03) (24, -9.67456113359065170698e+02) (25, 1.50000000000000000000e+03) (26, 4.68145791893228524483e-01) (0, -1.50000000000000000000e+03) (1, -1.50000000000000000000e+03) (2, 1.50000000000000000000e+03) (3, 1.28912571017127697814e+03) (4, 1.50000000000000000000e+03) (5, 1.50000000000000000000e+03) (6, 1.50000000000000000000e+03) (7, -4.19797985971752495971e+02) (8, 1.50000000000000000000e+03) (9, 1.50000000000000000000e+03) (10, -1.50000000000000000000e+03) (11, -1.50000000000000000000e+03) (12, 5.44668258901927856641e+02) (13, 4.33855205295987422787e-01) (14, 3.48597727237649257503e-01) (15, -1.50000000000000000000e+03) (16, -1.50000000000000000000e+03) (17, -1.44653527766695628998e+03) (18, -3.95972725815062347010e+02) (19, 1.49215935890985406331e+03) (20, 1.49215935890985406331e+03) (21, 1.50000000000000000000e+03) (22, 2.89868252234584304006e+02) (23, 1.50000000000000000000e+03) (24, 6.99154759026136389366e+02) (25, -1.50000000000000000000e+03) (26, 2.02307445813257125167e+01) (0, 1.50000000000000000000e+03) (1, 1.50000000000000000000e+03) (2, 1.33284044131493351415e+03) (3, -1.36585409166583804108e+03) (4, -1.25451940642382874103e+03) (5, 1.47493583658111538170e+03) (6, 1.47493583658111538170e+03) (7, 1.24606443862667447320e+03) (8, -1.50000000000000000000e+03) (9, 8.98638430917454940072e+01) (10, 1.50000000000000000000e+03) (11, 1.50000000000000000000e+03) (12, 5.58139614571248444008e+02) (13, 3.24218034265942867123e-01) (14, 2.76715024827433098142e-01) (15, 1.50000000000000000000e+03) (16, 1.50000000000000000000e+03) (17, 1.48263455193635400065e+03) (18, 1.05272544971630463806e+03) (19, -9.28580057582993958931e+02) (20, -9.28565419814725373726e+02) (21, -1.26961147178596615959e+03) (22, -1.27683650845312013189e+03) (23, -9.05298146387233032328e+02) (24, -1.39319043957794337985e+03) (25, 1.50000000000000000000e+03) (26, 2.16426410133463775765e+01) (0, 1.50000000000000000000e+03) (1, 1.50000000000000000000e+03) (2, -1.48622196397456309569e+03) (3, -9.77853152741860526476e+02) (4, -1.14355039771884594302e+03) (5, 5.99756386487932218188e+02) (6, 5.99756386487932218188e+02) (7, -1.26470843496301472442e+03) (8, -1.50000000000000000000e+03) (9, 9.12214337703462433637e+02) (10, 1.50000000000000000000e+03) (11, 1.50000000000000000000e+03) (12, 5.74772117546395747922e+02) (13, 4.48787018178410823666e-01) (14, 3.07681835709520290489e-01) (15, 1.50000000000000000000e+03) (16, 1.50000000000000000000e+03) (17, 1.49614320986485245157e+03) (18, 3.57175692229851506454e+02) (19, -1.17835070928172899585e+03) (20, -1.17840048275874687533e+03) (21, -4.43143267227289754828e+02) (22, -1.44010141245412546596e+03) (23, 2.28038873811824942095e+02) (24, -6.06473261295683869321e+02) (25, 1.50000000000000000000e+03) (26, 4.49073070786377797958e+02) (0, 1.50000000000000000000e+03) (1, 1.50000000000000000000e+03) (2, 3.60679596197799412494e+02) (3, -6.99236633305440136610e+02) (4, -1.31766885847699904843e+03) (5, 1.13846353991438900266e+03) (6, 1.13846353991438900266e+03) (7, -8.32112767461568751060e+02) (8, -1.50000000000000000000e+03) (9, -6.39731665944646010757e+02) (10, 1.50000000000000000000e+03) (11, 1.50000000000000000000e+03) (12, -7.71107506835482752194e+01) (13, 3.57758692918725307308e-01) (14, 3.94566818593449886166e-01) (15, 1.50000000000000000000e+03) (16, 1.50000000000000000000e+03) (17, 1.45674315840746044159e+03) (18, 9.00766465507966472614e+02) (19, -1.48812518633456102179e+03) (20, -1.48812518633456102179e+03) (21, 1.25540998491569575890e+03) (22, 1.49998975303540305504e+03) (23, -2.31145368094919007262e+02) (24, -8.71346485878565204075e+02) (25, 1.50000000000000000000e+03) (26, 3.28601729437429668224e+01) (0, -1.50000000000000000000e+03) (1, -1.50000000000000000000e+03) (2, -8.25159229657357627730e+02) (3, 3.88997415628401270737e+01) (4, 1.25176456314485267285e+03) (5, 3.81575563036821563401e+02) (6, 3.81514905811272342362e+02) (7, 3.74953173848375172383e+02) (8, 1.50000000000000000000e+03) (9, 5.11281229177568775413e+02) (10, -1.50000000000000000000e+03) (11, -1.50000000000000000000e+03) (12, 6.60710947977154319233e+02) (13, 2.90103733061264523752e-01) (14, 3.17630931256718929134e-01) (15, -1.50000000000000000000e+03) (16, -1.50000000000000000000e+03) (17, -1.43734770813974296289e+03) (18, 4.46437741151166505915e+02) (19, 3.06749179099361072076e+02) (20, 3.06782284495095382226e+02) (21, 3.24704135223074331407e+02) (22, 1.26777214163472581276e+03) (23, 1.50000000000000000000e+03) (24, 1.47268759476590321356e+03) (25, -1.50000000000000000000e+03) (26, -4.35484551225715449618e+02) (0, 1.50000000000000000000e+03) (1, 1.50000000000000000000e+03) (2, -1.50000000000000000000e+03) (3, 7.20723296921183191444e+02) (4, -1.50000000000000000000e+03) (5, -1.50000000000000000000e+03) (6, -1.50000000000000000000e+03) (7, 1.49758508273519737486e+03) (8, -1.50000000000000000000e+03) (9, -1.49829031586971768775e+03) (10, 1.50000000000000000000e+03) (11, 1.50000000000000000000e+03) (12, 5.58139614571248444008e+02) (13, 3.04623066900679029256e-01) (14, 3.44131230829663570248e-01) (15, 1.50000000000000000000e+03) (16, 1.50000000000000000000e+03) (17, 1.49105772164226368659e+03) (18, 3.82259008168284196927e+02) (19, -1.46152301968499045870e+03) (20, -1.46152301968499045870e+03) (21, 3.33788330987403696781e+02) (22, 9.75494201206058278331e+02) (23, -1.50000000000000000000e+03) (24, -1.12669207658335062661e+03) (25, 1.50000000000000000000e+03) (26, -4.51291345532997101309e-01) (27, 1.50000000000000000000e+03) (28, 1.50000000000000000000e+03) (29, -1.26243677686365663249e+03) (30, -1.39370256042242158401e+03) (31, -1.42876437726952326557e+03) (32, 1.50000000000000000000e+03) (33, 1.50000000000000000000e+03) (34, -1.26141359669827102152e+03) (35, 9.17494608679773705262e+02) (36, 1.39717853868242355020e+03) (37, 1.50000000000000000000e+03) (38, -1.50000000000000000000e+03) (39, 1.50000000000000000000e+03) (40, -5.20624396520909993313e+00) (27, 1.50000000000000000000e+03) (28, 1.50000000000000000000e+03) (29, -8.34449830119390298933e+02) (30, 1.49478851022679987182e+03) (31, -1.47433649164524035768e+03) (32, 1.50000000000000000000e+03) (33, 1.50000000000000000000e+03) (34, -8.91533570197623959075e+01) (35, 9.55102020741715250551e+02) (36, 9.13820285203756384362e+02) (37, 1.50000000000000000000e+03) (38, -1.50000000000000000000e+03) (39, 1.50000000000000000000e+03) (40, -5.37576480465919814833e+00) (27, -1.50000000000000000000e+03) (28, -1.50000000000000000000e+03) (29, 1.49981433920905601553e+03) (30, 1.49983431569857793875e+03) (31, 1.49567906850971735366e+03) (32, -1.50000000000000000000e+03) (33, -1.49850469885302754847e+03) (34, 1.49992556837509505385e+03) (35, -6.65968057728772578230e+02) (36, -5.68432311258781510332e+02) (37, -1.50000000000000000000e+03) (38, 1.50000000000000000000e+03) (39, -1.50000000000000000000e+03) (40, 1.90013699446404227267e-01) (27, 1.50000000000000000000e+03) (28, 1.50000000000000000000e+03) (29, -1.49987237205408359841e+03) (30, -1.49803135488811403775e+03) (31, -1.42876298785370568112e+03) (32, 1.50000000000000000000e+03) (33, 1.50000000000000000000e+03) (34, -1.49991204489690767332e+03) (35, 1.45149974550626552627e+03) (36, 1.45206478857154365869e+03) (37, 1.50000000000000000000e+03) (38, -1.50000000000000000000e+03) (39, 1.50000000000000000000e+03) (40, 2.81821437320505197022e+01) (27, 1.50000000000000000000e+03) (28, 1.50000000000000000000e+03) (29, -1.49917946028048868357e+03) (30, -1.49899605587461428513e+03) (31, -1.47435259247129010873e+03) (32, 1.50000000000000000000e+03) (33, 1.50000000000000000000e+03) (34, -1.49119345200730958823e+03) (35, 4.02069081858479648872e+02) (36, 1.45707226751331427295e+03) (37, 1.50000000000000000000e+03) (38, -1.50000000000000000000e+03) (39, 1.50000000000000000000e+03) (40, -2.13884400004525865313e+01) (27, 1.50000000000000000000e+03) (28, 1.50000000000000000000e+03) (29, -1.36315815406665137743e+03) (30, -1.49834522302609548206e+03) (31, -1.43043528629610136704e+03) (32, 1.50000000000000000000e+03) (33, 1.50000000000000000000e+03) (34, -1.22275956004453087189e+03) (35, 8.30031134256617974643e+02) (36, 1.45699637574054372635e+03) (37, 1.50000000000000000000e+03) (38, -1.50000000000000000000e+03) (39, 1.50000000000000000000e+03) (40, -1.66464803426571417155e+00) (27, 1.50000000000000000000e+03) (28, 1.50000000000000000000e+03) (29, -1.49851780300501354759e+03) (30, -1.49829432580114257689e+03) (31, -1.48602004837929371206e+03) (32, 1.50000000000000000000e+03) (33, 1.50000000000000000000e+03) (34, -1.49898126123515339714e+03) (35, 1.48053310117959540548e+03) (36, 1.46203308659018921389e+03) (37, 1.50000000000000000000e+03) (38, -1.50000000000000000000e+03) (39, 1.50000000000000000000e+03) (40, -1.14496283298610475043e+01) (41, -5.92769570920328625618e+00) (42, -7.85157008373501412279e+02) (43, 7.78438356472694408694e+02) (44, 1.12566186367211074071e+00) (45, -1.50000000000000000000e+03) (46, -5.60080228260197031886e+02) (47, -1.50000000000000000000e+03) (48, 4.43844449323835466004e+00) (41, 2.73790844124857528641e+02) (42, 1.50000000000000000000e+03) (43, -1.01752551248969018616e+03) (44, 5.04848340127488768303e+02) (45, 1.50000000000000000000e+03) (46, 1.34079999079704271026e+03) (47, 1.50000000000000000000e+03) (48, 6.82448592772548234819e+00) (41, 2.74967200289845891348e+02) (42, 1.49178292435666617166e+03) (43, -1.49896918183232583033e+03) (44, 5.04848340127488768303e+02) (45, 1.50000000000000000000e+03) (46, 1.34079999079704271026e+03) (47, 1.50000000000000000000e+03) (48, 7.50791047266796240933e+00) (49, 6.53130144332729423162e-01) (50, -7.44121041022323317232e-03) (51, -5.72753841004799424397e-01) (52, 5.86207670558355764534e-01) 
