FANN_FLO_2.1
num_layers=5
learning_rate=0.700000
connection_rate=1.000000
network_type=0
learning_momentum=0.000000
training_algorithm=2
train_error_function=1
train_stop_function=0
cascade_output_change_fraction=0.010000
quickprop_decay=-0.000100
quickprop_mu=1.750000
rprop_increase_factor=1.200000
rprop_decrease_factor=0.500000
rprop_delta_min=0.000000
rprop_delta_max=50.000000
rprop_delta_zero=0.100000
cascade_output_stagnation_epochs=12
cascade_candidate_change_fraction=0.010000
cascade_candidate_stagnation_epochs=12
cascade_max_out_epochs=150
cascade_min_out_epochs=50
cascade_max_cand_epochs=150
cascade_min_cand_epochs=50
cascade_num_candidate_groups=2
bit_fail_limit=3.49999999999999977796e-01
cascade_candidate_limit=1.00000000000000000000e+03
cascade_weight_multiplier=4.00000000000000022204e-01
cascade_activation_functions_count=10
cascade_activation_functions=3 5 7 8 10 11 14 15 16 17 
cascade_activation_steepnesses_count=4
cascade_activation_steepnesses=2.50000000000000000000e-01 5.00000000000000000000e-01 7.50000000000000000000e-01 1.00000000000000000000e+00 
layer_sizes=27 14 8 4 2 
scale_included=0
neurons (num_inputs, activation_function, activation_steepness)=(0, 0, 0.00000000000000000000e+00) (0, 0, 0.00000000000000000000e+00) (0, 0, 0.00000000000000000000e+00) (0, 0, 0.00000000000000000000e+00) (0, 0, 0.00000000000000000000e+00) (0, 0, 0.00000000000000000000e+00) (0, 0, 0.00000000000000000000e+00) (0, 0, 0.00000000000000000000e+00) (0, 0, 0.00000000000000000000e+00) (0, 0, 0.00000000000000000000e+00) (0, 0, 0.00000000000000000000e+00) (0, 0, 0.00000000000000000000e+00) (0, 0, 0.00000000000000000000e+00) (0, 0, 0.00000000000000000000e+00) (0, 0, 0.00000000000000000000e+00) (0, 0, 0.00000000000000000000e+00) (0, 0, 0.00000000000000000000e+00) (0, 0, 0.00000000000000000000e+00) (0, 0, 0.00000000000000000000e+00) (0, 0, 0.00000000000000000000e+00) (0, 0, 0.00000000000000000000e+00) (0, 0, 0.00000000000000000000e+00) (0, 0, 0.00000000000000000000e+00) (0, 0, 0.00000000000000000000e+00) (0, 0, 0.00000000000000000000e+00) (0, 0, 0.00000000000000000000e+00) (0, 0, 0.00000000000000000000e+00) (27, 4, 5.00000000000000000000e-01) (27, 4, 5.00000000000000000000e-01) (27, 4, 5.00000000000000000000e-01) (27, 4, 5.00000000000000000000e-01) (27, 4, 5.00000000000000000000e-01) (27, 4, 5.00000000000000000000e-01) (27, 4, 5.00000000000000000000e-01) (27, 4, 5.00000000000000000000e-01) (27, 4, 5.00000000000000000000e-01) (27, 4, 5.00000000000000000000e-01) (27, 4, 5.00000000000000000000e-01) (27, 4, 5.00000000000000000000e-01) (27, 4, 5.00000000000000000000e-01) (0, 0, 0.00000000000000000000e+00) (14, 4, 5.00000000000000000000e-01) (14, 4, 5.00000000000000000000e-01) (14, 4, 5.00000000000000000000e-01) (14, 4, 5.00000000000000000000e-01) (14, 4, 5.00000000000000000000e-01) (14, 4, 5.00000000000000000000e-01) (14, 4, 5.00000000000000000000e-01) (0, 0, 0.00000000000000000000e+00) (8, 4, 5.00000000000000000000e-01) (8, 4, 5.00000000000000000000e-01) (8, 4, 5.00000000000000000000e-01) (0, 0, 0.00000000000000000000e+00) (4, 13, 5.00000000000000000000e-01) (0, 13, 0.00000000000000000000e+00) 
connections (connected_to_neuron, weight)=(0, 2.25621831484912888754e+02) (1, 1.04335266366596997045e+01) (2, 3.12453750729550394638e-01) (3, -4.57386698526475932169e+00) (4, -6.05683559116428860136e+00) (5, -3.73767855466870080328e-01) (6, -2.85241125972536813116e-01) (7, 4.41647895175390381439e+00) (8, -4.78664451161267976431e+01) (9, 1.43438453055113868118e+00) (10, 1.41437474575954661304e+03) (11, 1.41453565543460831577e+03) (12, 6.58738911904362289818e-01) (13, 3.57664334640256931230e-02) (14, 1.10791150020097539652e-01) (15, 1.41439012764710173542e+03) (16, 1.41445894576925024921e+03) (17, 1.69458222979057140378e+01) (18, -4.94514974367056936444e+00) (19, -1.58057931681306857996e+01) (20, -1.56370997225077648096e+01) (21, -1.80713071948045889137e+00) (22, -1.04111406247978077744e+01) (23, -5.70978870234760638169e+00) (24, -6.85322518762547083782e+00) (25, 8.97803942551912470549e+00) (26, 4.70464306168699025745e-02) (0, 5.57159986858815514665e+01) (1, 7.89074053735696701040e+00) (2, 4.94424010197914709508e-01) (3, -2.66948173209112082915e+00) (4, -4.82330238596474369928e+00) (5, 1.75215872725468541082e-01) (6, 5.28539445009052755164e-02) (7, 2.21600475539283525706e+00) (8, -1.00084335426007967840e+02) (9, -1.07470547278514083622e+00) (10, 1.41442996998447165424e+03) (11, 1.41448909930455670292e+03) (12, 1.55459919977432003968e+00) (13, 1.58369350717996404398e-01) (14, 9.80928349361169793497e-02) (15, 1.41436953653711066181e+03) (16, 1.41438420225623235638e+03) (17, 1.08263073720732148075e+01) (18, -5.20137932657699408878e+00) (19, -6.82253045646631228749e+00) (20, -6.87764195410692202870e+00) (21, -1.48532023388494538452e+00) (22, -1.56719969762897388676e+01) (23, -5.80882912440428533785e+00) (24, -5.36429166879359620168e+00) (25, 8.03344531608888701157e+00) (26, 3.73927278382692254710e-02) (0, -5.15116711259036677006e+01) (1, -1.42275005032083026180e+01) (2, 3.71884804614622643815e-01) (3, -2.29007961164444495683e-01) (4, -2.44958221587461173752e-02) (5, -1.09852658913625736425e-01) (6, -1.27923952744497304579e-01) (7, 4.24335436177150526760e+00) (8, 5.44294576033103716384e+00) (9, 1.18810412236658224927e+00) (10, -1.17303218854594751974e+03) (11, -1.41193150430860100641e+03) (12, 2.90859326232697323888e+00) (13, 7.22558605537164666544e-02) (14, 1.88553396151994512309e-01) (15, -9.33341255456103908728e+02) (16, -6.93892305260640114284e+02) (17, -2.92883302641251397347e+00) (18, -1.36149654571548750503e+00) (19, -2.67551162290982670611e-02) (20, 6.96817344975062119561e-02) (21, -1.00141132356415432647e-01) (22, 3.45633074413245022782e+00) (23, 2.37745387387377493660e-01) (24, 3.19252085566927590321e+00) (25, -1.81786598031715818102e+00) (26, 5.71640708883633608117e-01) (0, -1.22254561705988464837e+02) (1, -3.48306669758285778471e+01) (2, 8.25066460189653128054e-01) (3, 1.15301549195451630281e-01) (4, 6.70301064761694709304e-02) (5, -7.21723093699086271080e-01) (6, -7.47306182097066007408e-01) (7, 7.85471758144080212105e+00) (8, 5.88508778165245960423e+00) (9, 7.81873084252199368471e-01) (10, -1.41188406376483021631e+03) (11, -1.41194298948289929285e+03) (12, 3.12224707647807342425e+00) (13, 1.38578298972581670512e-01) (14, 6.99313837156045892129e-02) (15, -9.32314213479157842812e+02) (16, -9.32381993102129854378e+02) (17, 1.94922565538035130750e+00) (18, -2.83752549466076864348e-01) (19, 2.56119118533373775481e-02) (20, 4.12114159665347007389e-02) (21, 4.37709176156680812575e-01) (22, 7.59739984237540300072e-01) (23, 3.55144781327289216222e-01) (24, 5.91718689911777051549e+00) (25, 1.92543528199120489441e-01) (26, 6.92070858202577965379e-01) (0, 1.07184002172445715928e+02) (1, 1.19835610254584992163e+01) (2, 1.40845054494585439353e-02) (3, -1.66268057271571589872e+00) (4, -2.36283051657041731630e+00) (5, -4.74011532851276662370e+00) (6, -4.62129152455148783929e+00) (7, 1.57599953841111228847e+00) (8, -2.71999610639657873890e+00) (9, -4.78930487637110879895e-01) (10, 9.35055431819503610313e+02) (11, 1.17554804396890108364e+03) (12, -1.63344999203727638815e+01) (13, 6.21608267590753604814e-02) (14, 1.21378246234391973246e-01) (15, 9.35108342251723115623e+02) (16, 9.35080174303596322716e+02) (17, 5.14274969255166602977e+00) (18, -3.59965449914600510439e+00) (19, -4.49447714026569222767e+00) (20, -4.65788088228105401356e+00) (21, -2.05472050932301453230e+00) (22, -3.15002068914499000485e+00) (23, -1.05095201673867988390e+00) (24, -8.02041111998566202956e-01) (25, 8.79109870288336381350e+00) (26, -2.79985649918601753328e+00) (0, 1.24109074659190241618e+02) (1, 6.75047460431507850842e+00) (2, 5.40982852091653643178e-01) (3, -3.18152890966060342137e+00) (4, -5.92914916842043648870e+00) (5, -2.91898370755918667996e+00) (6, -2.78753263725050137722e+00) (7, 3.61077860081371593282e+00) (8, -4.79602864155414323477e+01) (9, -2.28749736718075219466e-01) (10, 1.41449115447270855839e+03) (11, 1.41441693445610985691e+03) (12, 8.33302247055864420133e-01) (13, 1.09576630876992986430e-01) (14, 3.87718188628904392168e-02) (15, 1.41436126589345917637e+03) (16, 1.41437940825092778141e+03) (17, 9.98806697720969083321e+00) (18, -3.53602138511853958391e+00) (19, -6.19389630992429829348e+00) (20, -6.11131271113174534548e+00) (21, -1.73900820832837199603e+00) (22, -1.17066098587731950431e+01) (23, -5.65043278459047648710e+00) (24, -6.21762277684315556314e+00) (25, 8.16139910537359547504e+00) (26, 6.85920096409526058867e-02) (0, 4.23957830541411340164e+01) (1, 9.64083762625038787064e+00) (2, -1.32779463956255922019e-01) (3, -2.36633545441031767353e+00) (4, -2.55629507968358948844e+00) (5, -1.00536042839859418585e+00) (6, -1.03168259204004697516e+00) (7, 1.94901750624486891361e+00) (8, -6.00862944349757555074e+01) (9, 6.48915530797659068085e-02) (10, 9.35096124689274802222e+02) (11, 9.35173383291059508338e+02) (12, -1.63007380316303169820e+01) (13, 9.80811822280633904825e-02) (14, 3.47568946943037082598e-02) (15, 9.35201891380542292609e+02) (16, 9.35194098520272746100e+02) (17, 4.98483861501832770102e+00) (18, -5.13299105769359886864e-01) (19, -3.20787744168725108551e+00) (20, -3.12977572475161647247e+00) (21, -7.36401228076277614143e-01) (22, -3.95108237780281656981e+00) (23, -2.50920275589152863560e+00) (24, -2.81315363595187628576e+00) (25, 6.36767928010977257713e+00) (26, -2.52507423426832833258e+00) (0, 4.18985372453695248396e+01) (1, 1.15474304017317201954e+01) (2, 5.35052333788117451263e-01) (3, -2.37461966354355702435e+00) (4, -4.23727171084109244248e+00) (5, -9.69001220765478565866e-01) (6, -9.63140139582521870310e-01) (7, 2.72853886402006651224e+00) (8, -2.25843791817513363185e+02) (9, 2.08284533572131169699e-01) (10, 1.41438558337780818874e+03) (11, 1.41448336790072903568e+03) (12, 9.74757300789030667332e-01) (13, 8.59365938756380398633e-03) (14, 1.80834638938657706053e-02) (15, 1.41445219802427277500e+03) (16, 1.41447586303520188267e+03) (17, 7.91322398126309511923e+00) (18, -3.82554205609393349619e-01) (19, -5.24445307231500912337e+00) (20, -5.17547646886661816268e+00) (21, -1.46826034374869185406e+00) (22, -1.03225425671152919449e+01) (23, -5.65645553713332915891e+00) (24, -4.72462890479399177934e+00) (25, 6.40434819183447956448e+00) (26, 1.50905381598445159641e-01) (0, 7.42846283108612794877e+01) (1, 6.87165657065213153487e+00) (2, -1.92859961980045679919e-01) (3, -2.05438115826113243401e+00) (4, -2.41959683518693369209e+00) (5, -1.63542216470406787110e+00) (6, -1.62214236905740039063e+00) (7, 1.52786717588683851332e+00) (8, -1.46079152529582927400e+02) (9, -1.32966169812251622240e+00) (10, 1.17527982972570771381e+03) (11, 1.17548677236847584027e+03) (12, -1.63261948177860176656e+01) (13, 4.58056214318029453203e-02) (14, 3.94969689712278415605e-02) (15, 1.17520004662879819080e+03) (16, 1.17530918350824231311e+03) (17, 7.57903195886227187827e+00) (18, -1.28951542717827782880e+00) (19, -4.68046347004375284939e+00) (20, -4.56952962231836146145e+00) (21, -7.20087488451804036416e-01) (22, -6.21644640862179720386e+00) (23, -2.12147102847257329472e+00) (24, -1.22370554954176080642e+00) (25, 4.76121716601593103491e+00) (26, -2.12948625760340259916e+00) (0, 2.05343240761220641843e+02) (1, 1.13529133160686832582e+01) (2, 6.41653729131587136081e-01) (3, -4.43872786412371400644e+00) (4, -5.36770390994283808084e+00) (5, -7.28921570758413750468e+00) (6, -7.27074253688644844829e+00) (7, 4.52739417341624772462e+00) (8, -4.15394834180703540483e+01) (9, 3.60835766295863558106e-01) (10, 1.41452241819667801792e+03) (11, 1.41446620727646336491e+03) (12, 1.52613671165045361455e+00) (13, 1.66962418244813726176e-01) (14, 1.21780383871530339945e-01) (15, 1.41448628595042214329e+03) (16, 1.41439150034579620296e+03) (17, 1.24697941629371857886e+01) (18, -2.56992500759927455789e+00) (19, -8.08117190795755213628e+00) (20, -8.07664974826192683111e+00) (21, -1.47221321207972932754e+00) (22, -1.01210695433599884296e+01) (23, -5.78019302407483426265e+00) (24, -4.78288832933562257921e+00) (25, 6.50938008786277499951e+00) (26, -1.58617255042306365409e-02) (0, 2.06179183913295425157e+01) (1, 1.26987024555084015986e+01) (2, 7.11462413161065510003e-01) (3, 9.05281109292351421347e-02) (4, -4.11737184131241273910e-01) (5, 8.98943538392739216469e-01) (6, 1.00045645477886679942e+00) (7, 5.59438486304761362078e+00) (8, 1.08954388379042423907e+01) (9, -1.16020791974300347960e+01) (10, 1.50000000000000000000e+03) (11, 1.50000000000000000000e+03) (12, -4.03190573971932497699e+00) (13, 2.72265109286062290117e-02) (14, 1.80388155864213750590e-01) (15, 1.50000000000000000000e+03) (16, 1.50000000000000000000e+03) (17, 1.02183949683854340407e+01) (18, 5.40779354287591829120e+00) (19, -6.77854875719511085208e-01) (20, -7.19615804648363277529e-01) (21, 9.64281603559902111833e-01) (22, -7.55085563698388029241e-02) (23, -1.29640755978782240554e+00) (24, 2.05654815020410230986e+00) (25, 1.16294439597627241589e+00) (26, -4.10417224127953783608e-01) (0, 1.72020762863266511999e+01) (1, 9.44806838212651101117e+00) (2, 7.96005785766701473571e-02) (3, -6.91584669509790250785e-01) (4, -5.60502045805566062597e-01) (5, 4.77103578922584092847e-01) (6, 4.42232164618804490797e-01) (7, 1.54437662767376693296e+00) (8, 4.09635569083666126744e+01) (9, -4.17994650803748601930e+00) (10, 1.17552952908985321301e+03) (11, 1.17564019087962810772e+03) (12, -2.73013574936068814658e-01) (13, 7.37070026859987237344e-02) (14, 1.77993151830171392191e-01) (15, 1.17556839793436233776e+03) (16, 1.17550888432823126095e+03) (17, 1.04828255296307943922e+01) (18, -5.49200859110878703007e+00) (19, -3.93822356529826800298e+00) (20, -3.96726485930676053826e+00) (21, -3.92561046042659711475e+00) (22, -1.38587368849643133295e+00) (23, -3.34988873018021893202e+00) (24, -2.02909372143975819114e+00) (25, 1.62187186271883998501e+00) (26, -1.95005749746816448020e-01) (0, -7.67170019985827522646e+00) (1, -7.61604060770663338076e+00) (2, 5.67476187943382393009e-01) (3, -1.45502269655897326084e-01) (4, 7.34535556689312058021e-02) (5, -5.25374487748716881286e-02) (6, -7.09635392537687759162e-02) (7, -1.64567638913067715301e+00) (8, 8.27292578056196070690e+00) (9, 5.64548118587719649497e+00) (10, -1.41235704230459668906e+03) (11, -1.41233191014023759635e+03) (12, 1.03790118080962834313e+00) (13, 1.99084344790910527934e-01) (14, 1.94846707867120549906e-01) (15, -1.41232091688307264121e+03) (16, -1.17266500465504395834e+03) (17, -5.20327254855586929239e+00) (18, 4.90518338925670960293e+00) (19, 1.95600347791941353570e-01) (20, 1.71295674716265389215e-01) (21, 2.89976367681701152623e-01) (22, 9.06934086216200530117e-01) (23, 1.41290015517838124515e-01) (24, 3.34356178762879086008e+00) (25, 6.86387931072644619235e-01) (26, 8.02270069689565379356e-01) (27, 1.17422687924451906838e+03) (28, 1.17414296135850031533e+03) (29, -4.09126918925122651238e-01) (30, -1.40043701175433271677e-01) (31, 9.34363773051942644088e+02) (32, 1.17413106827236492791e+03) (33, 9.34409348737741765945e+02) (34, 1.17432155412234146752e+03) (35, 9.34304878946687040298e+02) (36, 1.17429787678815205254e+03) (37, 1.39548651939186463267e+00) (38, 8.63285469772853453208e+00) (39, 1.50990087909626230500e-01) (40, -1.88427581930786486319e-01) (27, 1.17468444732433158606e+03) (28, 1.41484043052572769739e+03) (29, -3.85167759628356449753e+01) (30, -3.83919665263355724960e+01) (31, 9.34182633096956124064e+02) (32, 1.17472852938478786200e+03) (33, 9.34059298793124071381e+02) (34, 1.41486392216164631463e+03) (35, 9.34020117270099035522e+02) (36, 1.41494003462944192506e+03) (37, 7.00256387349443976120e+00) (38, 1.57466900311400586077e+01) (39, -2.81582749308263213806e-01) (40, -1.90640262494618295541e-01) (27, 1.17467512682681876868e+03) (28, 1.17475166480844814032e+03) (29, -3.84165192143381588608e+01) (30, -3.85766513095558636337e+01) (31, 9.34185566155843844172e+02) (32, 1.17462448925008970946e+03) (33, 9.34057013945924154541e+02) (34, 1.41486243733916444398e+03) (35, 9.34064713621782175323e+02) (36, 1.17463179759537774771e+03) (37, 7.04844779726343695359e+00) (38, 1.58757741819703745989e+01) (39, -4.10579561115418933959e-01) (40, -3.99007938604895862067e-02) (27, -1.41444891005114777727e+03) (28, -1.41453174002573950929e+03) (29, 3.87956983858051671632e+01) (30, 1.73720344165143849580e+01) (31, -9.34185991883126689572e+02) (32, -1.41452378644154532594e+03) (33, -9.34174767922458840985e+02) (34, -1.41424622006985055123e+03) (35, -6.95012901259858722369e+02) (36, -1.41462776918069585008e+03) (37, 6.91586194247012731040e-01) (38, -3.89003784466490785121e+01) (39, 1.74875982599136712281e+01) (40, 6.77513192447759848847e+00) (27, -1.41456913143501742525e+03) (28, -1.41449232678965790910e+03) (29, 3.92649810022131120490e+01) (30, 2.21260886455702916464e+02) (31, -9.34285652420081760283e+02) (32, -1.41455878980563147707e+03) (33, -6.94576903197202341289e+02) (34, -1.41455728449032767458e+03) (35, -2.20012647179466057423e+02) (36, -1.41449412367598279161e+03) (37, -2.85882066929231370978e+00) (38, -3.95373512413512671060e+01) (39, 6.67761966154799466722e+01) (40, 1.29919088264242752473e+01) (27, 1.17470534153227890783e+03) (28, 1.17466917416398609930e+03) (29, -2.98550492111968290843e+00) (30, -8.58846402780963025236e-01) (31, 9.34483752359906020502e+02) (32, 1.17462043593024100119e+03) (33, 9.34452486274102511743e+02) (34, 1.17473123454992855841e+03) (35, 9.34444703524270835260e+02) (36, 1.17472661596481884771e+03) (37, 1.61386091004690279682e+00) (38, 3.94179781379503335614e+00) (39, 5.69356261605596158937e-01) (40, 2.94700987996553420700e-01) (27, 1.41450312534164640965e+03) (28, 1.41458417859118435445e+03) (29, -9.25059547834887467843e+01) (30, -3.88955067268825871452e+01) (31, 6.94758087968276299762e+02) (32, 1.41459914951961491170e+03) (33, 6.94684282525424237065e+02) (34, 1.17439122011571589610e+03) (35, 6.94717218424175257496e+02) (36, 1.41451578423570845189e+03) (37, 1.97964615708258473425e+00) (38, 3.95372693502460847981e+01) (39, -1.02185882378747514565e+01) (40, -4.93178530335029208231e+00) (41, -1.16832320513868211265e+02) (42, -1.68722359237649925490e+02) (43, -1.68758535934069641371e+02) (44, 3.95300422282698082910e+00) (45, 5.44902816326836347827e+00) (46, -8.15634808667824700024e+01) (47, -1.50000000000000000000e+03) (48, -3.37918842645009442904e+00) (41, -2.63934874890965920358e+00) (42, -2.41556351114937806202e+00) (43, -2.44543552626797700000e+00) (44, 2.82052424348743446814e+00) (45, 3.05905890312513184526e+00) (46, -2.35510905196400566197e+00) (47, -7.05314582769938851925e+02) (48, -1.12595134196617041589e+00) (41, -5.18587109631755693862e-01) (42, -5.36068011139976485779e-01) (43, -5.33063602655088120130e-01) (44, 6.09975388029577469950e+00) (45, 6.15138194267196283249e+01) (46, -7.25791679297880576449e-01) (47, -3.96638047221046274871e+00) (48, -6.88878243391708555698e-01) (49, 1.41294658909028339622e+03) (50, 1.29681041346306846762e+00) (51, 4.69587135140203892902e-01) (52, 3.64746637809840804079e-02) 
