FANN_FLO_2.1
num_layers=5
learning_rate=0.700000
connection_rate=1.000000
network_type=0
learning_momentum=0.000000
training_algorithm=2
train_error_function=1
train_stop_function=0
cascade_output_change_fraction=0.010000
quickprop_decay=-0.000100
quickprop_mu=1.750000
rprop_increase_factor=1.200000
rprop_decrease_factor=0.500000
rprop_delta_min=0.000000
rprop_delta_max=50.000000
rprop_delta_zero=0.100000
cascade_output_stagnation_epochs=12
cascade_candidate_change_fraction=0.010000
cascade_candidate_stagnation_epochs=12
cascade_max_out_epochs=150
cascade_min_out_epochs=50
cascade_max_cand_epochs=150
cascade_min_cand_epochs=50
cascade_num_candidate_groups=2
bit_fail_limit=3.49999999999999977796e-01
cascade_candidate_limit=1.00000000000000000000e+03
cascade_weight_multiplier=4.00000000000000022204e-01
cascade_activation_functions_count=10
cascade_activation_functions=3 5 7 8 10 11 14 15 16 17 
cascade_activation_steepnesses_count=4
cascade_activation_steepnesses=2.50000000000000000000e-01 5.00000000000000000000e-01 7.50000000000000000000e-01 1.00000000000000000000e+00 
layer_sizes=79 40 20 10 2 
scale_included=0
neurons (num_inputs, activation_function, activation_steepness)=(0, 0, 0.00000000000000000000e+00) (0, 0, 0.00000000000000000000e+00) (0, 0, 0.00000000000000000000e+00) (0, 0, 0.00000000000000000000e+00) (0, 0, 0.00000000000000000000e+00) (0, 0, 0.00000000000000000000e+00) (0, 0, 0.00000000000000000000e+00) (0, 0, 0.00000000000000000000e+00) (0, 0, 0.00000000000000000000e+00) (0, 0, 0.00000000000000000000e+00) (0, 0, 0.00000000000000000000e+00) (0, 0, 0.00000000000000000000e+00) (0, 0, 0.00000000000000000000e+00) (0, 0, 0.00000000000000000000e+00) (0, 0, 0.00000000000000000000e+00) (0, 0, 0.00000000000000000000e+00) (0, 0, 0.00000000000000000000e+00) (0, 0, 0.00000000000000000000e+00) (0, 0, 0.00000000000000000000e+00) (0, 0, 0.00000000000000000000e+00) (0, 0, 0.00000000000000000000e+00) (0, 0, 0.00000000000000000000e+00) (0, 0, 0.00000000000000000000e+00) (0, 0, 0.00000000000000000000e+00) (0, 0, 0.00000000000000000000e+00) (0, 0, 0.00000000000000000000e+00) (0, 0, 0.00000000000000000000e+00) (0, 0, 0.00000000000000000000e+00) (0, 0, 0.00000000000000000000e+00) (0, 0, 0.00000000000000000000e+00) (0, 0, 0.00000000000000000000e+00) (0, 0, 0.00000000000000000000e+00) (0, 0, 0.00000000000000000000e+00) (0, 0, 0.00000000000000000000e+00) (0, 0, 0.00000000000000000000e+00) (0, 0, 0.00000000000000000000e+00) (0, 0, 0.00000000000000000000e+00) (0, 0, 0.00000000000000000000e+00) (0, 0, 0.00000000000000000000e+00) (0, 0, 0.00000000000000000000e+00) (0, 0, 0.00000000000000000000e+00) (0, 0, 0.00000000000000000000e+00) (0, 0, 0.00000000000000000000e+00) (0, 0, 0.00000000000000000000e+00) (0, 0, 0.00000000000000000000e+00) (0, 0, 0.00000000000000000000e+00) (0, 0, 0.00000000000000000000e+00) (0, 0, 0.00000000000000000000e+00) (0, 0, 0.00000000000000000000e+00) (0, 0, 0.00000000000000000000e+00) (0, 0, 0.00000000000000000000e+00) (0, 0, 0.00000000000000000000e+00) (0, 0, 0.00000000000000000000e+00) (0, 0, 0.00000000000000000000e+00) (0, 0, 0.00000000000000000000e+00) (0, 0, 0.00000000000000000000e+00) (0, 0, 0.00000000000000000000e+00) (0, 0, 0.00000000000000000000e+00) (0, 0, 0.00000000000000000000e+00) (0, 0, 0.00000000000000000000e+00) (0, 0, 0.00000000000000000000e+00) (0, 0, 0.00000000000000000000e+00) (0, 0, 0.00000000000000000000e+00) (0, 0, 0.00000000000000000000e+00) (0, 0, 0.00000000000000000000e+00) (0, 0, 0.00000000000000000000e+00) (0, 0, 0.00000000000000000000e+00) (0, 0, 0.00000000000000000000e+00) (0, 0, 0.00000000000000000000e+00) (0, 0, 0.00000000000000000000e+00) (0, 0, 0.00000000000000000000e+00) (0, 0, 0.00000000000000000000e+00) (0, 0, 0.00000000000000000000e+00) (0, 0, 0.00000000000000000000e+00) (0, 0, 0.00000000000000000000e+00) (0, 0, 0.00000000000000000000e+00) (0, 0, 0.00000000000000000000e+00) (0, 0, 0.00000000000000000000e+00) (0, 0, 0.00000000000000000000e+00) (79, 4, 6.50000000000000022204e-01) (79, 4, 6.50000000000000022204e-01) (79, 4, 6.50000000000000022204e-01) (79, 4, 6.50000000000000022204e-01) (79, 4, 6.50000000000000022204e-01) (79, 4, 6.50000000000000022204e-01) (79, 4, 6.50000000000000022204e-01) (79, 4, 6.50000000000000022204e-01) (79, 4, 6.50000000000000022204e-01) (79, 4, 6.50000000000000022204e-01) (79, 4, 6.50000000000000022204e-01) (79, 4, 6.50000000000000022204e-01) (79, 4, 6.50000000000000022204e-01) (79, 4, 6.50000000000000022204e-01) (79, 4, 6.50000000000000022204e-01) (79, 4, 6.50000000000000022204e-01) (79, 4, 6.50000000000000022204e-01) (79, 4, 6.50000000000000022204e-01) (79, 4, 6.50000000000000022204e-01) (79, 4, 6.50000000000000022204e-01) (79, 4, 6.50000000000000022204e-01) (79, 4, 6.50000000000000022204e-01) (79, 4, 6.50000000000000022204e-01) (79, 4, 6.50000000000000022204e-01) (79, 4, 6.50000000000000022204e-01) (79, 4, 6.50000000000000022204e-01) (79, 4, 6.50000000000000022204e-01) (79, 4, 6.50000000000000022204e-01) (79, 4, 6.50000000000000022204e-01) (79, 4, 6.50000000000000022204e-01) (79, 4, 6.50000000000000022204e-01) (79, 4, 6.50000000000000022204e-01) (79, 4, 6.50000000000000022204e-01) (79, 4, 6.50000000000000022204e-01) (79, 4, 6.50000000000000022204e-01) (79, 4, 6.50000000000000022204e-01) (79, 4, 6.50000000000000022204e-01) (79, 4, 6.50000000000000022204e-01) (79, 4, 6.50000000000000022204e-01) (0, 0, 6.50000000000000022204e-01) (40, 8, 7.50000000000000000000e-01) (40, 8, 7.50000000000000000000e-01) (40, 8, 7.50000000000000000000e-01) (40, 8, 7.50000000000000000000e-01) (40, 8, 7.50000000000000000000e-01) (40, 8, 7.50000000000000000000e-01) (40, 8, 7.50000000000000000000e-01) (40, 8, 7.50000000000000000000e-01) (40, 8, 7.50000000000000000000e-01) (40, 8, 7.50000000000000000000e-01) (40, 8, 7.50000000000000000000e-01) (40, 8, 7.50000000000000000000e-01) (40, 8, 7.50000000000000000000e-01) (40, 8, 7.50000000000000000000e-01) (40, 8, 7.50000000000000000000e-01) (40, 8, 7.50000000000000000000e-01) (40, 8, 7.50000000000000000000e-01) (40, 8, 7.50000000000000000000e-01) (40, 8, 7.50000000000000000000e-01) (0, 8, 7.50000000000000000000e-01) (20, 8, 7.50000000000000000000e-01) (20, 8, 7.50000000000000000000e-01) (20, 8, 7.50000000000000000000e-01) (20, 8, 7.50000000000000000000e-01) (20, 8, 7.50000000000000000000e-01) (20, 8, 7.50000000000000000000e-01) (20, 8, 7.50000000000000000000e-01) (20, 8, 7.50000000000000000000e-01) (20, 8, 7.50000000000000000000e-01) (0, 8, 7.50000000000000000000e-01) (10, 13, 8.00000000000000044409e-01) (0, 13, 8.00000000000000044409e-01) 
connections (connected_to_neuron, weight)=(0, -6.74222115861016391136e+02) (1, 2.24476985253752232552e+01) (2, 3.40103833481575523745e-01) (3, 3.81187222992684624501e+01) (4, 2.97668070070888635126e-01) (5, 1.80508255351260760158e+00) (6, 1.50000000000000000000e+03) (7, 8.00352889065069406094e-01) (8, -9.80504653709423564578e+02) (9, -5.07856555179596966809e+02) (10, 1.50000000000000000000e+03) (11, 1.50000000000000000000e+03) (12, 7.43799950058373838147e+02) (13, 1.55082930539580887697e-01) (14, 1.07309755598041123292e-01) (15, 2.80658855308148815766e+02) (16, 2.48962901531555502288e+02) (17, 7.19900122388987040445e-01) (18, 4.20151366323957873306e+01) (19, 3.49165703061555532383e-01) (20, 3.14679692390893606113e-01) (21, 1.05342216165412971840e+00) (22, -9.50231642661073806266e+02) (23, -4.69406026112353401913e+02) (24, 2.09420613274892941646e+00) (25, 3.91425091300293903629e-01) (26, -3.34058758885951590401e+02) (27, -6.97812566025288447236e+02) (28, 3.36246410096830539160e-01) (29, 1.19273114962334214617e+00) (30, 4.13721769543414885639e-01) (31, -1.86251461911374747160e+02) (32, 1.50000000000000000000e+03) (33, 1.09517886670885378209e+00) (34, -1.37011999234199515740e+03) (35, -5.87468072117289693779e+02) (36, 1.50000000000000000000e+03) (37, 1.50000000000000000000e+03) (38, 8.12335392213517195614e+01) (39, 5.29033511028049324709e-02) (40, 1.75261367772552079103e-01) (41, 4.39181539655163746261e+01) (42, 3.44971764676975851671e+02) (43, -2.82011037143467202526e+00) (44, 7.39873448733764371710e-02) (45, 3.91853932630289725214e-01) (46, 2.73648217659462456020e-01) (47, 6.02814626883780957378e-01) (48, -1.19364592501098559296e+03) (49, 4.82101744434037915443e-01) (50, 1.50000000000000000000e+03) (51, 2.77058615288017284772e-01) (52, -4.73005341143683892824e+02) (53, 1.69515490788365568164e+01) (54, 3.15369512980676058866e-01) (55, 7.41809654434745890939e-01) (56, 2.59491092529221700769e-01) (57, -1.50000000000000000000e+03) (58, 1.50000000000000000000e+03) (59, -4.45254611330179805861e+00) (60, -1.46764235751460773827e+03) (61, -1.50000000000000000000e+03) (62, 1.50000000000000000000e+03) (63, 1.59133740296960919380e+01) (64, 1.96415507702239366949e-01) (65, 5.77278479084728096682e-02) (66, 6.05322576210258339602e-02) (67, -2.29738733307725073729e+00) (68, 2.42677659738175099946e+00) (69, 8.44655921916853236198e-01) (70, -4.04812015297147276272e+00) (71, 2.33916013327042149328e-01) (72, 2.29927754786411808752e-01) (73, 4.51945185386162684438e-01) (74, -1.30834809522161503992e+03) (75, 5.27986963869871317456e-01) (76, -1.45533599771594981576e+03) (77, 3.60645349073296095366e-02) (78, 4.41589720625644444052e-01) (0, -1.57355241641769261207e+00) (1, -3.27691717437712926042e+00) (2, 2.70752365358976554433e+00) (3, -3.47488305063446301091e-01) (4, 2.05570896235512190486e+00) (5, -1.04152930030827889141e+02) (6, 1.50000000000000000000e+03) (7, -1.65092117683057926225e-01) (8, -4.49509127413788007743e+01) (9, -7.45454646473720661248e+00) (10, 1.29079999079704271026e+03) (11, 1.50000000000000000000e+03) (12, 9.48478236806924535074e+00) (13, 1.34453554366561478517e-01) (14, 1.89351384256812638185e-01) (15, 1.08725001497357709468e+02) (16, 2.71884053387491519516e+02) (17, 5.47577175724869835705e+00) (18, 7.52128267226179332283e+01) (19, -5.91784651617234258580e-02) (20, 3.37928970118338556361e-02) (21, 1.59486554283650466823e-01) (22, -1.02064449497023979063e+01) (23, -1.44129407943833176553e+00) (24, 3.25244701873757735555e+00) (25, 3.81725763884225355316e-01) (26, 1.23960032543222506973e+01) (27, 2.46041672904640629227e+00) (28, -3.81412741709451896810e+00) (29, -2.12925110144021534353e+00) (30, -1.00155866824544448335e+00) (31, 3.06293515154631919017e+01) (32, 1.50000000000000000000e+03) (33, 6.84513505131060373543e+00) (34, 3.19696866880408592237e+01) (35, 1.53389568840324574950e+01) (36, 1.29079999079704271026e+03) (37, -8.86663426677304400414e+00) (38, 1.31956616043840790908e-01) (39, 1.85620729540320938966e-01) (40, 1.56265278075667923829e-01) (41, 1.60908648449549716020e+01) (42, 1.30317954546334497934e+01) (43, 1.40238402888638766797e+01) (44, -6.54409925993345797934e+00) (45, -1.54020370909989740005e-01) (46, -1.52735965320886041274e-01) (47, -1.54995002070949183803e-01) (48, 4.21538398114104262415e-01) (49, -1.44521580022200474280e-01) (50, 9.77967570386689288853e+01) (51, 4.79243203884658963698e-01) (52, 2.77733273000883018611e+00) (53, 4.71068921245712779466e+00) (54, 1.17233884391490867927e+01) (55, 6.79690302959574932373e+00) (56, -1.43681842817041327542e+00) (57, -2.76192244409948939321e+00) (58, 1.50000000000000000000e+03) (59, -2.14180955664301064800e-01) (60, 9.55639236970751085209e+02) (61, 1.45966640254820543277e+01) (62, 1.29079999079704271026e+03) (63, 3.54134445452540758126e+00) (64, 2.33443929942305200553e-01) (65, 5.23043244228122566897e-02) (66, 1.07413691197368210695e-01) (67, 8.23969709237553260550e+00) (68, 1.04753040119616103176e+00) (69, 1.34668321448145746899e+01) (70, -6.04822757369178418685e+01) (71, -9.02244685243597466240e-01) (72, -9.79924617361059846488e-01) (73, -2.68604867095674715305e-01) (74, -5.90297676382390079652e+00) (75, 5.01285930364753704036e-02) (76, -3.81596655501018444667e+00) (77, -2.24233115841240993049e+00) (78, 1.20958736993559773376e-01) (0, 2.70274271204071436792e-01) (1, 3.25261280192200297190e-01) (2, -2.66671769103442590776e-02) (3, 2.61874757371286515095e-01) (4, -2.49519018840317075014e-01) (5, 3.91665582948875945490e+00) (6, 1.50000000000000000000e+03) (7, 9.81848355094515172492e-03) (8, -1.43280093578365619322e+00) (9, -1.87389596380449985347e+00) (10, 1.39079999079704271026e+03) (11, 1.50000000000000000000e+03) (12, 2.72097190447506132038e-01) (13, 1.51489828442069596193e-01) (14, 1.18000504289599961183e-01) (15, 1.50000000000000000000e+03) (16, 8.46901257049017885947e+00) (17, 4.02309207384382860884e-01) (18, 4.82728050969361499600e-01) (19, -5.18035430939706609266e-01) (20, -5.96121218534024999158e-01) (21, -4.64973053401137592644e-01) (22, -3.19509225899832127737e+00) (23, -6.45905019774616118156e-01) (24, 1.05598021327721514062e+00) (25, 5.03649624845241491999e-02) (26, 1.46940770895371541904e+00) (27, 8.30069517127247302746e-01) (28, 1.03105279869710048102e-01) (29, 2.52036762283744497637e-01) (30, -4.69696777269914766961e-01) (31, 1.50000000000000000000e+03) (32, 1.50000000000000000000e+03) (33, -8.42752034108394720846e-01) (34, 2.13674937630262418153e+00) (35, 2.53857021619517375655e+00) (36, 1.39079999079704271026e+03) (37, 5.92408801558213156113e+01) (38, -3.44560500704606309519e-01) (39, 1.12749536250564164064e-01) (40, 2.10059617374869889161e-01) (41, 2.80092417188911156245e+02) (42, 1.06497825155182522394e+03) (43, 8.63903069619331304141e-02) (44, 4.18509141058770062216e+00) (45, -5.99558706293102372520e-01) (46, -4.76674954304688758278e-01) (47, -4.69512761647323584313e-01) (48, -1.81584599281027636586e+00) (49, -8.46848906926455424760e-01) (50, 1.62989100505506878669e+00) (51, -8.94246204514444475997e-02) (52, 4.10340311708469962504e-01) (53, 3.92057050724659128527e-01) (54, 1.83933543182344880207e-02) (55, -9.01343535565562792300e-01) (56, -2.34822798405192711968e+00) (57, 1.38737909213335552927e+00) (58, 1.50000000000000000000e+03) (59, 2.01976067287193028488e-01) (60, -2.68587062468373716229e+00) (61, -2.98294545558101420468e+00) (62, 1.39079999079704271026e+03) (63, 1.48421447480641836592e+03) (64, 6.03097355978479399141e+00) (65, 2.95342772350067964138e-02) (66, 2.11156864379378861329e-01) (67, 3.08780044918701612744e+00) (68, 4.57329198802340197716e+00) (69, 7.29438433999355484438e-01) (70, -3.10610436381140886386e-01) (71, -4.41474940176036445560e-01) (72, -5.91713580782442516437e-01) (73, -3.39313073133730658260e-01) (74, 4.50425814043645189599e+00) (75, -3.15601970886579194508e-02) (76, 1.49721494262794307950e+00) (77, -1.84859686506691656138e-01) (78, -1.10828189052917525093e-01) (0, 2.79534563697210636235e-01) (1, 6.16040567269471428524e-01) (2, -4.34919102521467773603e-02) (3, -2.62924194652916165538e+00) (4, -5.47180113744956786448e-01) (5, -5.71379719199621050052e-01) (6, 1.50000000000000000000e+03) (7, 7.39810732983337410174e-02) (8, 1.89316072319150308090e+00) (9, 3.99082988239404468089e-01) (10, 1.50000000000000000000e+03) (11, 1.83427614430840208115e+02) (12, -9.60935830878613783668e-01) (13, 1.01429921303721970460e-01) (14, 1.61308337663146561525e-01) (15, 1.48676418310769736308e+03) (16, 9.46781288534250897726e+00) (17, 8.83768865623296262513e-01) (18, -3.95076361466465542094e+00) (19, -4.44667394326533460536e-01) (20, -4.52449972794856158931e-01) (21, -3.74387457793015465679e-01) (22, -1.01402547840644952082e+00) (23, 3.28718161465660074771e-01) (24, 2.71438835514274778848e-01) (25, -2.66362033541622149693e-03) (26, 3.63876931580713680603e+00) (27, 3.37166909463043307227e+00) (28, 6.33809890549341115040e-01) (29, 2.50475770360304827999e-01) (30, -5.11261586088563979580e-01) (31, 6.80660061810133242943e+02) (32, 1.50000000000000000000e+03) (33, 4.97187327835393932940e-01) (34, -2.35033434780377442630e-01) (35, -6.42047818803370340390e+00) (36, 1.50000000000000000000e+03) (37, 1.33977572403982867399e+03) (38, 1.48107486469295968057e+00) (39, 1.36213985000583237550e-01) (40, 1.77100022052260941408e-01) (41, 1.50000000000000000000e+03) (42, 1.47705431297784997469e+02) (43, 1.84165269856208446697e+00) (44, 2.02630841576693754291e+00) (45, -5.31615481274256174160e-01) (46, -5.78015842037329141689e-01) (47, -5.00696288550101509252e-01) (48, -1.52768249453909460422e-01) (49, 5.96887292070616859441e-01) (50, -7.52508350627292266211e-01) (51, -3.29047941910885419214e-02) (52, -5.16017767567895635494e-01) (53, 2.03799979517953144814e-01) (54, -2.58166341243573661812e-02) (55, -2.95780300425309804202e-02) (56, 6.01654743191535223978e-01) (57, 1.82271257679865534840e+01) (58, 1.50000000000000000000e+03) (59, 2.39169447918158972755e-01) (60, -1.97782371778769755499e-01) (61, -6.30619933985031577706e-01) (62, 1.50000000000000000000e+03) (63, 3.07590622050661863796e+02) (64, 3.76484908182946942379e-01) (65, 1.78632308457824295900e-01) (66, 1.01858009313079422853e-01) (67, -1.74866453478376286057e+02) (68, 9.94854290735806667811e-01) (69, 2.28724201434914897746e+00) (70, 1.62668477085840357255e+00) (71, -6.05000637513764760733e-01) (72, -5.44998683077462575675e-01) (73, -3.64443444347374412295e-01) (74, -2.81442145411683296297e-02) (75, 1.33476062110116333592e+00) (76, 1.77373907020994009409e-01) (77, 1.26766581780217657549e-01) (78, -1.44257115163663792584e-02) (0, 1.43025438317571733648e+01) (1, 5.04511425509295952097e-01) (2, 1.41913673826673081280e-01) (3, -1.54713557384540645323e+00) (4, 4.45876714079145863856e-02) (5, -2.07315144703148712679e+00) (6, 1.50000000000000000000e+03) (7, -1.66112614200533831310e-01) (8, -3.36271724527669446658e+00) (9, 1.63833537733551111160e+01) (10, -1.50000000000000000000e+03) (11, 1.06928049690198925248e+01) (12, 1.15089674557285179257e-01) (13, 2.04534996961089676759e-01) (14, 4.83172728762386177737e-02) (15, -5.32273656126798528021e+02) (16, 5.47840281826646080532e+00) (17, -3.51999810393456458169e-01) (18, -1.16552823448508959814e+01) (19, -1.99922162464239383528e-01) (20, -2.66721967032529205799e-01) (21, -6.80933866075124072381e-01) (22, -1.57398272894964774693e+00) (23, 1.17013476640585634136e+00) (24, -4.47795142302776782994e-01) (25, -1.45808959849791947017e-01) (26, -9.89461580911542526451e+00) (27, 9.32291105523112700881e-02) (28, 2.17023347619678874665e+00) (29, 1.83807292548583012248e+00) (30, 8.23547722704493834200e-01) (31, -3.97198189827743846081e+01) (32, 1.50000000000000000000e+03) (33, 2.99204594602626539057e+00) (34, 3.22626643160308690383e+00) (35, 7.96588564001173438101e+00) (36, -1.50000000000000000000e+03) (37, -9.83915271012146945395e+02) (38, -5.51923472826398198166e-01) (39, 1.54571939919921463868e-01) (40, 1.19178061102363175294e-01) (41, 2.57528445835574970602e+01) (42, -3.11212336114291360900e+02) (43, 3.76729473915100143699e-01) (44, 2.90495626067250434232e-01) (45, 1.34455662878686793560e-01) (46, 1.96553212317163272793e-01) (47, -3.12289903964422521643e-01) (48, -1.34511763104494064258e+00) (49, 1.13284368092439455267e-01) (50, 2.57540634515428246143e-02) (51, -3.54948263468534197518e-01) (52, -1.82316178050799893029e+00) (53, 3.53202713548570579327e-01) (54, -7.92118906599070471408e-01) (55, 1.17312381774165253034e+00) (56, 1.12118683890973319661e-01) (57, 4.04770082270541919911e+00) (58, 1.50000000000000000000e+03) (59, 1.17165700881447176762e+00) (60, 4.04096778966500892238e+02) (61, 7.55690519802214799583e-01) (62, -1.50000000000000000000e+03) (63, 2.94174936141790643873e+00) (64, 1.41205637140267026552e+03) (65, 2.21994151090117997072e-01) (66, 8.41846770689216872263e-02) (67, -5.74496280034223172350e+00) (68, -2.88959226079651454455e+00) (69, 5.20269586360221913957e-01) (70, -1.31792742389898442923e+01) (71, -1.59386669569957534209e-01) (72, -4.69557208058716327170e-02) (73, -1.38724992201001096070e-01) (74, -3.38617094804274954001e+00) (75, 2.69164463989513991216e-01) (76, 4.21287759071551304313e-01) (77, 1.72813678973932804972e+00) (78, 1.77583007002399972550e-04) (0, -4.54338110236968739652e-01) (1, -3.68514879198107714320e-01) (2, 5.85728983736293271067e-02) (3, 1.74173802781230624426e+00) (4, -1.03416491183265613074e+00) (5, 3.45307106959761578313e-01) (6, 1.50000000000000000000e+03) (7, 1.24251600614506108045e+00) (8, -6.08863557569909952250e-01) (9, 5.20625686472344195721e-01) (10, -1.50000000000000000000e+03) (11, -1.62961365376784357295e+01) (12, -1.40388846849210335854e+00) (13, 1.75455038164588517091e-01) (14, 1.01427641426059311769e-01) (15, -1.23481605419779430122e+03) (16, -4.78283147415573566263e+01) (17, 4.91629306967476309431e-01) (18, -7.98007484951223311498e+00) (19, -3.17300668058269558572e-03) (20, 1.49659384221090038108e-02) (21, -3.07532346236841913623e+00) (22, 2.08160234347418127143e+00) (23, -3.69386911946394114192e-01) (24, 4.47790425158046734300e-01) (25, -9.21341762437565825472e-01) (26, -3.31244772107814666740e+00) (27, 2.14471650622196169378e-01) (28, 1.96650912498972069153e-01) (29, -1.03474938901453299422e+01) (30, -5.10466144776352326318e-01) (31, 1.97427279326597293618e+01) (32, 1.50000000000000000000e+03) (33, -1.59890421043905650578e+00) (34, -2.93324262343664399211e+00) (35, 2.45889583294572389160e-01) (36, -1.50000000000000000000e+03) (37, 1.61527986264116023563e+01) (38, -2.49527777136409445458e-01) (39, 1.56889919851752823732e-01) (40, 7.74887061760164280733e-02) (41, 4.20351040638971085173e+00) (42, -6.76564094779105971611e+02) (43, -1.29021049068284460182e-01) (44, 5.44223838515946134464e+00) (45, 7.38413966892422779509e-02) (46, -1.84830390216643956902e-02) (47, -4.76028816417548461537e-01) (48, 8.89245972663495587440e-01) (49, -8.42586811075042185770e-01) (50, -9.12462236668954013163e-02) (51, -3.35303709153545070887e-01) (52, -1.68858159854747523487e-02) (53, 1.02099410312286711933e-01) (54, -4.08614914810392804156e-01) (55, 2.40072172213250345507e+00) (56, -3.11621878962447329542e+00) (57, 1.93184623965842767745e+01) (58, 1.50000000000000000000e+03) (59, -9.07716720639473867438e-02) (60, -1.74944178845742759343e+00) (61, 7.60399487180342226189e-01) (62, -1.50000000000000000000e+03) (63, -2.36855395001424504642e+01) (64, 3.26077267588631691808e+00) (65, 2.12753821824523514650e-01) (66, 1.82056729410621231935e-01) (67, 4.32209981962895462004e+00) (68, 1.25704223337676501693e-01) (69, 4.57604626445341500229e-01) (70, -2.66154564573180785203e+01) (71, -3.95632274574157227764e-02) (72, -1.03843249505874701821e-02) (73, -5.08375962368646350242e-01) (74, 2.26261102557463633644e+00) (75, 3.32549418536609908692e-01) (76, -4.18054803900277249795e+00) (77, 1.41647458773742879190e-01) (78, 4.59438596955697373114e-02) (0, 7.70138939562685731488e+00) (1, 2.80670257329764922360e+02) (2, -1.37746972079542246092e+02) (3, 1.21357307273559218430e+01) (4, -2.99720046108366755533e+00) (5, -3.98263099906705946296e+01) (6, 1.50000000000000000000e+03) (7, -2.18061720528151852250e+01) (8, -4.58851615740348620420e+02) (9, -1.45917609615564447267e+03) (10, -1.31579999079704271026e+03) (11, -1.08040493944844104846e+01) (12, 1.01292131360973564069e-01) (13, 1.23776402984592026613e-01) (14, 1.38593238507243698976e-01) (15, -1.02298396709619694889e+02) (16, -2.57399036124976646533e+02) (17, -7.27020980864455736992e+01) (18, 1.49217730073641610034e+03) (19, -1.06941428221848733315e+00) (20, -9.73624655977756936487e-01) (21, -6.52503340093130268507e-01) (22, -2.42767604759119350888e+01) (23, -9.84817089084120356191e-01) (24, 1.38197340331140665626e+01) (25, 3.12301560353745802368e-02) (26, 4.52257755988026488581e+00) (27, 2.39049502544057546061e+00) (28, -1.03621288246728393556e-01) (29, -8.65769424302145154115e+01) (30, -1.92568163261142433207e+00) (31, -1.44499999880790710449e+03) (32, 1.50000000000000000000e+03) (33, 1.29619115872521604160e+02) (34, 3.82878946882374364691e+01) (35, -1.29724536881196058857e+03) (36, -1.31579999079704271026e+03) (37, -7.35341501320876744785e+01) (38, -9.19122114121469047099e-01) (39, 5.97776628181693886477e-02) (40, 1.11804333244296616456e-01) (41, -8.45165974717082917778e+02) (42, 1.92205278076151024891e+01) (43, -4.90681626170339235671e+00) (44, -1.57248162673630051955e+01) (45, -1.17865356057752324048e+00) (46, -1.01510716974605497143e+00) (47, -8.57711584730390774745e-01) (48, 5.49719383855039733788e+00) (49, -4.18797577834353451642e-01) (50, -5.79361590719050596476e+01) (51, -1.44391928745580596510e-02) (52, 1.34846522647946898132e+00) (53, 1.70636607090805081377e+00) (54, -2.01198325424908758263e-01) (55, 2.28710717615758852617e+02) (56, 1.04278476695576594047e+00) (57, -4.57626395168006808944e+02) (58, 1.50000000000000000000e+03) (59, -1.89466600928842021645e+00) (60, -4.93252256402717392803e+00) (61, -1.47500000000000000000e+03) (62, -1.31579999079704271026e+03) (63, -8.51482938290478159615e+02) (64, -1.03803613947663198047e+01) (65, 3.43661054119822131914e-02) (66, 2.19786991094085282228e-01) (67, -1.50000000000000000000e+03) (68, -3.64744627008984366512e+02) (69, 3.54519108387793338566e-02) (70, 1.75787760181472094700e+01) (71, -1.29131098920911635552e+00) (72, -1.24478627825588117339e+00) (73, -8.75420114171891805555e-01) (74, -3.14241753284216662756e-01) (75, -2.17484634742126398121e-01) (76, -2.93738498808379176808e+02) (77, -3.42039143982145577016e-01) (78, -4.13492533328215450261e-01) (0, -1.86998728342478237607e+00) (1, -6.68604952904596538943e-01) (2, 6.17807786904014055729e-01) (3, 2.10628202545942833090e-01) (4, -7.88407144350973476676e-01) (5, -1.02190456354543868223e+00) (6, 1.50000000000000000000e+03) (7, 3.08406419472380455282e-01) (8, -2.94021447535574909082e-01) (9, 6.92086904105862599224e-01) (10, 1.50000000000000000000e+03) (11, 4.05252595423966042176e+01) (12, 6.62038259934899397940e-01) (13, 1.25959333692523545167e-01) (14, 2.71065353498214714478e-02) (15, 1.50000000000000000000e+03) (16, 1.50000000000000000000e+03) (17, 1.29070177911504213597e+00) (18, 4.00230127425636972305e+00) (19, -6.06505061636671394254e-01) (20, -7.39044728825792640592e-01) (21, -5.17877067270730018222e-01) (22, -1.31632994202758268898e+00) (23, -1.26145953070305488763e-01) (24, -1.99632497821047349973e+00) (25, 1.18967869142828908124e+00) (26, 4.27069652699254564965e+00) (27, 2.50550262023291603342e+00) (28, 1.53456727904824036246e-01) (29, -2.21746684074918376517e-01) (30, -6.45538025523603620215e-01) (31, 5.31860068986532724011e+02) (32, 1.50000000000000000000e+03) (33, 9.65538585862389608927e-01) (34, -2.31423209814018732144e-01) (35, 2.71651461102591662566e+00) (36, 1.50000000000000000000e+03) (37, 1.29033011974784608356e+03) (38, 1.76263039161968587676e-01) (39, 1.88004825924369400880e-01) (40, 2.56307839498275263912e-02) (41, 1.50000000000000000000e+03) (42, -5.23541137833806402568e+00) (43, 2.93314879185569044040e+00) (44, 7.68910691917345623381e-01) (45, -6.14193510875226778012e-01) (46, -6.75448116526128572445e-01) (47, -8.49990677957955687027e-01) (48, 7.01195719485216861777e-01) (49, -8.09654384656682823973e-01) (50, -1.11771995982032676387e-01) (51, 9.94115753351807573956e-01) (52, -5.44532937530844196594e-01) (53, 1.96550159373220706405e-01) (54, 3.17693508153442272235e-01) (55, 6.04631500935210342007e-01) (56, -5.30353285758779047221e-01) (57, 3.95093529005647070562e+00) (58, 1.50000000000000000000e+03) (59, -3.70088879479012200502e-01) (60, -2.82532978452464778041e-01) (61, 1.55054094775605189049e+00) (62, 1.50000000000000000000e+03) (63, -1.66954407718344953082e+02) (64, -1.39171131436627931732e-01) (65, 3.31164642319437194096e-02) (66, 2.17072357152434891603e-01) (67, -6.26286788220571266628e-01) (68, 1.99981226109957965775e+00) (69, 1.26258385270114348309e+00) (70, 6.21058503835207442734e-01) (71, -7.31647884110819268777e-01) (72, -5.98548190305839944436e-01) (73, -6.18442164713532749332e-01) (74, 1.91683623617562792774e+00) (75, -4.06524812565626114669e-01) (76, -1.34902987143765390465e-01) (77, 5.89656717370371952214e-01) (78, 2.26079526967547073113e-01) (0, 9.74065333091763285722e+00) (1, -4.25099428097210907396e+00) (2, -2.62309746355035677823e+01) (3, -1.67603851120390623386e+00) (4, -2.56217735922297296103e-01) (5, -4.24572652736085274228e+01) (6, 1.50000000000000000000e+03) (7, -5.56808257124023597839e+00) (8, -1.01655692601442183332e+02) (9, 4.34474999040273590634e-01) (10, 1.46699999797344207764e+03) (11, 1.50000000000000000000e+03) (12, -2.44993033178304528974e+01) (13, 7.17395327136263333268e-02) (14, 1.54936109398337906740e-01) (15, 3.02916425868019530299e+02) (16, 2.71990464168490916563e+02) (17, -3.03976375176986621796e+01) (18, 1.43068639936722359352e+01) (19, -2.54711587125003358079e-01) (20, -2.71248717004001105302e-01) (21, -1.38317001768406755424e+00) (22, 4.17574979803328361072e+00) (23, -6.38626352929086427146e-01) (24, 7.07009844147751742582e+00) (25, -5.74780747186639828783e+00) (26, 1.50000000000000000000e+03) (27, 1.49736000329971352585e+03) (28, 3.26883109860511500422e-01) (29, -7.04260782266486717873e+00) (30, -1.72249699167375780462e+00) (31, 3.33334136885620750945e+02) (32, 1.50000000000000000000e+03) (33, 2.25697826039147314559e-01) (34, 1.29530828919344287442e+02) (35, -4.46766868006019612913e-01) (36, 1.46699999797344207764e+03) (37, 1.33322792504080371145e+03) (38, 2.06247645267592716323e+01) (39, 6.48398778483623983160e-02) (40, 1.92446117018195694826e-01) (41, 7.38442341965589776009e+02) (42, 1.27353821242071649777e+01) (43, 5.47326756013509441168e-01) (44, 1.72240379441563257190e-01) (45, -1.69240945678270948704e+00) (46, -1.60898609560049665745e+00) (47, -3.88023399892220732799e-01) (48, -2.70405237401824365406e+01) (49, -2.73918884357955194631e-01) (50, 4.43206174228890081856e-01) (51, -1.97399656101557274823e+00) (52, 4.04304152465153237017e+01) (53, 1.54802978474569719047e+00) (54, 2.06303626907481918451e+00) (55, 4.32389995236460311645e+00) (56, 1.82454094582568493443e+00) (57, -7.68152919566037262200e+00) (58, 1.50000000000000000000e+03) (59, 8.99788093824406765009e+00) (60, 1.94105487249651567083e+01) (61, 1.57846371317459556849e+02) (62, 1.46699999797344207764e+03) (63, 6.83666709648891355755e+02) (64, 5.91459747330306484514e+00) (65, 2.00252999280425614259e-01) (66, 8.07978740975590914442e-02) (67, -7.50148385472029758603e+02) (68, 1.11954218985848519274e+00) (69, -3.93053833744411384998e+00) (70, 1.39554568455367333790e+00) (71, -4.50476291302580211795e-01) (72, -3.93334197524923712130e-01) (73, -3.88045318423238916328e-01) (74, -1.87868488017201293871e+01) (75, -2.31832569980473159887e+01) (76, 3.59373791756064486780e-01) (77, 6.93677495567861651660e-02) (78, -1.95399996748129634039e-01) (0, -9.22977458391211143862e+02) (1, 3.85451813496305950579e+00) (2, -4.30396983394332011130e+01) (3, 5.82254720621775079259e-01) (4, 2.07847074539343590338e-01) (5, 5.07279174136644599002e+02) (6, 1.50000000000000000000e+03) (7, 1.00666438893416532174e+00) (8, -1.22472541669008720078e+02) (9, -8.38799993419647080373e+02) (10, -1.25000000000000000000e+03) (11, 1.50000000000000000000e+03) (12, -7.78090547548536846989e+02) (13, 1.10848893140288895509e-01) (14, 6.58835328266375447326e-02) (15, 7.72726144249882764825e+01) (16, 1.50000000000000000000e+03) (17, 6.32231956493916835704e-01) (18, 5.77671113253680914568e+01) (19, 2.34559957314351807955e-01) (20, 1.45284701515057679266e-01) (21, 6.53690100027220777346e-02) (22, -9.56086736758971483141e+02) (23, -3.26376911496076729691e+02) (24, 5.32305889794723707809e-01) (25, 1.49450252374507160102e-02) (26, -1.26955754846341847042e+03) (27, -1.03649375000411873771e+03) (28, 3.71153507647487168608e-01) (29, 6.14925682624585911995e-01) (30, -3.60589890862765993784e-01) (31, 3.82048212994357299976e+02) (32, 1.50000000000000000000e+03) (33, 8.46764712739002001207e-01) (34, -1.50000000000000000000e+03) (35, -4.69866645873242248399e+02) (36, -1.30000000000000000000e+03) (37, 7.56421500825339194307e+02) (38, 3.69507255859392591546e-01) (39, 1.99351076696845597169e-01) (40, 1.22142736528846329591e-01) (41, 1.42781173772441114522e+01) (42, 3.61874713329441206611e+01) (43, 1.14427172760287973574e+02) (44, 4.87531326121651398253e-01) (45, 3.72252180178537728228e-01) (46, 2.99661463995352039813e-01) (47, -8.23871622288640248488e-02) (48, 6.78578263709401426240e+02) (49, 2.67628344339054891066e+01) (50, 2.25167327125383792463e+02) (51, 9.13393709942183357198e-04) (52, -1.36342002794331983750e+03) (53, 3.54123357009279573049e+02) (54, 4.09898741213621742308e-01) (55, 5.86223232653138310866e+01) (56, 2.70750748560888876426e-01) (57, 1.03949760088457523466e+02) (58, 1.50000000000000000000e+03) (59, -6.04233758368716733500e-01) (60, -1.14596596699717088086e+03) (61, -1.47500000000000000000e+03) (62, -1.25000000000000000000e+03) (63, 1.38852485129129430419e+01) (64, 1.00625558867153208631e+00) (65, 7.02742605552422044957e-02) (66, 1.28066238676044052980e-01) (67, -5.18776276428368760207e+02) (68, 1.06314170904754701041e+03) (69, 6.22818116040682712153e-01) (70, 6.65483484073779578694e+01) (71, -1.19686117110010564746e-01) (72, -4.04864334797515237202e-03) (73, -1.89984466148200234481e-02) (74, 3.98956534550294236396e+02) (75, 8.12078653739402356315e-01) (76, -1.42555999915123015853e+03) (77, -4.17198698186658134546e+00) (78, 3.15579440744131189955e-01) (0, 1.02287429316195987994e+00) (1, 8.53344515732002983910e-01) (2, 3.84436292186979999830e-01) (3, 3.62004137843598439161e+00) (4, 3.77868249897521990555e-01) (5, -1.47158475402552539890e+01) (6, 1.50000000000000000000e+03) (7, -2.65851105561211653594e+00) (8, 1.26695795036676877032e+01) (9, -3.64300722706705837339e+00) (10, 4.99999999999998863132e+01) (11, 6.40164453812102465236e+01) (12, 3.87222141621038407067e+00) (13, 1.74656201814147538087e-01) (14, 7.53083943471650335555e-02) (15, 7.34819671008861234895e+01) (16, 1.19764299172536857441e+03) (17, 7.47714884024492376646e-02) (18, 5.22476937128557210599e+01) (19, 3.25613799175846374556e-01) (20, 2.10570572546349893406e-01) (21, 2.32805746644041133830e-01) (22, 1.19079999079704271026e+03) (23, -8.72347621129883066260e+00) (24, -9.83283227933819148348e+00) (25, 4.87267382550597705215e-01) (26, 2.81756500517208934298e+01) (27, 3.74965116516625984744e+00) (28, 3.59562687225253585499e-01) (29, 3.16846620930684663708e-01) (30, 4.51976998640484795011e-01) (31, 2.05420682375945240494e+01) (32, 1.50000000000000000000e+03) (33, 1.44421117430653976044e+03) (34, -5.22425769801503392387e+00) (35, -9.07320616914493029981e+02) (36, -1.13686837721616029739e-13) (37, 3.53554617801022104118e+01) (38, 5.53375500648229756706e+00) (39, 1.98184166763755387208e-01) (40, 1.09716874276134079835e-01) (41, 4.41241481075150119295e+01) (42, 1.28529534801864961935e+01) (43, 2.20517755670015560554e+01) (44, 4.56563009279389348194e+02) (45, 3.48152336320225741506e-01) (46, 3.82838335475270297170e-01) (47, 1.79474559209924333647e-01) (48, -9.53156853944405391132e+00) (49, 4.36043798382582359352e+00) (50, -2.67065289568164985212e+01) (51, 4.12698970161411993196e-01) (52, 1.32291391989396922568e+00) (53, 2.04670027701398105080e+00) (54, -7.22291709897121880779e-01) (55, 9.62300678746491826132e+02) (56, 4.20188103342138941088e+00) (57, 1.34845648106001085864e+01) (58, 1.50000000000000000000e+03) (59, -6.37853249277523959293e-01) (60, -2.99826303337937893900e+00) (61, -1.11347884561193199993e+00) (62, -1.13686837721616029739e-13) (63, 6.54269941728181869678e+00) (64, 4.00285833227695562186e+01) (65, 2.20898170684310501954e-01) (66, 6.41844279215093016511e-02) (67, -7.49867295529332409387e+01) (68, 1.38439061455241163578e+00) (69, 2.22078774690620006638e+00) (70, 6.77497138845545464392e+02) (71, 3.02936412901008256249e-01) (72, 2.18741573900306268685e-01) (73, 2.03853663585763567045e-01) (74, 4.53294792698440005552e+02) (75, 2.02195059360218332145e+00) (76, -6.63649318093108142591e+00) (77, -9.30188719215394588247e-02) (78, 3.74513657420243895046e-01) (0, 3.20477455276904410475e-01) (1, 4.44588129874745430214e+00) (2, -4.45525562001725217165e-01) (3, -2.18142114910771267589e+00) (4, -1.33401546008579896530e+00) (5, -2.37511877695183448722e+00) (6, 1.50000000000000000000e+03) (7, 1.07102543662418647763e+00) (8, -1.50000000000000000000e+03) (9, 3.16762453027738679623e+01) (10, -1.50000000000000000000e+03) (11, 7.07830732864874221377e+01) (12, -1.39501619398653332382e+02) (13, 8.23290578171938930430e-02) (14, 1.33086171661349839113e-01) (15, 5.46370687445410794680e+02) (16, 2.19871340845689928756e+01) (17, 1.63381777687622603557e-01) (18, -1.04745052014700554821e+01) (19, -1.73601793019450378885e+00) (20, -1.74424366919673157206e+00) (21, -7.75332140444870310247e-01) (22, -1.28547675139436296377e+03) (23, -1.06809465587916292861e+03) (24, 9.69664341758571524110e-01) (25, -1.27804980558593017648e-01) (26, 3.73893203120031225595e+00) (27, -1.76152047100004054414e+01) (28, 2.80274998397988195364e-01) (29, -7.20138008660217252555e+01) (30, -2.72281757613590391642e+00) (31, -7.94170347918457864012e+00) (32, 1.50000000000000000000e+03) (33, 6.26730668970781152893e+02) (34, 9.41382578322349772293e+00) (35, 1.01629725067695675378e+00) (36, -1.50000000000000000000e+03) (37, -3.22083987183336319049e+02) (38, -8.26657284112334300730e-01) (39, 1.77278090928527420900e-01) (40, 1.41455110822650498292e-01) (41, 9.13313511438216494298e+01) (42, -1.73814567640651453928e+01) (43, 1.50729645785894939003e+00) (44, -6.55301642877914105156e+02) (45, -1.81626126138748067440e+00) (46, -1.76718951730312223702e+00) (47, -1.43741117745123681004e+00) (48, -5.17712753109193735135e-01) (49, -5.74902728467920155708e+02) (50, 7.80204404029769649220e-01) (51, -2.66794468016640917707e-01) (52, -5.19664203000769404639e+01) (53, 3.41217230047708014462e-02) (54, -1.35507190854235415323e+00) (55, -1.57808743353353861494e+02) (56, -2.16608420152545866344e+00) (57, 2.31659710516466645913e+01) (58, 1.50000000000000000000e+03) (59, -1.09981943800426407165e+02) (60, -2.61654016385303805237e+02) (61, -1.57943688031920181913e+00) (62, -1.50000000000000000000e+03) (63, -3.76082371091593543611e+01) (64, 1.46273130575258516473e+01) (65, 1.04834292744132584474e-01) (66, 1.78538460944625443361e-01) (67, -3.67116485629151654280e+01) (68, 7.35244437240686110613e-01) (69, -1.85650737401831078532e-01) (70, -4.30957634081130152026e+01) (71, -1.91703515675971747356e+00) (72, -1.77131473821709395366e+00) (73, -1.46232619791044782254e+00) (74, -5.00495202341855538464e+00) (75, 2.48985508065164026448e+02) (76, -5.36428796098149640592e-01) (77, -2.11483630146201334599e-01) (78, -1.09000692518628483629e-01) (0, 2.23050920853393341847e-01) (1, 2.39483395292325013104e-01) (2, 5.31549823290397988051e-02) (3, 2.80404982941753255776e-01) (4, -2.42846297714207653984e-01) (5, 1.33581881534123203537e+00) (6, 1.50000000000000000000e+03) (7, -6.29760008841788287981e-01) (8, -8.90548263639174031425e+00) (9, -2.90134190471004194123e-01) (10, 1.50000000000000000000e+03) (11, 1.50000000000000000000e+03) (12, -1.13461201485326498850e-01) (13, 1.65109459970923966310e-01) (14, 2.33011140570395305915e-02) (15, 9.99491995743140137165e+02) (16, 7.29496162620945256094e+02) (17, 1.21340137264186576083e-01) (18, 2.12831913541678213742e-01) (19, 1.20725731083379268088e-02) (20, 2.03110004493222140454e-02) (21, 3.07320252937866689180e-01) (22, 3.35078869510874233217e-01) (23, -8.85177920707797410982e-02) (24, -4.81420198426055379048e-01) (25, 1.67022162739236146312e-01) (26, 2.14063790138914189498e+00) (27, 1.19632865543891364624e+00) (28, -2.69212191514889148669e-02) (29, -2.03981080421376748113e-01) (30, -1.72618208745434792428e-01) (31, -5.76837821198046185600e+02) (32, 1.50000000000000000000e+03) (33, -2.55424917410179808108e-01) (34, -1.05846651145864764643e-01) (35, -6.59301125291837042397e-01) (36, 1.50000000000000000000e+03) (37, 8.86164291713572424669e+02) (38, 1.42157373361943095702e+00) (39, 2.03952108238669937990e-01) (40, 5.16955523833988045412e-02) (41, 1.50000000000000000000e+03) (42, 1.04520052324856589365e+01) (43, 7.41180043533524179900e-01) (44, 3.98160392673403418229e-01) (45, -1.42468139189404659206e-02) (46, -8.71394198714913609249e-03) (47, 1.41632761583357025259e-01) (48, -6.15546843652731573426e-02) (49, -1.35170865919030491753e-01) (50, 9.72022466391504247341e-01) (51, 1.91428016074221718501e-01) (52, 1.72795002880580417237e-01) (53, 6.55877662495445989954e-02) (54, 7.04523618739449518020e-04) (55, 2.54427572041772019282e-03) (56, 8.79474826716710178509e-02) (57, -1.18069893790023279223e+01) (58, 1.50000000000000000000e+03) (59, -1.56174965532612702868e-01) (60, 1.08452513899824271038e-01) (61, -7.16788267491550445953e-01) (62, 1.50000000000000000000e+03) (63, 3.54301743742381489710e+01) (64, 1.21340229583112901857e+00) (65, 8.11008258805008680481e-02) (66, 9.02107848868098916029e-02) (67, -3.15002225791207379757e+00) (68, 1.38625575858743328439e+01) (69, -1.07515793354660035841e-01) (70, -1.98185247648780482610e-01) (71, 1.16558946935297100267e-01) (72, -5.88135642131554434164e-02) (73, 2.40362340868650548042e-01) (74, 9.14859591196551962845e-04) (75, -2.07559941200878006473e-02) (76, -1.38579014652909782157e-01) (77, 9.66415428406420806695e-02) (78, 1.28483887875718072458e-01) (0, 9.86655478779165040493e-01) (1, 6.48225559360023573241e-01) (2, 3.34061406015135689551e-02) (3, -5.92335780470412798238e-01) (4, 3.90153240252402111476e-01) (5, 2.75694458370872252928e+00) (6, 1.50000000000000000000e+03) (7, -2.49845112759378013001e-01) (8, 1.14602869821912745074e+00) (9, -2.65809303639926952201e+02) (10, -1.50000000000000000000e+03) (11, 9.73605808623646453270e+02) (12, 5.23465549492923010177e-01) (13, 3.05895774707551255933e-02) (14, 1.47697497819396561525e-01) (15, 7.07483564685857800214e+02) (16, -8.99220532944737669823e+02) (17, 1.77517408070847620971e-01) (18, -2.01900206808045601381e-01) (19, -5.14787645323032228006e-01) (20, -5.47204510552639855625e-01) (21, -5.25437495881010629972e-01) (22, -6.26961827021991768838e-01) (23, 5.58791349417485871953e-01) (24, 4.18062590910796505472e-01) (25, -4.53010523362691708282e-01) (26, 3.98656778550559565133e+00) (27, 1.47602301811337213167e+01) (28, 1.89448586970075549818e-01) (29, 1.33569964510095978705e-01) (30, -6.51930212729029512353e-01) (31, -2.06672748405548283301e+01) (32, 1.50000000000000000000e+03) (33, 1.71275019915928472525e-01) (34, 6.77865071285474019014e-01) (35, 3.73325791612744195547e+00) (36, -1.50000000000000000000e+03) (37, 4.91378473656435144079e+00) (38, 1.98641200857432392857e-01) (39, 2.00730313275786942384e-01) (40, 1.02968808923694199464e-01) (41, 7.34845501511365341685e+02) (42, -1.45337547529136390523e+01) (43, 2.66170800393289042063e+00) (44, 5.39397880148093644692e+00) (45, -7.16433380523420648700e-01) (46, -6.22502897659040765888e-01) (47, -3.85318633154913270378e-01) (48, -4.50433089605068115446e+00) (49, -4.17057888953414476418e+02) (50, 6.32472885700653408847e-01) (51, -5.61101635986693381142e-01) (52, -9.68378001482618100404e-01) (53, -3.63081906907606732915e+00) (54, -1.50963918819974596275e+00) (55, -1.76044021086538861331e-02) (56, -4.26647439338241729612e-01) (57, 8.93912690562575273923e-01) (58, 1.50000000000000000000e+03) (59, -4.87570817137485568171e-01) (60, -1.00117395411177074749e+01) (61, -6.36359757059074548913e-01) (62, -1.50000000000000000000e+03) (63, -9.06333456470656813053e+01) (64, 8.30136794348252049502e-01) (65, 8.26898931607931569898e-02) (66, 1.97636400078269547365e-01) (67, 4.08051214161551101256e+00) (68, 8.54732703885250466591e-01) (69, 3.24413090987018981615e-01) (70, -1.96677247214556083499e+00) (71, -4.89918581997333180134e-01) (72, -6.29253029679237352312e-01) (73, -7.13042767547219624724e-01) (74, -1.33996752054754573180e+01) (75, 3.06322208550531327464e-01) (76, -1.80524050731137086778e-01) (77, -5.44199495151768020129e-01) (78, -1.35373828119646044676e-01) (0, 4.24599222049230395903e-01) (1, 6.63899426885770749251e-01) (2, -3.47489752568083745676e-02) (3, -1.67709465610674213210e+00) (4, 2.24855871753401687085e-01) (5, 8.75202629158660094788e-01) (6, 1.50000000000000000000e+03) (7, 7.17328390947933880462e-02) (8, -4.54956383415551268712e+00) (9, -2.51435106533389962635e-01) (10, 1.50000000000000000000e+03) (11, 1.17395978673876493303e+03) (12, 1.56078749600069155434e+00) (13, 1.21366587196322983644e-01) (14, 3.67582260713336453350e-02) (15, 3.67510980912557613465e+02) (16, 1.44965852411768810271e+03) (17, 8.99390277980929186974e-01) (18, 4.32336314540511068572e+00) (19, -5.37980546180895968789e-01) (20, -5.24336566154650851601e-01) (21, -4.26101798808726839329e-01) (22, -1.44319643188260071653e+00) (23, -4.01138897911445191369e+00) (24, 3.17384659607376606871e-01) (25, -7.00614602816405640517e-02) (26, 3.02682724469880142237e+01) (27, 9.23142758050686573768e-01) (28, 1.91457957925489891116e-01) (29, -9.09585004820959275307e-01) (30, -6.16411623058601976233e-01) (31, 2.48161054834650940393e+01) (32, 1.50000000000000000000e+03) (33, 1.69752188624848372733e-02) (34, -1.29189675113786184291e+00) (35, -1.66370949887602357364e+01) (36, 1.50000000000000000000e+03) (37, 1.50000000000000000000e+03) (38, 8.91543254216164204884e-01) (39, 4.85736697063205574709e-02) (40, 2.06212182258102005861e-01) (41, 3.65145820469382783813e+02) (42, 4.53944172111908716971e+00) (43, 1.22035927019963663653e+00) (44, 4.43426168113382068725e+00) (45, -5.75061694607129747503e-01) (46, -7.10541897341600114935e-01) (47, -4.07984596309530489489e-01) (48, -1.59111284681212361569e+00) (49, -1.12947970591534874174e+00) (50, 4.16215852951610065791e-01) (51, -1.17048235519067678201e-01) (52, 1.27584820873769633209e+00) (53, 9.04699426284620300542e-01) (54, 6.53495599544408611870e-02) (55, -5.88149633764100787658e-01) (56, 1.23712017671596519186e+00) (57, 1.07445779660216711449e+00) (58, 1.50000000000000000000e+03) (59, -2.42212555154306091731e-01) (60, -1.32713346223728523299e+00) (61, 6.97600849608948636593e-01) (62, 1.50000000000000000000e+03) (63, 1.09583122477809276063e+01) (64, 1.38152604388670052771e-01) (65, 1.14888515983554428956e-01) (66, 1.59881044839355057618e-01) (67, -2.30169909028238883764e+00) (68, 2.16131459907361289652e+01) (69, 1.10543032749563097106e+00) (70, 3.39590368256274244274e+00) (71, -6.15123785725324667695e-01) (72, -5.63869148185937918427e-01) (73, -3.81021568428549950447e-01) (74, -5.21768892870723255406e-01) (75, -2.76472574050886862884e-02) (76, 2.56853781106717582450e-01) (77, -1.82154469199970825422e+00) (78, 1.52341191603771880514e-01) (0, 1.18096822610801649445e-01) (1, 1.10814870729945491590e+00) (2, -1.38945350000992812189e-02) (3, 8.03077485619755226942e-01) (4, -3.56034717741772288591e+00) (5, -9.05830218259862540719e-01) (6, 1.50000000000000000000e+03) (7, -2.79230591696022212300e-01) (8, 1.41199485364254773145e+01) (9, -2.21246195543819546003e+01) (10, -1.50000000000000000000e+03) (11, 1.07572658267287168954e+00) (12, 1.05473586168656705553e+01) (13, 2.18769167278739518068e-01) (14, 8.18754739210338228217e-02) (15, 8.25085757734527192042e+00) (16, 1.44915944147910977335e+03) (17, -1.72305760910974981037e+00) (18, 1.15055713045444196752e+00) (19, -5.33600235039092263278e-01) (20, -5.36858820968962868747e-01) (21, -7.43022322156220549338e-01) (22, 1.50835305425715882066e+00) (23, 1.01182307511225766383e+00) (24, 7.71067441458836544399e-01) (25, 3.28653269562001915105e-01) (26, 7.59529195837389203838e-01) (27, 3.35693567864173836313e+00) (28, 9.46829643091268491339e-01) (29, 1.08126762937855769309e+00) (30, -5.04229277060342706562e+00) (31, 3.20291679738958123380e+02) (32, 1.50000000000000000000e+03) (33, 5.72082994672949429749e-01) (34, -1.37904373866864148113e+02) (35, -2.39491017546591535847e+01) (36, -1.50000000000000000000e+03) (37, 2.52885064757854616246e+00) (38, 2.07107204295212143919e+00) (39, 1.58792515014144486329e-01) (40, 5.44525726780650948244e-02) (41, 2.56403978735786779453e+01) (42, 1.27017894956651343819e+03) (43, -1.99506323868589441339e+00) (44, -2.62375003965776669446e-02) (45, -6.59696027199476953129e-01) (46, -7.58761480013579125981e-01) (47, -7.85781237787478881174e-01) (48, -5.98855055413743198045e+00) (49, 3.17007493164533178318e-03) (50, 2.20542288530231722632e+00) (51, 3.94660013565248934952e-01) (52, 3.00445879025481699109e-01) (53, 5.76483917063075668175e-01) (54, 4.08818996869303674657e-01) (55, -7.78383606996056576222e-01) (56, -9.17854341022590891619e-01) (57, 2.85343158482803062270e+02) (58, 1.50000000000000000000e+03) (59, 2.34084959417005411542e-01) (60, 2.41406280771187864431e+00) (61, 3.38570270508383908137e+00) (62, -1.50000000000000000000e+03) (63, -9.99220828839155572609e+00) (64, -1.15379380584995905323e+00) (65, 1.58357848142119950197e-01) (66, 1.48784179900619095704e-01) (67, -4.21878421596505071012e-01) (68, 5.50275808701948676571e+00) (69, -4.08977895217261178118e+00) (70, 1.44989244751703449943e+00) (71, -7.46304188366238130392e-01) (72, -8.26669011707607537254e-01) (73, -7.45051759153471659936e-01) (74, 1.79901811520947174650e+00) (75, -3.01716546267156660033e-01) (76, 9.84213720622389653947e-01) (77, 2.59477883835483091879e-01) (78, 5.06211167145913850524e-03) (0, 1.07482020792802241971e+01) (1, 3.98125406051566044230e-01) (2, -1.27699445607976747041e-01) (3, -5.69663582848819460835e-01) (4, -2.68288156214433859414e-01) (5, 2.77994466113936411489e+01) (6, 1.50000000000000000000e+03) (7, -9.84996226885170633736e-01) (8, 4.56366570209983168915e-01) (9, -1.45967212000279200623e+00) (10, 1.50000000000000000000e+03) (11, 9.73568876692990784250e+02) (12, -2.04640804892365302248e-01) (13, 2.93525501236672203831e-02) (14, 1.56891216252776688478e-01) (15, 1.23401725767368589004e+03) (16, 1.50000000000000000000e+03) (17, 5.40097120273937345014e-02) (18, 6.31272245314917879178e-01) (19, -9.95986857210461318246e-01) (20, -9.35112022553746813358e-01) (21, -4.57063328908503818671e-01) (22, 2.01130850137657635202e+00) (23, -1.12355454521986350414e-01) (24, -7.15395893550080375078e-01) (25, -1.00693205165339375040e-01) (26, 1.79915218333996342892e+01) (27, 6.10274022053486753236e+00) (28, 4.01602409443768543218e-02) (29, -4.45326638441130295831e+00) (30, -7.07816445827460505313e-01) (31, 1.49040598363748313204e+03) (32, 1.50000000000000000000e+03) (33, 3.44243944188850736765e-01) (34, 7.73739932196947699516e-01) (35, 3.02195791898119381358e+00) (36, 1.50000000000000000000e+03) (37, 1.06850832917378042453e+01) (38, 1.62961865577059078491e-01) (39, 1.09185454164477890870e-01) (40, 1.08524140630694931886e-01) (41, -7.72286188653374551905e+02) (42, 4.78469747310787170136e+01) (43, 2.40217012425072873327e+00) (44, 4.34668497266446429705e+00) (45, -1.22127611358108145723e+00) (46, -1.21442572940530402192e+00) (47, -3.56262352199635035088e-01) (48, -1.11852944294581790885e+00) (49, -2.09382919051252724962e-01) (50, 1.17959389071152309647e+00) (51, -1.17198946358444924809e-01) (52, 1.03088301561620165891e+00) (53, -2.45834994426685415903e+00) (54, -5.16166355812823357541e-02) (55, -6.61178733466316281842e-01) (56, -4.81848228915529974703e-01) (57, 2.32768308996789574650e+00) (58, 1.50000000000000000000e+03) (59, -5.28302509719416280021e-01) (60, 1.19891762722887151860e+00) (61, 5.04825557856141249324e-01) (62, 1.50000000000000000000e+03) (63, 1.31454820638444812175e+03) (64, -6.87845768049973660396e-01) (65, 2.09286262010070389650e-01) (66, 1.02592636559936112306e-01) (67, 3.32825832540553298577e-03) (68, -1.87298600108127311081e+00) (69, 1.02017568151954330508e-02) (70, 5.81971337145060019225e+00) (71, -9.01982940529785337525e-01) (72, -9.21278349851570310669e-01) (73, -4.69191569112918815954e-01) (74, -1.50000000000000000000e+03) (75, -3.00580464285067697205e-02) (76, -3.51481819944543416590e-01) (77, -2.54771522031323471857e-01) (78, -1.55590689686141120385e-01) (0, 1.50000000000000000000e+03) (1, -7.53094941632209724958e+02) (2, 2.38226923462244855045e+01) (3, 3.50044320952377918665e-01) (4, 3.30498919817245138120e+01) (5, -1.41725302341366399261e+00) (6, 1.50000000000000000000e+03) (7, 1.00508888632704282418e-01) (8, 8.94435302276363358942e+02) (9, 3.07524285799213370485e-01) (10, 1.50000000000000000000e+03) (11, 1.76606797079289890462e+02) (12, -5.89885723339735257298e+00) (13, 2.00968895767661637208e-01) (14, 1.12832572971316880128e-01) (15, 2.71083310676386801674e+01) (16, 1.49813108590989895674e+03) (17, -7.33320378187457464492e+01) (18, -2.14753963150131397697e+02) (19, 5.78799175147765687655e-01) (20, 7.26988250438922234409e-01) (21, 5.45234835086874802812e+00) (22, 1.50000000000000000000e+03) (23, -8.32393458893213420424e+01) (24, 2.14016191590117754728e-01) (25, 1.81207218808700110113e-01) (26, 1.50000000000000000000e+03) (27, 1.50000000000000000000e+03) (28, 2.06971207508919924356e-01) (29, 2.52342308573923945758e+00) (30, -2.50839662562028253845e+00) (31, -2.70938230850121044568e+02) (32, 1.50000000000000000000e+03) (33, 6.96999765379855151792e+00) (34, 1.50000000000000000000e+03) (35, -4.44820397154498170522e+00) (36, 1.50000000000000000000e+03) (37, 1.50000000000000000000e+03) (38, 9.11984151651298979857e-01) (39, 2.26725011214964494721e-02) (40, 8.53107093915668190931e-02) (41, 1.10046599600431527222e+01) (42, 8.06925042283403293197e+00) (43, 2.98475281882612755169e+01) (44, 5.56570520725766182402e-01) (45, -1.64128948477868208400e+00) (46, -1.45418808339003646779e+00) (47, 1.36684142284068865791e+01) (48, -1.50000000000000000000e+03) (49, 7.80741067999488702611e+00) (50, -1.07142137235517420635e+01) (51, 3.75803083893602590804e-02) (52, 1.50000000000000000000e+03) (53, -1.28921126066662576903e+01) (54, 3.93123140153629222482e+01) (55, 1.39869774040140242732e+02) (56, 5.49566159822784161548e+00) (57, -4.05771097802232176832e+01) (58, 1.50000000000000000000e+03) (59, -3.28266492754610084148e+00) (60, 1.39079999079704271026e+03) (61, 2.05562845654585828470e+01) (62, 1.50000000000000000000e+03) (63, 1.72942666768091655172e+01) (64, 3.16687833652507322313e+00) (65, 3.45651923761126217416e-02) (66, 1.65785242532226151368e-01) (67, -3.57033011792549928032e+02) (68, 1.53875741683583155961e+00) (69, -2.87738884807693970913e+01) (70, 2.54181514387547366596e+02) (71, 1.23034829294202216476e-01) (72, 1.39696339165684912942e-01) (73, 3.24619158667963105813e+01) (74, -1.50000000000000000000e+03) (75, 3.78471418861224506713e+00) (76, 7.52468679295843712040e-01) (77, -5.10429417342080027353e-01) (78, -1.35160029164540063107e-01) (0, 8.64886442284154566273e-02) (1, -7.18186706944355157667e-01) (2, -1.55916806079650777095e-01) (3, -3.19688026726724638937e-01) (4, -4.54551683954740604054e-01) (5, -5.69315400128377224753e-01) (6, 1.50000000000000000000e+03) (7, 2.20352599504448076750e-01) (8, -1.59903866011849138395e+00) (9, -6.05302963488594941710e-02) (10, -1.50000000000000000000e+03) (11, 1.72495876027680772324e+00) (12, 3.08551272819423461069e-01) (13, 1.65347044084998673341e-01) (14, 2.16355417583915299318e-01) (15, -9.25904497363070611016e+00) (16, -7.79012213599504775630e+02) (17, -5.89485520559066666912e-01) (18, 2.19348136418187245056e+00) (19, -5.02704148436188602567e-01) (20, -6.02093455637097818567e-01) (21, -5.29695062792689741471e-01) (22, 3.97220468364731071897e-01) (23, 3.09356107143020642170e-01) (24, 3.32757404851653948441e-01) (25, -1.43151020720004573672e-01) (26, -1.26180148736000958820e+01) (27, -2.90718266785491685766e+00) (28, 4.35105355950569649970e-02) (29, -2.26842623995413245064e-01) (30, -5.89917003455977195792e-01) (31, -1.28617234616247696977e+03) (32, 1.50000000000000000000e+03) (33, -2.81931322268600015324e-01) (34, -2.78375507912304565039e+00) (35, -2.16767572142242237465e-01) (36, -1.50000000000000000000e+03) (37, -1.11713435048758791268e+00) (38, -1.38803057450410799456e-01) (39, 2.06306208585235184572e-01) (40, 2.17177499745818680665e-01) (41, -1.41020564797714450833e+03) (42, 1.16162958067987602817e+01) (43, -7.62142190456074786198e-01) (44, -6.96299276048443216425e-02) (45, -6.18333631704643393867e-01) (46, -5.33955072562292021310e-01) (47, -4.25860703712439281343e-01) (48, 5.97591665623490531090e-01) (49, 4.54636581352630020358e-01) (50, -3.09342638577366713104e-01) (51, -7.01372721483500549677e-02) (52, 2.55964439576408020471e+00) (53, 2.13372884084399666582e-01) (54, -3.06343236318270296936e-02) (55, -4.63178708463497068593e-01) (56, -3.13993014471380782471e-01) (57, 5.99170698544544189090e-01) (58, 1.50000000000000000000e+03) (59, 4.96044207259563496581e-01) (60, -6.15880021766928464899e-01) (61, 6.94041019653437896153e-01) (62, -1.50000000000000000000e+03) (63, 3.87621317159136591357e+00) (64, 3.13895146209945075100e-01) (65, 1.11811396394702500245e-01) (66, 4.27007793531177376467e-02) (67, -1.07692091062952130187e+02) (68, 5.71875121066976133122e-01) (69, 2.06999038934808504697e-01) (70, 6.04449739665711360814e-01) (71, -5.57983367937038510220e-01) (72, -5.37227272289226398527e-01) (73, -3.80717209023567704218e-01) (74, 1.45064255768183070217e+00) (75, 2.52703126477656858651e-01) (76, -4.20113083130235431817e-01) (77, -1.26652375947109430143e-01) (78, -1.70323564546441041934e-01) (0, 1.50000000000000000000e+03) (1, -1.05887766821312396814e+01) (2, 5.00970385719373894062e+01) (3, -1.40937858773370720655e+02) (4, -5.33615166003736929312e-01) (5, 1.84329916151850099482e+01) (6, 1.50000000000000000000e+03) (7, -2.48527251433415474757e-01) (8, -9.66308569444890849809e+02) (9, 1.50000000000000000000e+03) (10, 1.50000000000000000000e+03) (11, 4.28104745458037200478e+02) (12, 1.10718758982903686672e+00) (13, 1.67030636881324356935e-01) (14, 1.12515208040210312745e-01) (15, 9.79547846789945992896e+01) (16, 1.22357398553745383651e+03) (17, -6.49389627208224046173e-02) (18, -1.42355468844995539257e+03) (19, 9.56579057986942232761e-02) (20, -1.28314287845883289590e-02) (21, 1.43224938080394128548e+01) (22, 1.50000000000000000000e+03) (23, -1.61299863902655431502e+02) (24, 2.21773393513625975970e+01) (25, -8.33763607857248678634e-01) (26, 1.50000000000000000000e+03) (27, 1.50000000000000000000e+03) (28, 4.62505264849195796284e-01) (29, 3.34621398470476283382e-01) (30, -8.95730701114807841001e-03) (31, -2.59337347114514670920e+02) (32, 1.50000000000000000000e+03) (33, 1.50000000000000000000e+03) (34, 1.50000000000000000000e+03) (35, 2.51004509099048362941e+01) (36, 1.50000000000000000000e+03) (37, 1.26549713189215395914e+02) (38, 1.45606307659500124885e+01) (39, 1.32381242428752488038e-01) (40, 1.60062540982696122072e-01) (41, 8.46557219620261321325e+02) (42, 2.92500479946718883184e+00) (43, 1.50000000000000000000e+03) (44, 2.91054251221081472067e+02) (45, -5.31510951798668696000e+00) (46, -5.24717049729338480546e+00) (47, 1.12673858507884947500e+01) (48, -1.50000000000000000000e+03) (49, -3.03237066134584565269e-01) (50, 4.45965520844310514548e+00) (51, -1.12760789210005896166e+00) (52, 1.50000000000000000000e+03) (53, -5.46438302098454684597e+01) (54, 1.08018689180290183849e+00) (55, 1.50000000000000000000e+03) (56, 1.99618374333516301888e+00) (57, -1.22917950362788686025e-01) (58, 1.50000000000000000000e+03) (59, -1.33429261655008302156e+00) (60, 1.39079999079704271026e+03) (61, 1.34961315403501953369e+03) (62, 1.50000000000000000000e+03) (63, 1.61119517017558450789e+02) (64, 8.11281675870341167922e+00) (65, 1.30868163619968003175e-01) (66, 1.29922297512027329347e-01) (67, -9.59111986337689245374e+02) (68, 4.68170328703732097075e-01) (69, -1.50406005154285708159e+02) (70, 1.50000000000000000000e+03) (71, -2.43479469045771668156e-01) (72, -1.50781841203346256286e-01) (73, 1.26871427593739678485e+01) (74, -1.50000000000000000000e+03) (75, 3.27850904624919481378e+00) (76, 7.74500765176040051330e+00) (77, -1.33305222310018489651e+00) (78, -5.17165935383180133678e-02) (0, 5.48916388905516750008e-01) (1, -3.02075294045311171232e+00) (2, 9.41055052386364637718e-02) (3, 3.42480900501142271342e-01) (4, 1.26771565481872822145e-01) (5, 1.31988998545918605032e+02) (6, 1.50000000000000000000e+03) (7, -2.48624050307585719999e-01) (8, -4.01052437123605276525e+00) (9, 1.96206110056304217082e+00) (10, 1.39079999079704271026e+03) (11, 1.44406791370580822331e+03) (12, 5.58617981410648445362e-01) (13, 1.66818623159858292482e-01) (14, 1.49260078285667008302e-01) (15, 1.49914525861731408440e+03) (16, 1.72448403904110953988e+01) (17, 1.12973735862470531233e-01) (18, 3.04127073710715478683e+00) (19, 1.20802867455967868904e-01) (20, 1.21877241178044284919e-01) (21, 3.40943095427063913583e-01) (22, -1.34410672443605094806e+00) (23, 2.39910702933893205113e+00) (24, -1.30124643201685730176e+00) (25, -3.85389171733967472733e-01) (26, 5.73178064940260068028e+00) (27, 1.12163384335582727580e+00) (28, 1.63941636725108280670e-01) (29, 2.56149179352812117472e-01) (30, -2.78039940484938741250e-01) (31, 6.89775598903930358574e+02) (32, 1.50000000000000000000e+03) (33, -1.05848415675719440543e+01) (34, 2.64711360364838554915e+00) (35, -3.53061886963908300174e+00) (36, 1.39079999079704271026e+03) (37, -7.75323796814192256477e+00) (38, 1.38668739038167787569e+00) (39, 1.72320072267982071779e-01) (40, 2.12093357656928604982e-01) (41, 5.18098791328687156010e+01) (42, 7.81295861229919097468e+00) (43, 3.58182449581686057627e+00) (44, 5.91929912310452355229e+00) (45, 3.80164973530001046309e-02) (46, 2.83664830121225369775e-02) (47, 1.75792294760667766607e-01) (48, -1.71613832052787962379e-01) (49, -2.46234767729957670923e-01) (50, -6.44447411907011713517e-01) (51, -3.68311052515800096963e-01) (52, 5.98330242030531755937e-01) (53, 2.84509043679580408970e-01) (54, 6.17006328328475253664e-02) (55, 5.21434981330657243426e-01) (56, -3.78579879983234335317e-02) (57, 1.93329335956588778345e+02) (58, 1.50000000000000000000e+03) (59, -2.65894354139962940664e+00) (60, -8.43758996287205742526e-01) (61, -3.92270860322691483635e-01) (62, 1.39079999079704271026e+03) (63, 4.06243036933019254775e+02) (64, 3.17090842929638794256e-01) (65, 1.99950013969871109865e-01) (66, 1.88451756452056473634e-01) (67, 5.39459840650390987093e-01) (68, -6.50492793632280363880e+00) (69, 4.48518261684722030491e-01) (70, 1.35255293621983518904e+01) (71, 5.64319792430965500030e-02) (72, -5.82800355512528706070e-02) (73, 1.19003010079591492465e-01) (74, -8.60392383291631313025e-02) (75, 3.27899270012962040788e-01) (76, -4.86237061209343957024e-01) (77, -6.19952663157425254425e-01) (78, 4.78672968147893507229e-02) (0, -3.96535015630016196564e-01) (1, -3.71798540525810794488e-01) (2, 2.07928980425066939342e-01) (3, -4.12487318808364561429e-02) (4, -7.10791158598061634244e-01) (5, -5.60714299182465936155e+00) (6, 1.50000000000000000000e+03) (7, -6.40223379881815546355e-01) (8, -4.74319931653769000235e+00) (9, -8.28436944196321523037e-01) (10, 1.50000000000000000000e+03) (11, 1.11559557349292208528e+03) (12, -2.57623277981478349119e+00) (13, 1.56811152313682145021e-01) (14, 1.53495554541083878419e-01) (15, 8.72316954931093505365e+02) (16, 1.50000000000000000000e+03) (17, -2.08579525080174466023e-01) (18, -1.29231098681913092463e+01) (19, -1.95067495120374551076e-01) (20, -1.62034139049856057424e-01) (21, -3.79311588347262640397e-01) (22, 3.13336986346326495934e+00) (23, 6.73664909153100732730e-01) (24, -4.28313691681856345550e-01) (25, 1.21975810233817183459e+00) (26, 6.54766883202366329897e+01) (27, 2.55569351119707519615e+01) (28, 4.86563932600341919610e-01) (29, -1.22890228707848103706e-01) (30, -4.16571607304657642867e-01) (31, 3.49745705412885399710e+02) (32, 1.50000000000000000000e+03) (33, 6.71354955494594785037e-01) (34, -9.95052384191405892011e+00) (35, 1.63501424713634158081e+01) (36, 1.50000000000000000000e+03) (37, 1.49702273889026332654e+03) (38, 1.46966769127937380013e+00) (39, 4.99065487727878426272e-02) (40, 2.07915355180236405275e-01) (41, 1.50000000000000000000e+03) (42, 8.60597418150447879270e+01) (43, 3.00324647816772927200e+00) (44, 9.48614281544774051724e+00) (45, -2.79539826026816540239e-01) (46, -1.81129450610539005639e-01) (47, -4.03781202188425614175e-01) (48, -4.41267722535584994148e-01) (49, -4.52713126602491522377e-01) (50, -6.00236389144534321360e+00) (51, 7.89632116004506778850e-01) (52, -2.33440691259150456816e+00) (53, -1.15835207045700006034e+00) (54, -1.48414961305822802606e-02) (55, 4.27084899463449352286e-01) (56, -1.81774133430099293918e-01) (57, 5.93354678669467805463e+00) (58, 1.50000000000000000000e+03) (59, -1.96981284283408775160e+00) (60, -3.11247420757657033974e+00) (61, 1.45420207983796045959e+00) (62, 1.50000000000000000000e+03) (63, 8.53471808469434790823e+02) (64, 1.12222193412171966642e+00) (65, 4.05666722998378609377e-02) (66, 3.26114042744394261319e-02) (67, -2.03799201167118546607e+01) (68, 4.80279161673907584174e+00) (69, -1.74082633941444769876e-01) (70, -3.95590442496552263663e+00) (71, -3.00833679623948802018e-01) (72, -1.85474485047209647348e-01) (73, -2.88103983011083475407e-01) (74, -7.27746637925689721094e-01) (75, 8.76507877982574262754e-02) (76, -4.40034051114227864332e+00) (77, 9.17954587099712560061e-01) (78, 2.58684323171338936831e-01) (0, 3.87788271153380890155e+02) (1, -8.11516738108119739081e+02) (2, -2.96884615941373901649e+01) (3, 7.64638935011852538537e+01) (4, -8.12000814824458672092e+00) (5, -1.18475951318838883708e+03) (6, 1.50000000000000000000e+03) (7, 1.34466255201719309298e+03) (8, -1.44799999964237213135e+03) (9, 1.02468953968993309900e+03) (10, -1.81910231715191798685e+02) (11, -6.76574701412071561890e+01) (12, 1.96252511347493445726e+01) (13, 8.28323817894190128630e-02) (14, 1.92466263388129776857e-01) (15, -9.86820053867427645855e+02) (16, -4.05587700252844967963e+02) (17, 1.03979651620146926194e-01) (18, 8.39855320355075747329e+01) (19, -9.86170800421315663087e-01) (20, -1.12438716182478160022e+00) (21, 1.10436187497853701700e+01) (22, -4.42391437723281171657e+02) (23, -1.17092483898131968090e+03) (24, -2.57953271806894690599e+02) (25, -1.19115458601030582031e+03) (26, 1.68186552959717801059e+02) (27, -4.61230174232854750471e+00) (28, -1.46821718255523956032e+03) (29, -1.50000000000000000000e+03) (30, -1.50000000000000000000e+03) (31, -1.36476100763460453891e+03) (32, 1.50000000000000000000e+03) (33, 1.50000000000000000000e+03) (34, 1.50000000000000000000e+03) (35, 1.10068013089068426780e+03) (36, -5.34056676511509635930e+02) (37, 4.17412432225906854910e+02) (38, -1.71819859449599654511e-01) (39, 1.02867227707835739992e-01) (40, 1.18113939379188126466e-01) (41, -5.60988577979579439159e+00) (42, 6.49275946665533698621e+00) (43, 1.24719877371001871325e+02) (44, 9.34987274806041796182e+02) (45, -9.26609453346808209062e+02) (46, -9.26685266185779823900e+02) (47, 1.61168006489831128647e+02) (48, -3.99823357902191503399e+02) (49, -6.72143600956893010334e+02) (50, 7.56599981594085420511e+02) (51, -1.32581266080476484603e+03) (52, 8.67231560421427957408e+02) (53, -2.10242971583361359933e-01) (54, -1.21039571566967495642e+02) (55, 9.46340958757551788949e+02) (56, -1.46885419611610086577e+03) (57, 3.69220495192927433692e-01) (58, 1.50000000000000000000e+03) (59, -9.62505484683694135128e+02) (60, 1.18175249487242467694e+03) (61, -5.28645470151178528795e+02) (62, -1.94284796962685391009e+02) (63, -2.27672693080545684552e+02) (64, -4.03307539343002261489e+01) (65, 7.49097286805848888713e-02) (66, 3.64072217688319529905e-02) (67, -1.05692623242037719855e+00) (68, -1.02012369246045295768e+02) (69, -5.61334255098648668536e+02) (70, 7.73576903655993646680e+02) (71, -3.93448970982241563732e+00) (72, -4.04208101847576894983e+00) (73, 6.85742181974555791157e+01) (74, -1.05081653498772197963e+03) (75, 1.38949721565061463480e+03) (76, -2.91054528085472554721e+02) (77, -1.32581266080476484603e+03) (78, -3.04898776345196353965e-01) (0, 6.55685626424996614858e-01) (1, 2.50129278910864394359e-01) (2, 2.27040260144322686431e-01) (3, -3.15198557477198715304e-01) (4, 1.67006465943399956021e-03) (5, 3.57321737200464939477e+00) (6, 1.50000000000000000000e+03) (7, -4.76932194396436770489e+00) (8, 1.11583950303077372723e+00) (9, -3.11243359185118890764e+01) (10, 1.50000000000000000000e+03) (11, 2.82835473100070487362e+02) (12, 1.00877106358159251975e+00) (13, 7.15458772227511169417e-02) (14, 1.00165140543910569093e-01) (15, 8.74977071769183112337e+00) (16, 1.45042614391558845455e+03) (17, -5.40891421368499200617e-02) (18, 3.16744952278641078713e-01) (19, -8.11960071284240414435e-01) (20, -9.03629086870616160532e-01) (21, -7.55546963208584415606e-02) (22, -1.49209135110938651003e+00) (23, -3.57269071685637706892e-01) (24, 4.97844256452976086091e-01) (25, 7.87176676229211641500e-02) (26, 1.01786337373279724972e+01) (27, 3.54068104021333773801e+00) (28, 6.48642454316313510354e-01) (29, 4.72859236822444684023e-01) (30, -6.96721925119859308850e-01) (31, 2.09264562697852030126e+00) (32, 1.50000000000000000000e+03) (33, -1.24802449643867940932e-01) (34, 1.61957098529894483185e+00) (35, -6.49265936808458491214e+02) (36, 1.50000000000000000000e+03) (37, 5.56370387395845700240e+00) (38, 3.67400904994624744049e+00) (39, 1.29476052437755173585e-01) (40, 1.32611040686103409669e-01) (41, 1.06155451380493173019e+03) (42, 3.59571242325976783150e+01) (43, 1.26055862210764613174e+00) (44, 2.20620208909114756679e+00) (45, -7.25578135926671752287e-01) (46, -6.70477776904054412199e-01) (47, -4.93631277489221809152e-01) (48, -1.28478060033294383402e+00) (49, -1.15016014278072709054e+00) (50, 8.18635542856812170598e-01) (51, 1.60076976949150712182e-02) (52, 1.22489299372681115230e+00) (53, 1.76116142921086821227e-01) (54, 2.88924902638813485556e-01) (55, -9.69042557809497440147e-01) (56, -5.17640005799086533322e-01) (57, 6.07498626038765920931e-01) (58, 1.50000000000000000000e+03) (59, -1.53982781957339942558e+00) (60, -4.90531573992364744452e-01) (61, -3.06961774395396425064e+01) (62, 1.50000000000000000000e+03) (63, 1.49340127958646871775e+03) (64, -4.39635245521252548961e-01) (65, 1.44584265266391343019e-01) (66, 5.64052133903262947756e-02) (67, -1.71697551173138562852e+00) (68, -2.46677528092597508902e+00) (69, 4.47961318959500115477e-02) (70, -1.09079999079704271026e+03) (71, -8.46239418201811810505e-01) (72, -8.70163351707823773395e-01) (73, -4.41397401619077978108e-01) (74, 2.34145233674136143964e-01) (75, -3.66938801467078468121e-01) (76, -1.07856789878401904126e+00) (77, -8.66704488866858135943e-01) (78, -1.14818570691893176439e-01) (0, 3.44078206467217789788e-02) (1, -1.72284454486378324489e+00) (2, -5.05350028299605025239e+00) (3, -8.55630276233010911291e-01) (4, -4.78540240313186782117e+00) (5, 4.42797670622370809212e+00) (6, 1.50000000000000000000e+03) (7, 1.05964004250718987765e-01) (8, 1.20562266484694328028e+03) (9, 8.72148352812388116817e-01) (10, 3.18784156700260012940e+01) (11, 1.77205711938460055421e+01) (12, -3.49645832061827421811e-01) (13, 1.46999698792430466554e-01) (14, 5.25338917121646736819e-02) (15, 6.11733834347804403819e+01) (16, -3.75831409815709946542e+02) (17, 2.15295391706876136639e-02) (18, 3.61091062191841283280e+00) (19, -1.01340131884331219325e+00) (20, -1.01630325293058865199e+00) (21, -1.62697243989602546854e+00) (22, -1.45619177587811259400e+03) (23, -4.50218102991635449328e-01) (24, -1.13612206178895572273e-01) (25, -1.44901679397506765595e-02) (26, 1.44382549848225627542e+00) (27, 1.79562623599485338133e+00) (28, -1.92968419139065983092e-01) (29, -9.83575553405474978241e-01) (30, -1.87956798650285095142e+00) (31, 7.67771035566941009165e+01) (32, 1.50000000000000000000e+03) (33, 2.12283481091878473146e-01) (34, -1.17473256586383013200e+03) (35, -2.36543721428113018490e+00) (36, 7.54767887837945977481e+02) (37, 2.69702658230615677226e-01) (38, -7.17753055566769049278e-01) (39, 1.03554193590613907716e-01) (40, 6.39886713669057527465e-02) (41, 1.93360520005234775454e+02) (42, 4.45946969265955743822e+01) (43, 1.20291350554016784891e+00) (44, 6.92859377497220130238e+00) (45, -1.02942986418876070154e+00) (46, -9.90546491047471056035e-01) (47, -1.78635849118902734212e+00) (48, -2.34011307792358502766e+00) (49, -3.66660257233971831337e-01) (50, -5.55552873766428256808e-01) (51, -7.38499191102628439742e-03) (52, -1.46117218177666677548e+03) (53, -3.36240780991766408103e-01) (54, -5.96517815731115397249e-01) (55, -6.21931681965231408782e-01) (56, -1.82412322530606907378e+00) (57, 1.24060227115258636665e+00) (58, 1.50000000000000000000e+03) (59, 2.90371253384677174836e-01) (60, -1.71530285263588577749e+00) (61, -5.69372087209606192459e-01) (62, 3.18784156700260012940e+01) (63, -1.71484999781818544307e+02) (64, 9.61899215059165202391e-01) (65, 1.34830062006446427247e-01) (66, 1.17391985569926804445e-01) (67, -1.17960538637876566348e+00) (68, 4.28564517890157414826e+00) (69, -2.38174126449056799970e+00) (70, -9.38886956060689570336e+00) (71, -1.17806181650299346408e+00) (72, -1.26403119753736592479e+00) (73, -1.70962599168114492976e+00) (74, -1.89237032952709038902e+00) (75, -4.59944387173263080637e-01) (76, -2.42109783538005607362e-01) (77, -2.27672530791598437538e-01) (78, -3.03088371269733813929e-01) (0, 1.50000000000000000000e+03) (1, -3.61369211719630300195e+02) (2, -8.81693462313389986207e+00) (3, -2.04639056177407248072e+01) (4, 1.72053019267504991863e-01) (5, -6.78922510942817751811e+01) (6, 1.50000000000000000000e+03) (7, -7.50929027429260198545e+00) (8, -5.01222267319117179341e+02) (9, -2.06231969393195857521e+00) (10, 1.50000000000000000000e+03) (11, 1.47304702039757125931e+03) (12, 4.03737481183241264660e+00) (13, 1.18153896842929428956e-01) (14, 4.10432561383006905276e-02) (15, 5.54266313293014931673e+01) (16, 1.47557956385031502577e+03) (17, -1.77715103997251091528e+01) (18, -1.77743563523486649558e+01) (19, -4.42435143337956249265e-01) (20, -4.07770929680577098875e-01) (21, 1.12418038947141774031e+00) (22, 1.50000000000000000000e+03) (23, -1.60225973761585898103e+01) (24, -1.80837959126787817254e+00) (25, -1.98686826839498231756e-01) (26, 1.50000000000000000000e+03) (27, 1.50000000000000000000e+03) (28, 1.02966723527339338445e-02) (29, -2.65007543168358843388e+01) (30, -1.89675316540039551327e-01) (31, -2.32133952367844642595e+00) (32, 1.50000000000000000000e+03) (33, -3.85293905255527702192e-01) (34, 1.50000000000000000000e+03) (35, 3.30318170034939739832e-01) (36, 1.50000000000000000000e+03) (37, 5.81221482565063052306e+00) (38, 1.25076570754839422328e+00) (39, 1.29307565008136338136e-01) (40, 1.00824025188418930910e-01) (41, 4.66416450812604921339e+01) (42, 3.10885330139323201593e+01) (43, 1.52454670251122301750e+01) (44, -3.55364569720987155677e+00) (45, -3.48348153999333032260e+00) (46, -3.39836943021301873813e+00) (47, 9.05989049865241202752e-01) (48, -1.50000000000000000000e+03) (49, -7.79800704743787420625e+00) (50, -7.29163514548200897281e+00) (51, 1.72483282160379780557e-01) (52, 1.50000000000000000000e+03) (53, -4.26750300925688890175e+01) (54, 3.28093730847689224461e-01) (55, 1.56486310158078953947e+01) (56, 2.30961662161344243316e+01) (57, -7.71292320063797205876e+02) (58, 1.50000000000000000000e+03) (59, -3.74358614878471751553e+00) (60, 1.29079999079704271026e+03) (61, 1.24906984622171791932e-03) (62, 1.50000000000000000000e+03) (63, 1.30806218820480580689e+03) (64, 1.94803017574831009995e+01) (65, 2.01933865164252823732e-01) (66, 1.31056015108558243654e-01) (67, 2.90527701673408511596e+00) (68, 3.95264649310490190359e+00) (69, -1.51159590380421562372e+01) (70, 3.63986381418844484603e-01) (71, -4.28033255673244406037e-01) (72, -3.01037483549907614044e-01) (73, 1.10829866978607816108e+00) (74, -1.50000000000000000000e+03) (75, -4.45119949003234982587e-01) (76, 7.17783481504405851403e-01) (77, -3.83345397109717989093e-01) (78, -1.25878769092002101848e-01) (0, 2.74544697503835533059e-01) (1, -1.57242730571918110094e+00) (2, 1.78334479863654388199e-01) (3, -1.23871916014516769700e+00) (4, -5.28474400224593687803e-01) (5, 1.15757387519866483672e+00) (6, 1.50000000000000000000e+03) (7, -1.02630793896966901468e-01) (8, 7.96660185919833285784e-02) (9, 1.92498701694632412540e+00) (10, -7.49999999999998863132e+01) (11, 9.92948779055506314251e+00) (12, -3.98402205180047172192e-04) (13, 7.96496427700255360538e-02) (14, 1.00171533142062729738e-01) (15, 2.88104727295717566449e+00) (16, -1.46465873341911922978e+00) (17, -1.46634886128212266199e-01) (18, -1.15647924677707614194e+01) (19, -1.24918748739563123529e+00) (20, -1.13042577657304854633e+00) (21, -1.00684509361939800165e+00) (22, 8.96313081292507973785e-01) (23, 1.21917426990676291965e+00) (24, -7.81888035061707342699e-01) (25, -5.63194259082564485652e-01) (26, 3.01702021027177647028e+00) (27, 1.30815765749944312724e+00) (28, -2.22635047669402647008e-01) (29, 4.13974550006297847826e-01) (30, -6.58946041094020884543e-01) (31, 5.45578482774579320846e+00) (32, 1.50000000000000000000e+03) (33, 1.57472517553849744587e+00) (34, 1.49474258230168777217e+00) (35, 3.62151910720534297994e+00) (36, -2.49999999999998863132e+01) (37, 1.03090521500374387998e+00) (38, -3.62724076398757921957e-01) (39, 1.39519062553378647706e-01) (40, 1.25572916780444687745e-01) (41, 6.93664030181218862481e+01) (42, -5.79556422665757722257e+01) (43, 1.40452322883299646206e-01) (44, 7.50689761207139150123e-01) (45, -5.87124894862086521563e-01) (46, -4.42787687783151140408e-01) (47, -4.39705894701126365209e-01) (48, 3.64223322430950924300e+00) (49, -1.57644149777512287969e-01) (50, 5.52258311611332319835e-01) (51, -3.86597216031577373130e-01) (52, 1.22868976249412065194e+00) (53, -1.06359112826447832489e-01) (54, 1.26580199231747991817e+00) (55, -8.21904983602727845504e-02) (56, 1.09778468673263507327e+00) (57, 2.06969223727158002646e+00) (58, 1.50000000000000000000e+03) (59, -2.98443199300842776367e+00) (60, 4.26502378978178953162e+00) (61, 1.89208163312438193415e+00) (62, -7.49999999999998863132e+01) (63, 4.82489285126771783041e+00) (64, -5.22139952146549646272e+00) (65, 1.88914526914092606447e-01) (66, 1.15144376371833390138e-01) (67, 6.12683656081152872019e+00) (68, 1.85357955213147640450e+00) (69, -1.69765485858785702966e+00) (70, -1.02976790395494521846e+00) (71, -3.87283767229434028323e-01) (72, -5.64800778991101148918e-01) (73, -3.81650955886356502145e-01) (74, -3.38434995066611804759e+02) (75, -1.04714952636729016766e-01) (76, 4.86686692882803861870e-01) (77, 8.42441298983587438798e-01) (78, -1.51626478710297746266e-01) (0, 4.11285971396754823637e-01) (1, 4.62978721416047248050e-02) (2, -9.10676787561219384937e-03) (3, -3.59427231854656303867e-01) (4, -4.53659033465111827255e-01) (5, 1.34479888006156170377e+03) (6, 1.50000000000000000000e+03) (7, 7.02898157736604189960e-02) (8, -4.42156132530674828018e+00) (9, 3.77710641875054164984e+00) (10, 1.50000000000000000000e+03) (11, 2.37386405282025151564e+02) (12, 1.38123186118494722940e-01) (13, 7.12214565918193043270e-02) (14, 4.76448058233020638186e-02) (15, 1.48916755029796308918e+03) (16, 1.54710295537774755736e+00) (17, 1.56808052592319069340e+00) (18, -4.72431376089225071868e-02) (19, -5.88182724503018672380e-01) (20, -4.40040483561492168363e-01) (21, -5.78805355038687796565e-01) (22, -1.92056766811213613932e-01) (23, -3.17681169017242615027e+00) (24, 1.48977746529263072039e-01) (25, 3.17564065100372008854e-02) (26, 2.57828511146473644544e+01) (27, 1.32813417860422933181e+00) (28, -1.02597923016458189571e-01) (29, -2.42403051518939247067e-02) (30, -9.93290758096443071601e-01) (31, -1.54066462249723883815e+02) (32, 1.50000000000000000000e+03) (33, -3.87862728518781729736e-01) (34, 1.64706853613996795360e+00) (35, -4.17609881865410415003e+01) (36, 1.50000000000000000000e+03) (37, 1.16151958651798850042e+03) (38, 1.13258553604953160487e+00) (39, 1.32520404373141831300e-01) (40, 9.91216941818919838880e-02) (41, 4.12366300552770539412e+01) (42, -2.24767337827859581267e+00) (43, 2.57787750825611983174e+00) (44, 7.31868168882633396422e-01) (45, -4.91491871599465224296e-01) (46, -5.59208134834083048226e-01) (47, -7.94448377833646302015e-01) (48, -5.72971490137082017924e+00) (49, 4.28437392996535437728e-01) (50, 2.68708833520110323967e-01) (51, -5.83863900826973244995e-02) (52, 3.17576463535809816463e+00) (53, 3.07806754651831937508e+00) (54, 1.60085846230194839279e-01) (55, -3.88719675289445121269e-01) (56, -4.25361504763547837449e-01) (57, 4.54714934996293396186e-01) (58, 1.50000000000000000000e+03) (59, -2.58020860781869698641e-01) (60, 3.57339565277274129329e+00) (61, 2.80050918782550972708e+00) (62, 1.50000000000000000000e+03) (63, 3.13136033349912423773e+00) (64, 2.46618488476182262659e+00) (65, 2.07696576331588333986e-01) (66, 1.84858132813903397462e-01) (67, -9.17916231797104131829e-01) (68, 1.75428804647365033098e+00) (69, -1.82768637200070527271e+00) (70, 1.56114367221116978612e+00) (71, -5.63173813094282049718e-01) (72, -5.72635528911733415747e-01) (73, -8.36376184790515453393e-01) (74, -1.47362706203707398345e+03) (75, -3.05891754471055932196e-01) (76, -9.56199973219247878475e-01) (77, -9.23966173879051944073e-02) (78, -8.39993181926056986519e-02) (0, -4.18455989770143976791e-01) (1, -1.10889619686565810142e+00) (2, 6.57253684851730607397e-02) (3, -9.46775091052553752213e-01) (4, -1.13983242951654073494e+00) (5, -3.01912213752498714836e-01) (6, 1.50000000000000000000e+03) (7, 2.33255043737879835808e-01) (8, -1.09395415419574049132e+00) (9, -9.41340377152826413010e+00) (10, 1.50000000000000000000e+03) (11, 3.43175191057301390174e+02) (12, -1.65166979523933360463e-01) (13, 1.74037788723441666505e-01) (14, 8.17147052929134282140e-02) (15, 1.47382945845597487278e+03) (16, 1.79840534889181867584e+02) (17, 1.96114539109842334064e+00) (18, -5.39378583507449516077e+00) (19, -5.43966097601752185398e-01) (20, -4.59012081691123452476e-01) (21, -2.51275748080119321060e-01) (22, 2.27990696170337647786e+00) (23, 4.72946590228523644495e-01) (24, 2.50500943401115838682e-01) (25, 2.10701670878287970756e-02) (26, 3.70586501707018722840e+00) (27, 3.71275890439626143902e+00) (28, -1.90209937392232519837e-01) (29, -9.01059424432087419099e-01) (30, -4.65392259826254706123e-01) (31, 9.84138755408142742453e+01) (32, 1.50000000000000000000e+03) (33, 2.19623909949626938687e-01) (34, -1.20415211735841257146e-01) (35, 2.80808866312218308181e+00) (36, 1.50000000000000000000e+03) (37, 1.42579717902868947021e+03) (38, 1.07434709999702213135e-01) (39, 1.78345103476974076173e-01) (40, 7.47772797093133878565e-02) (41, 9.31056331089323130357e+00) (42, -9.97271995345636810271e+01) (43, 1.52957866391313968002e+00) (44, -1.12465769825615886646e+01) (45, -5.55406081336522694514e-01) (46, -5.05314758825085807992e-01) (47, -3.31366547633760333280e-01) (48, -2.99859459214655676984e-01) (49, 6.45995188586528601427e-01) (50, -4.10384383519459161604e-01) (51, 3.78169591882301509012e-02) (52, 1.16970623106560456250e+00) (53, 5.58769709752399368341e-01) (54, 4.80442255362605111224e-02) (55, -1.27240888335712454271e-01) (56, -1.49082459428960723002e+00) (57, 1.86365749585163809066e+00) (58, 1.50000000000000000000e+03) (59, 4.36785276352066209604e-01) (60, 9.67789908909023166572e-01) (61, 4.69260551229938815965e-01) (62, 1.50000000000000000000e+03) (63, 1.38995895094763177724e+01) (64, -7.43740680687013089312e+00) (65, 1.35780420814487046144e-01) (66, 9.01116102084842385267e-02) (67, 6.71686104067294897924e-01) (68, 1.58339659304034219289e+00) (69, 1.21053351085844518309e+00) (70, -9.57230088854079341765e-01) (71, -5.98086931037526192689e-01) (72, -5.51482599454741095890e-01) (73, -3.51730751031353927605e-01) (74, -7.65822746833498779750e+00) (75, -3.19850098697991802599e-01) (76, -1.88811084453434502306e-01) (77, 1.49708453358053578119e-01) (78, -8.95767079151881667753e-02) (0, 7.42449836938744510917e+02) (1, -1.28538390408194462822e+01) (2, 3.02826476646670450510e-01) (3, 1.34250558131501529502e+00) (4, -3.08972488066318551336e-01) (5, -1.05076333437857874742e+03) (6, 1.50000000000000000000e+03) (7, -1.05181523323726633379e+00) (8, -1.40976229544721809361e+03) (9, -2.81983752088941752589e+00) (10, 1.50000000000000000000e+03) (11, 8.70579361777905432973e+02) (12, 2.13738490341275078066e+00) (13, 8.42276333913532515574e-02) (14, 4.24145503983257149416e-02) (15, 1.92616617420005070471e+02) (16, 1.22842534472928264222e+03) (17, -4.26098926619151097128e+00) (18, -2.41326187434705824453e-01) (19, 2.42186512518716035025e-01) (20, 1.12934659887146363055e-01) (21, 5.08127853331614587340e-01) (22, 1.50000000000000000000e+03) (23, -3.86418138976414553554e+01) (24, 7.80548574145969542570e+00) (25, 3.33466634545933060529e-01) (26, 1.50000000000000000000e+03) (27, 1.50000000000000000000e+03) (28, 1.96317919081349301358e+00) (29, -5.68928528008273914907e+00) (30, -2.89565755311218919754e-01) (31, -2.23324447877268328355e+00) (32, 1.50000000000000000000e+03) (33, 4.83494066792080179340e+00) (34, 1.50000000000000000000e+03) (35, -1.10555483266087684058e+01) (36, 1.50000000000000000000e+03) (37, 1.40321344834951696612e+03) (38, 4.67389727154660533870e+02) (39, 2.04386208866569107911e-01) (40, 1.47596646760436600587e-01) (41, 4.40844512539445290145e+01) (42, 3.07239917209482769067e+01) (43, -1.21735124456158660955e+00) (44, -4.39217707232015754926e+02) (45, -4.03795595440343291216e+00) (46, -3.90174021917656066449e+00) (47, 2.01181902605133161588e-01) (48, -1.36026161939876124052e+03) (49, -2.28878843163293410612e+00) (50, 1.98094269910739995133e+00) (51, 3.31998389000799642989e-01) (52, 3.12057832697398168875e+02) (53, 5.38149173193864585607e-02) (54, -6.52730145392379279556e-01) (55, 1.21191920504420043159e+01) (56, 4.81463730065321282581e+00) (57, -2.39720207901767224712e+02) (58, 1.50000000000000000000e+03) (59, -7.00159138302621730787e+00) (60, 2.58176618892394493798e+00) (61, -2.42907532608777501082e+01) (62, 1.50000000000000000000e+03) (63, 1.95814598517218172447e+02) (64, 6.18360711734551227181e+00) (65, 3.69137196883914525669e-02) (66, 3.74587520107982352435e-02) (67, -1.19188096096134313484e+03) (68, 1.42852016406862247777e+01) (69, -6.39528805124799220039e+01) (70, -1.89534684376051199006e-01) (71, 3.32036262412451765869e-01) (72, 2.29963766445301337482e-01) (73, 1.55759484382316154560e-01) (74, -1.47362706203707398345e+03) (75, 1.04604361565718972926e+00) (76, 2.68597302359805709671e+01) (77, 1.31751325133403901502e-01) (78, 2.93350518771996526812e-01) (0, 1.47119999728202810729e+03) (1, 1.05412210264629173651e+01) (2, 2.65951458543300844894e+01) (3, -1.50000000000000000000e+03) (4, 4.62529780439334348152e-01) (5, -4.24963806552534073546e+00) (6, 1.50000000000000000000e+03) (7, 1.03027544425404266049e-01) (8, -5.27307021027258429058e+02) (9, 5.23175535987299099361e+02) (10, 1.50000000000000000000e+03) (11, 1.25487161430384006167e+02) (12, 4.51569640925571036405e+00) (13, 2.08263446305724686525e-01) (14, 1.12327870641681260011e-01) (15, 1.52921688955175653746e+02) (16, 1.47373453591563884402e+03) (17, 2.64259627574977840059e-01) (18, -7.48529084519347748028e+02) (19, 2.95775374765401222188e-01) (20, 4.24813019479519105026e-01) (21, 9.70410390878334396803e+02) (22, 1.50000000000000000000e+03) (23, -1.25057658402081710847e+03) (24, -2.59731126506512222107e+00) (25, 2.41814911128136023066e-01) (26, 1.50000000000000000000e+03) (27, 1.46699999797344207764e+03) (28, 6.71080276094867422820e-01) (29, 1.31872598867561166003e+01) (30, 8.95384615145939921632e-01) (31, -4.25895298918283486955e+01) (32, 1.50000000000000000000e+03) (33, 1.46942400367164691488e+03) (34, 1.50000000000000000000e+03) (35, 1.00397688363159591063e+03) (36, 1.50000000000000000000e+03) (37, 2.44740752818606424057e+01) (38, 5.79988503294004829058e+01) (39, 1.30830307219955033204e-01) (40, 9.36259596690860451673e-02) (41, 4.67252049507348559132e+01) (42, 1.29993024750985064486e+01) (43, 1.42231808997900566283e+03) (44, 9.52078974343230925115e+02) (45, 1.76393785474376785238e-01) (46, 1.98704958853798074880e-01) (47, 9.66440605089267705807e+02) (48, -1.50000000000000000000e+03) (49, 1.36179523865186268949e+02) (50, -2.67134818134464886441e+01) (51, 1.76247467571732652214e-01) (52, 1.50000000000000000000e+03) (53, 5.69667698182990012157e-01) (54, 1.21995077854837887799e+01) (55, 1.39579999198913560576e+03) (56, 9.88481365745706284542e+02) (57, 1.07133659499447109198e+00) (58, 1.50000000000000000000e+03) (59, -5.84851876773559764544e-01) (60, 1.42137598712539579537e+03) (61, 3.58341841984899588169e+02) (62, 1.50000000000000000000e+03) (63, 1.03067172514445082321e+00) (64, 2.81754933094846649055e+00) (65, 1.81212921355697220704e-01) (66, 7.40562125191431969151e-02) (67, -8.15624282903094979247e+01) (68, 5.02129320809086010513e-01) (69, 4.94154986394388928694e-01) (70, 1.25907579892113540154e+03) (71, 3.39374484422048872112e-01) (72, 2.84594247045357906511e-01) (73, 1.05149776408771208480e+03) (74, -1.26579999079704271026e+03) (75, 1.86424705278438662681e+00) (76, 1.22037067573511159857e+00) (77, -3.54985195264246988778e-01) (78, 4.65912686221017058319e-01) (0, -1.23022536142435251350e+03) (1, 1.44450876816057507313e+03) (2, -1.38204635759794018668e+03) (3, 5.15542009253687865566e+02) (4, -8.77299769159849085476e-01) (5, -7.14978188359328754586e+01) (6, 1.50000000000000000000e+03) (7, 4.35978130419831757081e+02) (8, -1.50000000000000000000e+03) (9, -5.94982014329375363815e-01) (10, -6.97434727126798975405e+02) (11, 1.50000000000000000000e+03) (12, -5.69487508203477688085e+00) (13, 1.30422894571754044435e-01) (14, 4.61257441982982491213e-02) (15, 1.15543341014885663753e+03) (16, 4.91132512107830194736e+01) (17, -1.63737754656910705631e-01) (18, 2.11923973082305527882e+00) (19, -1.15014197682652463683e+00) (20, -1.06312792008433332214e+00) (21, -6.26270499474641528792e-01) (22, -1.50000000000000000000e+03) (23, -7.37007939795560787388e+02) (24, 1.13533608396652439865e+02) (25, 5.01608201133290698692e+00) (26, -1.39719463539997218504e+03) (27, -8.80677336430082277730e+02) (28, 1.07198296717035690406e+00) (29, -5.23770564813513260560e+02) (30, -1.28216041420731183820e+01) (31, 4.20124376651687896356e+01) (32, 1.50000000000000000000e+03) (33, 1.28132207517066672153e+03) (34, -1.40624596545494523525e+03) (35, -8.71314588357277898467e+02) (36, -6.65891804952146344476e+02) (37, 1.50000000000000000000e+03) (38, -1.10207898948871041434e+00) (39, 7.20115347847684883487e-02) (40, 1.26473349247905320070e-01) (41, -8.07927634165241443043e+02) (42, -4.70508430017538559209e-01) (43, -4.71620678059890224176e+02) (44, 3.75371788124562272060e+02) (45, -9.10213256139960869007e+00) (46, -9.02298153449502571277e+00) (47, -8.44673022301717701943e-01) (48, 1.50000000000000000000e+03) (49, -4.20888199766201598351e+00) (50, 1.38526722590650956590e+03) (51, 2.35671634142804258261e+01) (52, -1.43363586917948327937e+03) (53, -8.68003936081698512783e-02) (54, -8.71298766883752023205e+02) (55, -2.88094308846725821738e+00) (56, -5.63259023981493744948e-01) (57, 2.01831837597968871023e+02) (58, 1.50000000000000000000e+03) (59, -1.93375401641511190931e+00) (60, -3.00179219721894014583e+02) (61, -9.57964667008141645965e+02) (62, -6.97434727126798975405e+02) (63, -1.17151508097692681076e+03) (64, 6.02070755694069958963e+00) (65, 1.97017763470145768068e-01) (66, 1.06042449091407364747e-01) (67, -6.40701490558456043800e+00) (68, 1.29823089056798952612e+01) (69, -5.50911269920470729744e+01) (70, -6.27885496398087639136e+02) (71, -1.02944300220206064189e+00) (72, -1.12235259161188727361e+00) (73, -9.53170186983942513415e-01) (74, 1.24040059739286698459e+03) (75, -8.78297411021470075809e+00) (76, -3.32173961433279458788e+01) (77, 2.80849119416169855867e+02) (78, -2.33282511619779392431e-01) (0, 4.21604275813104401038e+00) (1, -1.16786790875195194417e+01) (2, -2.09665657121520243589e-01) (3, 2.17176818537322041669e-01) (4, -2.59557972743144127481e-01) (5, 9.94131059674365324952e+00) (6, 1.50000000000000000000e+03) (7, -2.69423845675809792155e+00) (8, -7.29772278552063013990e+00) (9, -2.55874840984987717007e+00) (10, 1.50000000000000000000e+03) (11, 1.35113138579762630798e+03) (12, 7.86158839668627251740e+00) (13, 3.54434742674586272804e-02) (14, 1.27036121402713364503e-01) (15, 1.47255420572972934679e+03) (16, 3.41041326328757804731e+02) (17, -1.24902403153604542041e+01) (18, -6.33912291301911512420e+00) (19, -2.21806181502903682068e-01) (20, -2.66136472952927416458e-01) (21, 1.64552837547627034409e-01) (22, 1.58778516917156053978e+02) (23, -6.96848922201846043833e+00) (24, 2.74713994270985963908e+01) (25, -3.96078546555457100542e-01) (26, 1.50000000000000000000e+03) (27, 1.50000000000000000000e+03) (28, -2.42886874462573754130e+00) (29, -9.57218807357457679430e-01) (30, -3.03710497997251778202e+01) (31, -1.81971442845037984171e+02) (32, 1.50000000000000000000e+03) (33, -4.17473643726641641116e-01) (34, 1.40916989625673458875e+01) (35, -6.90039152315912174274e-01) (36, 1.50000000000000000000e+03) (37, 1.07850863419534834975e+03) (38, 1.63786573442462124461e+00) (39, 6.93736604497182662854e-02) (40, 1.91692773912879532716e-01) (41, 1.16834993855799098128e+03) (42, 3.87977723674492551709e+01) (43, 6.22548246864919718746e-01) (44, -2.78815890148806140303e+01) (45, -3.45607947200235687824e-01) (46, -4.00484397649464085589e-01) (47, 1.53582402882965290969e-01) (48, -2.29072061460049212656e+02) (49, -4.26258137973362372097e-01) (50, 2.44280358071846670498e+00) (51, -4.43836822190990132331e-01) (52, 8.72001921783666844590e+00) (53, -3.67944167622817053243e+00) (54, -8.44540195051046271857e-01) (55, 5.46648027398036973068e-01) (56, 2.54189951015988069294e-01) (57, 2.88332511599638010580e+01) (58, 1.50000000000000000000e+03) (59, 6.28523244606857933725e-01) (60, 1.38644155002333803850e+02) (61, 8.63920636867220004262e+00) (62, 1.50000000000000000000e+03) (63, 2.09132444085891989971e+02) (64, 1.15974120928465005420e+01) (65, 8.16200009629459433125e-02) (66, 2.15917517159911698243e-01) (67, -1.91557113485796932650e+01) (68, 2.33536357237868266168e+01) (69, -1.41714318604585240990e+01) (70, -2.86898583552310260103e+00) (71, -2.63762094765748689174e-01) (72, -1.18797440767135359385e-01) (73, 7.38158108249540312329e-02) (74, -4.04522673911827581605e+01) (75, -1.18879486673905507277e-01) (76, 1.94304816910692706999e-01) (77, -1.41020008036304456134e+00) (78, -7.42505117972996984271e-03) (0, 1.68330871560895634076e+00) (1, 2.31547767214934474556e-01) (2, 1.20850658024756779652e-01) (3, -1.69601742279552325510e-01) (4, -3.85637740236606796351e-01) (5, -3.51943861978858585360e+00) (6, 1.50000000000000000000e+03) (7, -1.68743182860595919426e-01) (8, -7.76473382002687673165e-01) (9, 2.37997097179411754020e-01) (10, 1.50000000000000000000e+03) (11, -1.03626537604658324199e+03) (12, 1.25306672396890389498e-01) (13, 1.17301960204574173829e-01) (14, 1.22656863842937058351e-01) (15, 1.98458632428933071878e+02) (16, -1.16406951728413991987e+03) (17, -6.46088769580766331124e-01) (18, 1.53242336215371754982e+00) (19, -3.07021682270095450096e-02) (20, 7.27064589850378723002e-02) (21, 1.16777591158257559867e-01) (22, -3.52844594057889038297e-01) (23, 4.22833465710036271457e-01) (24, -2.45483554506463683142e-02) (25, 3.56805674681353435229e-01) (26, 3.80209916431240158019e+00) (27, 1.54696570815839518076e+00) (28, -3.58808881240439995694e-03) (29, -1.32318522583596415165e-01) (30, -1.11382540620999503922e-01) (31, 1.36884772232262236002e+02) (32, 1.50000000000000000000e+03) (33, 7.30747137936578299022e-04) (34, 2.04794103021412737808e-01) (35, -1.76935299213340879732e+00) (36, 1.50000000000000000000e+03) (37, 8.80598548939390823875e+00) (38, 4.31226085375418310974e+00) (39, 1.79912511919471329591e-01) (40, 2.18179692243072098634e-01) (41, 1.39528823974801321128e+03) (42, -1.53962153825234594251e+02) (43, 5.10266539264607077442e-01) (44, 3.29415303575674434100e+00) (45, -3.90052629421834204382e-02) (46, 6.37506118310642022617e-03) (47, -2.02837084199229772397e-01) (48, 1.64564966448657923337e+00) (49, -2.70534422453811013165e-02) (50, 8.83604313514669940932e-03) (51, 2.53739779439932644500e-01) (52, -2.21465278703804813176e+01) (53, -6.98352597903966060278e-02) (54, -2.48836215944990765681e-02) (55, -3.86199665021089044714e-01) (56, -1.85961968284177214805e-01) (57, 6.55307209474216012524e+00) (58, 1.50000000000000000000e+03) (59, -1.45049609118545669295e-01) (60, -9.60125424775830765833e-02) (61, -4.93724015233995561225e-01) (62, 1.50000000000000000000e+03) (63, -6.87603321200129130375e+02) (64, 6.17838521301076304404e-01) (65, 6.25599182293174460590e-02) (66, 7.31037414715034888912e-02) (67, -1.29450420971412683002e+00) (68, 6.36580164365638023760e-01) (69, 1.43548270203598643535e-01) (70, -2.31167775074938242064e-01) (71, -1.43315954283094515453e-01) (72, -1.26718392744875091305e-01) (73, -7.35447295862258487720e-02) (74, 2.17431294109308392848e-01) (75, 8.38264398140505656576e-03) (76, 1.08882257029686402294e-01) (77, -2.43719715797949543212e-01) (78, 6.89843670759027055572e-02) (0, 2.78127043870513679380e-01) (1, 2.79467672146681833656e-01) (2, -1.32931746548828472188e-01) (3, -3.64838240081705678097e-01) (4, -6.74303340691286057229e-01) (5, -1.45874178806217846827e+00) (6, 1.50000000000000000000e+03) (7, -1.04674043141360439968e+00) (8, 2.07217149484645357660e+00) (9, -5.75186738948927467341e-01) (10, 1.50000000000000000000e+03) (11, 5.59174163679013602746e+00) (12, -5.06773057880324340196e-01) (13, 7.25019431755288407127e-02) (14, 1.68739010308715409181e-01) (15, 1.31776875815643904843e+02) (16, 8.00427334016266089911e-01) (17, -3.97702833540925573819e-02) (18, 1.35232606342467032157e+00) (19, -1.09941294245505871707e+00) (20, -9.99397182986981325037e-01) (21, -4.87957844625465708699e-01) (22, 3.99932593744322828488e-01) (23, -2.43117294942277434311e-01) (24, -1.51633783760877971503e+00) (25, -7.43403364668595439957e-02) (26, 1.43825485424132928358e+01) (27, 6.79735234914916031101e+00) (28, -7.57255718388589876833e-02) (29, -6.70727359829937586078e-01) (30, -7.69308144516349878828e-01) (31, 5.33335993975638515963e+01) (32, 1.50000000000000000000e+03) (33, -1.20146849307410773927e-02) (34, -1.77230733349311664337e-01) (35, 4.01151476952902186213e+00) (36, 1.50000000000000000000e+03) (37, 2.92630187036845201831e+00) (38, -5.35298539086257685327e-01) (39, 1.80616368268462723634e-01) (40, 4.78808253154514168459e-02) (41, 1.31558955243796572177e+03) (42, -5.56719382575769139443e-01) (43, 1.27220299682403648056e+00) (44, 7.75327171165877016001e-01) (45, -9.96375696083462769614e-01) (46, -9.86950175186551259543e-01) (47, -3.36313184354375016571e-01) (48, -1.51550393462147248158e+00) (49, -4.65314685983114650902e-01) (50, -4.39640046325639521907e-01) (51, 8.15566345875504312979e-03) (52, 2.71877264626285475302e-01) (53, 1.93972556081904168312e-01) (54, -9.27331152900072314127e-02) (55, -5.23895083293410501746e-01) (56, -7.47008559822144979634e-01) (57, 1.86539908455429392919e-01) (58, 1.50000000000000000000e+03) (59, -1.59419231568160468804e+00) (60, 1.52596900275412572512e+00) (61, -1.13802201065457087026e+00) (62, 1.50000000000000000000e+03) (63, 1.50081578768624535059e+01) (64, 5.39142364060152923244e-01) (65, 2.05370922301742142579e-01) (66, 9.76377843961444558119e-02) (67, 3.05092824312523980268e+00) (68, 3.26596178694168459700e+00) (69, -6.22028433156107188329e-02) (70, 8.92250025946516145403e-01) (71, -9.67648362566070785462e-01) (72, -9.83420824457245101868e-01) (73, -4.36218264485215667658e-01) (74, -1.42741213627683749543e+00) (75, -3.04687391856383160693e-01) (76, -1.37872489563663780388e+00) (77, -4.87708575455743573168e-02) (78, -1.55564526338811404127e-01) (0, -1.50377403786159313803e+00) (1, 1.75965999681491264139e-01) (2, 3.19795240778369294077e-01) (3, -1.48708819490040800027e+00) (4, -5.70949505262053569332e-01) (5, 1.50000000000000000000e+03) (6, 1.50000000000000000000e+03) (7, 4.97798495748149605333e-01) (8, -5.10578893641719666618e+00) (9, 2.24121572670578292352e-02) (10, 1.34079999079704271026e+03) (11, 3.45992553622972081939e+02) (12, 2.46537359103371933600e+00) (13, 1.04057092879745072267e-01) (14, 1.16143461976977890870e-01) (15, 1.80807606873793616842e+02) (16, 1.21836039249139071217e+03) (17, 1.71601917651435753598e+00) (18, 5.13828099972144403118e-01) (19, -5.48203662670092350950e-01) (20, -7.27779791391329533568e-01) (21, -2.39629789364878803548e-01) (22, 8.24146368938444728869e-01) (23, -1.84741387239641563500e-01) (24, -3.68257881766934902501e+00) (25, 1.02338082467658253449e+00) (26, 1.04016912350291050871e+01) (27, 4.48116305796550307150e+00) (28, 5.29409036579970404546e-01) (29, 3.03285857597901742366e+00) (30, -9.40017523169452640097e-01) (31, 4.73776241439939305167e+00) (32, 1.50000000000000000000e+03) (33, 8.58972423410663377119e-01) (34, 2.81795756535243024921e-01) (35, -4.96927114387114077232e+00) (36, 1.34079999079704271026e+03) (37, -8.26338668856311926447e+01) (38, 5.92279521993945134994e+00) (39, 1.99771736477347916505e-01) (40, 