FANN_FLO_2.1
num_layers=5
learning_rate=0.700000
connection_rate=1.000000
network_type=0
learning_momentum=0.000000
training_algorithm=2
train_error_function=1
train_stop_function=0
cascade_output_change_fraction=0.010000
quickprop_decay=-0.000100
quickprop_mu=1.750000
rprop_increase_factor=1.200000
rprop_decrease_factor=0.500000
rprop_delta_min=0.000000
rprop_delta_max=50.000000
rprop_delta_zero=0.100000
cascade_output_stagnation_epochs=12
cascade_candidate_change_fraction=0.010000
cascade_candidate_stagnation_epochs=12
cascade_max_out_epochs=150
cascade_min_out_epochs=50
cascade_max_cand_epochs=150
cascade_min_cand_epochs=50
cascade_num_candidate_groups=2
bit_fail_limit=3.49999999999999977796e-01
cascade_candidate_limit=1.00000000000000000000e+03
cascade_weight_multiplier=4.00000000000000022204e-01
cascade_activation_functions_count=10
cascade_activation_functions=3 5 7 8 10 11 14 15 16 17 
cascade_activation_steepnesses_count=4
cascade_activation_steepnesses=2.50000000000000000000e-01 5.00000000000000000000e-01 7.50000000000000000000e-01 1.00000000000000000000e+00 
layer_sizes=79 40 15 8 2 
scale_included=0
neurons (num_inputs, activation_function, activation_steepness)=(0, 0, 0.00000000000000000000e+00) (0, 0, 0.00000000000000000000e+00) (0, 0, 0.00000000000000000000e+00) (0, 0, 0.00000000000000000000e+00) (0, 0, 0.00000000000000000000e+00) (0, 0, 0.00000000000000000000e+00) (0, 0, 0.00000000000000000000e+00) (0, 0, 0.00000000000000000000e+00) (0, 0, 0.00000000000000000000e+00) (0, 0, 0.00000000000000000000e+00) (0, 0, 0.00000000000000000000e+00) (0, 0, 0.00000000000000000000e+00) (0, 0, 0.00000000000000000000e+00) (0, 0, 0.00000000000000000000e+00) (0, 0, 0.00000000000000000000e+00) (0, 0, 0.00000000000000000000e+00) (0, 0, 0.00000000000000000000e+00) (0, 0, 0.00000000000000000000e+00) (0, 0, 0.00000000000000000000e+00) (0, 0, 0.00000000000000000000e+00) (0, 0, 0.00000000000000000000e+00) (0, 0, 0.00000000000000000000e+00) (0, 0, 0.00000000000000000000e+00) (0, 0, 0.00000000000000000000e+00) (0, 0, 0.00000000000000000000e+00) (0, 0, 0.00000000000000000000e+00) (0, 0, 0.00000000000000000000e+00) (0, 0, 0.00000000000000000000e+00) (0, 0, 0.00000000000000000000e+00) (0, 0, 0.00000000000000000000e+00) (0, 0, 0.00000000000000000000e+00) (0, 0, 0.00000000000000000000e+00) (0, 0, 0.00000000000000000000e+00) (0, 0, 0.00000000000000000000e+00) (0, 0, 0.00000000000000000000e+00) (0, 0, 0.00000000000000000000e+00) (0, 0, 0.00000000000000000000e+00) (0, 0, 0.00000000000000000000e+00) (0, 0, 0.00000000000000000000e+00) (0, 0, 0.00000000000000000000e+00) (0, 0, 0.00000000000000000000e+00) (0, 0, 0.00000000000000000000e+00) (0, 0, 0.00000000000000000000e+00) (0, 0, 0.00000000000000000000e+00) (0, 0, 0.00000000000000000000e+00) (0, 0, 0.00000000000000000000e+00) (0, 0, 0.00000000000000000000e+00) (0, 0, 0.00000000000000000000e+00) (0, 0, 0.00000000000000000000e+00) (0, 0, 0.00000000000000000000e+00) (0, 0, 0.00000000000000000000e+00) (0, 0, 0.00000000000000000000e+00) (0, 0, 0.00000000000000000000e+00) (0, 0, 0.00000000000000000000e+00) (0, 0, 0.00000000000000000000e+00) (0, 0, 0.00000000000000000000e+00) (0, 0, 0.00000000000000000000e+00) (0, 0, 0.00000000000000000000e+00) (0, 0, 0.00000000000000000000e+00) (0, 0, 0.00000000000000000000e+00) (0, 0, 0.00000000000000000000e+00) (0, 0, 0.00000000000000000000e+00) (0, 0, 0.00000000000000000000e+00) (0, 0, 0.00000000000000000000e+00) (0, 0, 0.00000000000000000000e+00) (0, 0, 0.00000000000000000000e+00) (0, 0, 0.00000000000000000000e+00) (0, 0, 0.00000000000000000000e+00) (0, 0, 0.00000000000000000000e+00) (0, 0, 0.00000000000000000000e+00) (0, 0, 0.00000000000000000000e+00) (0, 0, 0.00000000000000000000e+00) (0, 0, 0.00000000000000000000e+00) (0, 0, 0.00000000000000000000e+00) (0, 0, 0.00000000000000000000e+00) (0, 0, 0.00000000000000000000e+00) (0, 0, 0.00000000000000000000e+00) (0, 0, 0.00000000000000000000e+00) (0, 0, 0.00000000000000000000e+00) (79, 4, 6.50000000000000022204e-01) (79, 4, 6.50000000000000022204e-01) (79, 4, 6.50000000000000022204e-01) (79, 4, 6.50000000000000022204e-01) (79, 4, 6.50000000000000022204e-01) (79, 4, 6.50000000000000022204e-01) (79, 4, 6.50000000000000022204e-01) (79, 4, 6.50000000000000022204e-01) (79, 4, 6.50000000000000022204e-01) (79, 4, 6.50000000000000022204e-01) (79, 4, 6.50000000000000022204e-01) (79, 4, 6.50000000000000022204e-01) (79, 4, 6.50000000000000022204e-01) (79, 4, 6.50000000000000022204e-01) (79, 4, 6.50000000000000022204e-01) (79, 4, 6.50000000000000022204e-01) (79, 4, 6.50000000000000022204e-01) (79, 4, 6.50000000000000022204e-01) (79, 4, 6.50000000000000022204e-01) (79, 4, 6.50000000000000022204e-01) (79, 4, 6.50000000000000022204e-01) (79, 4, 6.50000000000000022204e-01) (79, 4, 6.50000000000000022204e-01) (79, 4, 6.50000000000000022204e-01) (79, 4, 6.50000000000000022204e-01) (79, 4, 6.50000000000000022204e-01) (79, 4, 6.50000000000000022204e-01) (79, 4, 6.50000000000000022204e-01) (79, 4, 6.50000000000000022204e-01) (79, 4, 6.50000000000000022204e-01) (79, 4, 6.50000000000000022204e-01) (79, 4, 6.50000000000000022204e-01) (79, 4, 6.50000000000000022204e-01) (79, 4, 6.50000000000000022204e-01) (79, 4, 6.50000000000000022204e-01) (79, 4, 6.50000000000000022204e-01) (79, 4, 6.50000000000000022204e-01) (79, 4, 6.50000000000000022204e-01) (79, 4, 6.50000000000000022204e-01) (0, 0, 6.50000000000000022204e-01) (40, 8, 7.50000000000000000000e-01) (40, 8, 7.50000000000000000000e-01) (40, 8, 7.50000000000000000000e-01) (40, 8, 7.50000000000000000000e-01) (40, 8, 7.50000000000000000000e-01) (40, 8, 7.50000000000000000000e-01) (40, 8, 7.50000000000000000000e-01) (40, 8, 7.50000000000000000000e-01) (40, 8, 7.50000000000000000000e-01) (40, 8, 7.50000000000000000000e-01) (40, 8, 7.50000000000000000000e-01) (40, 8, 7.50000000000000000000e-01) (40, 8, 7.50000000000000000000e-01) (40, 8, 7.50000000000000000000e-01) (0, 8, 7.50000000000000000000e-01) (15, 8, 7.50000000000000000000e-01) (15, 8, 7.50000000000000000000e-01) (15, 8, 7.50000000000000000000e-01) (15, 8, 7.50000000000000000000e-01) (15, 8, 7.50000000000000000000e-01) (15, 8, 7.50000000000000000000e-01) (15, 8, 7.50000000000000000000e-01) (0, 8, 7.50000000000000000000e-01) (8, 13, 8.00000000000000044409e-01) (0, 13, 8.00000000000000044409e-01) 
connections (connected_to_neuron, weight)=(0, 2.91269140904539591830e-01) (1, -5.08895001427799642535e-01) (2, -5.79323106888208899656e-02) (3, -2.85316793928549750081e-01) (4, -6.77957493737992022975e-02) (5, -1.29311869143089001877e-02) (6, 1.50000000000000000000e+03) (7, -8.64380414242350569864e-02) (8, -1.23165571141103535879e+00) (9, -1.06866335139527439679e+01) (10, -6.10110470422961981285e+01) (11, 2.75747921737735701697e+00) (12, 1.63205875080197737592e-01) (13, 7.83539377674805637142e-02) (14, 1.93979617260431003167e-01) (15, 2.71921185525069886157e-01) (16, 5.19288700488598653493e-01) (17, 4.54324172107878121452e-01) (18, 4.22932524231605189158e+00) (19, -2.09788288616617940585e-01) (20, -1.53708148443182729403e-01) (21, -2.10412839827112368996e-01) (22, -1.59320641086869080327e-01) (23, -1.74598926147558364264e+00) (24, -1.62455567134213718639e-01) (25, 7.36046118854409292531e-02) (26, 5.27717725809468074516e-01) (27, 1.48344492544926265243e-01) (28, -1.30280493725571822061e-01) (29, -1.84162050992236869806e-01) (30, -2.58121352638538026358e-01) (31, 3.94288462897070923763e-01) (32, 1.50000000000000000000e+03) (33, 3.56682101636618564822e-01) (34, -4.05966991970608981344e-01) (35, 3.52036817173447547091e+00) (36, 9.92510723379093962038e-01) (37, 3.89484798187314851248e-01) (38, -2.17688127127983466202e-01) (39, 2.00734641455148410394e-01) (40, 4.64095287546865756245e-02) (41, 4.61488444136276931840e-01) (42, 8.29722575609674106722e-01) (43, 2.71014943980892264452e-01) (44, -1.30526106196314856112e-01) (45, -2.52580505487164208578e-01) (46, -1.68048136558970329091e-01) (47, -2.30564998172620938544e-01) (48, -4.86257911758664174151e-01) (49, -2.90357172251025152931e+00) (50, 4.03355486337295066068e-01) (51, 4.52440475011448572928e-02) (52, 4.87189733607026553841e-01) (53, -4.55247105808342031330e-02) (54, -3.60038477960509528675e-02) (55, -2.47662166840010272706e-01) (56, -1.19471509250636542809e-02) (57, 2.85898494635109579054e-01) (58, 1.50000000000000000000e+03) (59, -1.82142771676979037254e-01) (60, -1.34766963161827568740e+00) (61, -1.54021361420075231230e+00) (62, 1.62115996050015898078e+00) (63, 5.01707847794329864222e-01) (64, -2.46473024464193835037e-01) (65, 1.89984478578321645814e-02) (66, 6.20231410119448725582e-03) (67, 7.59493478282697087600e-01) (68, 3.78626651017383186737e-01) (69, 2.76165374072586178311e-01) (70, 1.60090133234548281926e+00) (71, -2.68949257678438913288e-01) (72, -2.88386667615820602162e-01) (73, -1.54328670715288357451e-01) (74, 1.80651213483864414577e+00) (75, -3.60986552108054359334e-01) (76, -5.40551852126641418916e-02) (77, 4.93112480143077444583e-02) (78, -7.56826939826149708290e-02) (0, 3.22050046768487197024e-01) (1, 2.86697959069993013603e-01) (2, 3.58366404432414520365e-01) (3, 8.24476172506607540846e-01) (4, 1.94103019679134403130e-01) (5, 3.28551295806062459981e-01) (6, 1.50000000000000000000e+03) (7, 2.81999571842212359840e-01) (8, 3.91115315430920373885e-01) (9, -3.33809769441233417098e+00) (10, 1.32734759209373805788e+02) (11, 5.20913052704558054984e+00) (12, 1.03657670414580760365e+01) (13, 1.15490932069753360345e-01) (14, 1.55286621354554843499e-01) (15, 9.44881919892061006294e+00) (16, -7.15645108702179372218e-02) (17, 3.46081595418586074331e-01) (18, -1.18690460084650756256e-01) (19, 2.54812161281912197275e-01) (20, 3.39571486070959438486e-01) (21, 2.87959535186611215174e-01) (22, -1.28742384507061630172e-01) (23, 6.27427409405604263881e-02) (24, 2.81441201750705249918e-01) (25, 2.89159223379031660173e-01) (26, 9.91892050960748861144e+00) (27, 1.17272758581355898144e+01) (28, 8.01213152664761341093e-01) (29, -2.12232613167157135869e-01) (30, 2.12683531368326073085e-01) (31, -3.22999530408060120390e-01) (32, 1.50000000000000000000e+03) (33, 3.38320041542935101564e-01) (34, 1.60096647768747658347e+02) (35, -1.02117219891553340227e-01) (36, 1.63263716703620616499e+02) (37, 8.38329070449077207172e+00) (38, -1.42729697508927322325e+00) (39, 1.73166152142022800042e-01) (40, 1.02828208409284305169e-01) (41, 4.41267744729990751829e-01) (42, 6.78521159801478312978e-01) (43, 1.40827592949442248482e-01) (44, 3.45632159261316687093e+01) (45, 3.38133438729397883815e-01) (46, 2.74758137070290675563e-01) (47, 3.31285182898365060389e-01) (48, -2.26580911181143163091e+00) (49, -2.31834481581499263214e+00) (50, 2.57729352713231163463e-01) (51, 3.49633944938048946138e-01) (52, 3.39782167862937023450e-01) (53, 3.15113223351380922210e-01) (54, 2.80719494463755381286e-01) (55, 3.18708568406733450118e-01) (56, 1.59201726279661365249e-01) (57, -3.15664136626510438699e-01) (58, 1.50000000000000000000e+03) (59, 8.46770439254899837112e-02) (60, 3.56603049019860951496e-01) (61, 1.12719928056701412800e+01) (62, 2.07160754434200669039e+02) (63, 9.64567975309763347980e+00) (64, -1.59323289436564086152e+00) (65, 9.56468098387467380306e-02) (66, 3.51851620301954562398e-02) (67, 6.83070136835824257560e+01) (68, 1.33446067425133957363e-01) (69, 2.82024342025784413579e-01) (70, -1.03344542012353590721e+00) (71, 2.00190289685871991576e-01) (72, 3.71558165917542593260e-01) (73, 3.52020521228633920252e-01) (74, -1.77152678995750101354e-01) (75, -2.71554830116976786414e-01) (76, 3.09454742541760419172e-01) (77, 4.32798605141175296573e-01) (78, 3.07618829586652708930e-01) (0, -7.23916937235819735186e-01) (1, -5.31628947092196879609e-01) (2, -5.73176713126384518304e-01) (3, -1.80110590385656271772e-01) (4, -2.55490990146838681252e-01) (5, 4.49446148150249968900e-01) (6, 1.50000000000000000000e+03) (7, -2.93318749982993509651e-01) (8, -8.20900489646916639686e+02) (9, -3.40145495630983840663e-01) (10, -1.31042197975831186341e+03) (11, -7.92267278833098309576e+00) (12, -1.79505132568859204767e+00) (13, 2.19931044206373507710e-02) (14, 1.37401457928155612542e-01) (15, -1.73960051039022123298e+00) (16, 2.61461021427638828918e-01) (17, -4.25389225639570933701e-01) (18, -4.66626812496003351427e-01) (19, -3.97670037921377284018e-01) (20, -4.29090008016534907309e-01) (21, -6.51520969538975758262e-01) (22, -5.20523968903977118927e-01) (23, 6.11077768790515216124e-02) (24, -1.40811555027456819511e-01) (25, -5.68939525681563806891e-01) (26, 6.79976013466258716322e-02) (27, -1.74213922795394327014e-01) (28, -4.73567750102795725908e-01) (29, -1.82828546703054428679e-01) (30, 1.52938456829490498912e+00) (31, 7.18250425140311565819e-01) (32, 1.50000000000000000000e+03) (33, -5.07813061359578044041e-01) (34, -1.47155585391663407790e+02) (35, -3.14373595189505417036e-01) (36, -8.24612227423777994773e+02) (37, 1.33795965264672633843e+00) (38, -3.12345268257686825564e-01) (39, 1.18361104331945132806e-01) (40, 1.94367330573533725335e-01) (41, 2.31047941153867536501e-01) (42, -9.35628368929886877758e-01) (43, 1.66396045604188178024e-02) (44, -4.35820690921938780349e+00) (45, -4.07518193398304306996e-01) (46, -3.16368192706890427601e-01) (47, -4.30102113425054166651e-01) (48, -2.23331855018972236238e-01) (49, -7.13146738679460878707e-01) (50, -2.13431306460858116747e-01) (51, -5.51732358543121192973e-01) (52, -7.34959604135882238474e-01) (53, -4.72096033248870228238e-01) (54, -4.86133836282367226556e-01) (55, -1.97267247348150820407e-01) (56, -3.63628162884308880898e-01) (57, 3.10333665025351035371e-01) (58, 1.50000000000000000000e+03) (59, -3.57476558445519065899e-01) (60, -2.24725449761090789735e+00) (61, -6.64982053834306174878e+00) (62, -1.31038949581550514267e+03) (63, 1.49543934720869664545e+00) (64, 1.20454759134462366377e-01) (65, 1.07808675669168185784e-01) (66, 3.97879221067182833882e-02) (67, -4.42913176016041454375e+00) (68, -9.64328042848295596823e-02) (69, 1.67502019948203018096e-01) (70, 2.70454071641590548802e-02) (71, -4.05164584363765789554e-01) (72, -3.18848535264797283695e-01) (73, -4.89269751846112821436e-01) (74, -1.12998204414042007215e+01) (75, 8.94515500527252732654e-02) (76, -2.98543693792129166686e-02) (77, -3.74207387596199814173e-01) (78, -5.03617671166604052857e-01) (0, 4.10980042887602425861e-01) (1, 4.08829228296097163531e-02) (2, 1.25836330963617459844e-01) (3, 2.28920040141888991858e-01) (4, 1.93124135997567558665e-01) (5, 1.68858797436116821189e-03) (6, 1.50000000000000000000e+03) (7, 2.05766824733308456574e-01) (8, 1.24390353716250756655e+00) (9, 7.26404791206334415898e-02) (10, 1.50000000000000000000e+03) (11, 6.90640710896714438150e+00) (12, 3.82220581960025673762e-01) (13, 4.86289822087042147847e-02) (14, 6.61686440560732471589e-03) (15, 1.09651545982296436677e+01) (16, 2.81774949469859835316e-02) (17, 3.32712911714869774560e-01) (18, 3.46685353257511597036e-01) (19, 3.61444197302523972937e-01) (20, 2.86882169252101304480e-01) (21, 3.13583728826081653551e-01) (22, 3.91926875848120637169e-01) (23, 2.22464775316193158483e-01) (24, 2.07872458014231709100e-01) (25, 2.83935104609633059969e-01) (26, 3.06166284947294631280e+00) (27, 4.61878341599748232227e+00) (28, 4.77251678110691468504e-01) (29, -4.71398739715207015788e-01) (30, 3.35588022221743664808e-01) (31, -1.53139583468316020642e-01) (32, 1.50000000000000000000e+03) (33, 2.16392982083481899558e-01) (34, 3.87377665180239638687e-01) (35, -3.89443289981125095878e-01) (36, 1.50000000000000000000e+03) (37, 8.37780468761481955653e+00) (38, 2.08816814670771566664e-01) (39, 1.71556424401735019281e-01) (40, 4.80902419016115481587e-02) (41, 3.15057952684635877993e-01) (42, 6.06299177909112474438e-01) (43, 1.45040744029495821676e-01) (44, 1.15490904026274932015e+00) (45, 1.64383022015085589196e-01) (46, 1.52230529015055099373e-01) (47, 3.17818369155704383289e-01) (48, -6.97742225851564201733e-01) (49, -1.63766070566020327526e+00) (50, 3.71576371474680700047e-01) (51, 2.71643750248989179763e-01) (52, 3.15533584072713368940e-01) (53, 4.05181309754367516285e-02) (54, 4.07774422719226203871e-01) (55, 2.48158671202989705717e-01) (56, 3.91798758039089534133e-01) (57, -2.23955457829070392339e-01) (58, 1.50000000000000000000e+03) (59, -8.62148483102022078484e-02) (60, 3.71502161049867773990e-01) (61, -5.52879837008904861939e-01) (62, 1.50000000000000000000e+03) (63, 1.07101896804813190300e+01) (64, -5.68088122584046950614e-01) (65, 2.30440162644140536519e-02) (66, 2.00058039329980563714e-01) (67, 2.36237998035375512673e-01) (68, 2.48898672026595213502e-01) (69, -4.04142801579230825926e-01) (70, -1.16392035194912868423e-01) (71, 3.11134134859003874674e-01) (72, 3.39843635887064787759e-01) (73, 3.06293624823867682849e-01) (74, -2.08165197694567899456e-01) (75, 4.16294409307031487710e-01) (76, 2.83622477634415226522e-01) (77, 3.01859741331777509110e-01) (78, 2.92421456706435212158e-01) (0, -2.14419366165690350456e-01) (1, -2.52360249400185421287e-01) (2, 6.41494618213830636311e-02) (3, 3.44857756642014567916e-01) (4, -4.13647402981921347154e-02) (5, -8.39806593748067764515e-01) (6, 1.50000000000000000000e+03) (7, 2.30558505066353364166e-01) (8, -1.26866997486585142418e+00) (9, -1.14575981245523061958e+00) (10, 4.28923709487296722642e+00) (11, 6.31688794569589173733e+00) (12, -5.95662358125879753956e-01) (13, 1.05515011176815966948e-02) (14, 3.83245610222570712300e-02) (15, 6.32854244852746106176e+00) (16, 3.04617166090099429632e-02) (17, 2.52043539861137477764e-01) (18, 2.06053914273212124275e-01) (19, 2.47573818159451258802e-01) (20, 2.80056352806439201597e-01) (21, 1.60959981575101579443e-01) (22, 1.91877980358568483998e-01) (23, 5.68437358448866791177e-03) (24, -8.06602637189635374160e-02) (25, 3.70277135051905181840e-01) (26, 2.07239835840825818991e+01) (27, 2.07603419591848634695e+01) (28, 4.80508624084219460038e-01) (29, -1.35033662996478592833e-01) (30, 3.43611456835957784772e-01) (31, -1.85315959506406779944e-01) (32, 1.50000000000000000000e+03) (33, 3.32356367494339111079e-01) (34, 1.59437894320834754325e+01) (35, -8.89113583894974524036e-01) (36, 1.25572301712938738660e+00) (37, 7.92277134473884725452e+00) (38, -1.73163113856119532663e+00) (39, 1.54466368779889087065e-02) (40, 1.10910456679795932367e-01) (41, 4.32173268701488477728e-01) (42, 5.35821661118263903312e-01) (43, -6.06354020091080178623e-02) (44, 6.19223488405939370693e+00) (45, 2.32295766142042114932e-01) (46, 1.35307542648942902286e-01) (47, 3.24699916138738331473e-01) (48, 1.70488684381267341372e+00) (49, -2.88877356849126254446e+00) (50, 3.33198410774141140500e-01) (51, 4.15093360578028924834e-01) (52, -1.62470718818089998603e-01) (53, 2.05882932758518974459e-02) (54, 2.38448028430338854200e-01) (55, 3.00033039308195859096e-01) (56, -5.78249608003545523260e-01) (57, -4.65696038245730581373e-01) (58, 1.50000000000000000000e+03) (59, -3.65602464541365870798e-02) (60, 3.66833357494795286868e-01) (61, 1.30693159377871181981e+00) (62, -6.70839128877454005107e-01) (63, 9.65513729658995067950e+00) (64, -3.72859208383172380241e-01) (65, 1.92122530244325351312e-01) (66, 1.02513898216222476556e-01) (67, 7.38107694182050444454e+00) (68, 4.16865344336235676970e-01) (69, -2.66124340779466062035e-01) (70, -8.22280322662440332770e-01) (71, 2.77154952643736018914e-01) (72, 2.14775294421537504830e-01) (73, 1.62168435945600236670e-01) (74, -1.30483982206205717524e-01) (75, -6.26017198620990034108e-02) (76, 4.77079511712502180032e-01) (77, 4.61415989433734186065e-01) (78, 3.69499724516822725118e-01) (0, -4.22703463193068706971e+00) (1, 3.25210330367777966654e-01) (2, 4.89687842979967813406e-01) (3, 2.52940680917995130983e+00) (4, -1.06965496727847095282e-01) (5, -2.18141744017876448858e-01) (6, 1.50000000000000000000e+03) (7, -2.02609213143421729164e-01) (8, 7.59864470047650342188e-01) (9, -2.46813711802365526315e-01) (10, 1.30818942685614547372e+03) (11, 6.97449324437274409405e+00) (12, -3.49334093524676303488e+00) (13, 1.99691202543710422113e-01) (14, 1.09370868705247592523e-01) (15, -2.69350906574527471093e+01) (16, -6.36859446477068047443e-01) (17, -2.84650329594444695402e-01) (18, -2.94449682151461444857e-01) (19, -1.34191046032912097985e-01) (20, -4.17872020340030528307e-02) (21, 9.69849488229925504879e-02) (22, 7.79475558739215590442e-01) (23, -2.93274746665422636482e+00) (24, -2.52918572870654090323e+00) (25, 1.23908922026686685314e-01) (26, 9.53511131398627043154e+00) (27, 3.49932721752999986720e+00) (28, 1.96934529241430469892e-02) (29, -5.45462501435704294472e-01) (30, -5.02268051261759773674e-01) (31, 1.40556761891321513325e+00) (32, 1.50000000000000000000e+03) (33, -4.07018466456120631136e+00) (34, 1.13278470018964205757e+00) (35, 6.50760068633747756905e+00) (36, 1.30674682990597261778e+03) (37, 1.59855885481751638366e+01) (38, -6.49836208304264140168e-01) (39, 1.10548127494786929681e-01) (40, 8.16937350258576389095e-02) (41, 1.05883086049950314589e+01) (42, 5.49961760429315438259e-01) (43, 4.25266141134112318767e-01) (44, -7.85285316226581320276e-02) (45, -1.92412333271221508424e-01) (46, -2.03291909477428728303e-01) (47, -1.29934175052739991907e-01) (48, -5.50783827131137271316e-01) (49, -1.50341608528662784572e+00) (50, -1.51307420709528295255e+00) (51, 4.61206186408410559463e-02) (52, 4.94652749660815072019e+00) (53, 8.96279621099333678735e-01) (54, 1.12255978140903223128e+00) (55, -4.29957565365602714658e-02) (56, 1.25487377892272208152e-02) (57, 2.51967277172987902389e+00) (58, 1.50000000000000000000e+03) (59, -1.66916828445368414791e+00) (60, -7.99708622997025997403e-02) (61, 1.81339334885622904814e+00) (62, 1.50000000000000000000e+03) (63, -6.94913983505461452239e+00) (64, -1.85161501129142447297e+00) (65, 1.11504901252721499993e-01) (66, 1.62157427571748447015e-01) (67, -1.43554313749607942441e+00) (68, 1.07398112228110220734e+00) (69, -1.98229786641790397539e+01) (70, 1.58606619658404235373e+00) (71, -1.14559187074486257263e-01) (72, -1.06368912835899886993e-01) (73, -1.19645116405878798593e-01) (74, -4.58589681373904184403e-02) (75, -1.36272227934751977152e+00) (76, -4.40230940359468192469e+00) (77, -2.63934364202298876734e-01) (78, -1.09370781313036152804e-01) (0, 3.77051739751330439177e-01) (1, 2.58971902307784496156e-01) (2, -1.62198987749922279855e-01) (3, -3.42285341662699638121e-01) (4, -9.88581944110829002881e-02) (5, 2.02212359564227749098e-02) (6, 1.50000000000000000000e+03) (7, -3.28639471813297112668e-01) (8, -7.21469300520072298610e-01) (9, -1.58189095896211467940e-01) (10, 5.77180085250466379243e-01) (11, 3.68749846070357545358e-01) (12, 4.93658143227895362948e-01) (13, 1.90489243768190097406e-01) (14, 5.20293042585604006978e-02) (15, 7.47400556587962117128e-01) (16, 4.42650852315110310276e-01) (17, 2.82968312045491887652e-01) (18, 1.33520580565111646187e+00) (19, -2.15416581417109509466e-01) (20, -2.28804000700499554632e-01) (21, -2.19756823808525514341e-01) (22, -1.03099116647326710661e-01) (23, -6.19531163896128944657e-01) (24, 2.88702527382955986823e-01) (25, -8.45324090264227695490e-02) (26, 4.31765535291538216089e-01) (27, -7.48667885267343125033e-02) (28, -1.60255933472262968031e-01) (29, -2.69554152115132894529e-01) (30, -1.77709961516337833221e-01) (31, 4.05067414974692285856e-01) (32, 1.50000000000000000000e+03) (33, 3.29442780302265592063e-01) (34, -1.57764754550911123765e+00) (35, 8.72586389576795240508e-01) (36, 2.86505037685518670898e+00) (37, 4.06446942234643671110e-01) (38, -3.25309910525566764461e-03) (39, 5.86414598450414950581e-02) (40, 8.62910040244805331966e-02) (41, 4.89553876452192948676e-01) (42, 6.55368682699560278770e-01) (43, 3.04486295036903109601e-01) (44, -1.45787102679558105978e-01) (45, -1.51032852128886313503e-01) (46, -2.22425872579955191677e-01) (47, -1.22946991736056721045e-01) (48, -1.95292654521875469475e-01) (49, -1.40312966940917371872e+00) (50, 2.42774738668202677561e-01) (51, -9.31190168998625444896e-02) (52, 4.47430743161942479080e-01) (53, -1.88245103756913723103e-01) (54, -1.15989947379672775352e-01) (55, -3.07565131645581135711e-01) (56, 2.15073767299037432732e-01) (57, 2.30063871813296697000e-02) (58, 1.50000000000000000000e+03) (59, 3.72879705209309686431e-01) (60, -6.19499750768236601139e-01) (61, -1.08040945351446615597e+00) (62, 2.29475586209433224383e+00) (63, 3.31959734005595086259e-01) (64, -1.90365090376058837540e-01) (65, 1.08165960811113071038e-01) (66, 4.46480028853170687886e-02) (67, 6.44508199876028919917e-01) (68, 3.21523901526979960508e-01) (69, 3.48145113764239289011e-01) (70, 5.98005601567730971091e-01) (71, -3.42207842765747505265e-01) (72, -4.28957150577007562120e-01) (73, -2.95681829803490781039e-01) (74, 1.26456415701066959834e+00) (75, -3.36604676826332827044e-01) (76, 1.20169616837852516467e-01) (77, -5.69474496888619716173e-02) (78, -1.37600486574206676282e-01) (0, 4.11266885084190347843e-01) (1, 2.81234819590815088297e-01) (2, 2.30696353317291519280e-01) (3, 4.72821875937020241754e-01) (4, 1.95054682578164328977e-01) (5, -3.23317130895317050854e-01) (6, 1.50000000000000000000e+03) (7, 3.92685057166372364357e-01) (8, 4.98923719659995335007e+00) (9, -9.43081830416393041006e-01) (10, 1.31372846754508191225e+03) (11, 5.38683989789709727347e+00) (12, 5.84764496217794693678e-01) (13, 3.07116248235456759663e-02) (14, 6.96302839145409580013e-02) (15, 9.88152348326929086397e+00) (16, 1.23151372830870922681e-01) (17, 2.89496824458700008353e-01) (18, 4.27770432286774471287e-01) (19, 2.53502645554748495815e-01) (20, 3.17809176656213721035e-01) (21, 3.34830948019837926211e-01) (22, 3.81354318110847190226e-01) (23, 1.82925214474460751113e-01) (24, 3.18401033894736174013e-01) (25, 4.06526699808344937903e-01) (26, 8.37194874080981477071e-01) (27, 1.42615420349091048813e+00) (28, 4.13990469231488800173e-01) (29, 1.82314797085962876366e-01) (30, 3.35625771561800900766e-01) (31, -1.19100260928100498692e-01) (32, 1.50000000000000000000e+03) (33, 2.91307742808536052070e-01) (34, 3.78848419326815566421e-01) (35, 3.77691200978760299733e-01) (36, 1.06916542467049271181e+03) (37, 8.49032265335523206318e+00) (38, -2.61242961073220980595e-01) (39, 1.83540847204660129144e-01) (40, 7.03814290985810275814e-02) (41, 2.48625275108207532959e-01) (42, 5.25217726591820421866e-01) (43, 1.09147078144524156684e+00) (44, 1.19439400168387410694e+00) (45, 4.02202198504928387646e-01) (46, 3.67936620711807049755e-01) (47, 2.79059225489186379932e-01) (48, -1.78192429802102902947e+00) (49, -7.56851533188712344291e-01) (50, 3.70640019607636261867e-01) (51, 2.78198288981397590103e-01) (52, 3.20894541584751724628e-01) (53, 2.82497086794241902830e-01) (54, 3.37441741504975689647e-01) (55, 2.52991457071123082567e-01) (56, 3.05394864035325452889e-01) (57, -2.90500290263599469931e-01) (58, 1.50000000000000000000e+03) (59, 1.69920260227320818469e-01) (60, 2.66592228064839620316e-01) (61, 2.51599478435345601246e-02) (62, 1.10192625193155231500e+03) (63, 9.99097891151760642003e+00) (64, -4.76806025353040119352e-01) (65, 5.58482371792547518941e-02) (66, 1.40600767038797092034e-01) (67, 5.45969015605525020973e-01) (68, 3.68710804904533062665e-01) (69, -2.01541917476267262721e-01) (70, 1.66808679913943748441e-02) (71, 2.37648006164626723891e-01) (72, 2.54858612650231963759e-01) (73, 3.45039498419030254972e-01) (74, 4.72017241382589713972e-01) (75, 4.75551951773926229183e-01) (76, 3.85213023205618121381e-01) (77, 1.49056292896716208185e-01) (78, 3.91561850832149616064e-01) (0, 3.20114165253227000996e-01) (1, 3.62372881006665981118e-01) (2, 4.22906160109987327989e-01) (3, 3.45803260760735753365e-01) (4, 7.04079122224659931240e-02) (5, -2.78744172110090060457e+00) (6, 1.50000000000000000000e+03) (7, 3.73505329937262875450e-01) (8, 4.71389729944553081964e+00) (9, 6.27902682577008708353e-02) (10, 1.50000000000000000000e+03) (11, 1.52091703102212978393e+01) (12, 3.60173633151148919751e+00) (13, 8.07138197645890231868e-02) (14, 5.64255640432588870259e-02) (15, 1.99106456938504514653e+01) (16, 3.82980788639537328422e-01) (17, 3.96601672053581266741e-01) (18, 3.96192865293342466604e-01) (19, 1.66486884455796846360e-01) (20, 1.83037753205415376634e-01) (21, 1.54616061683371358582e-01) (22, 1.83469084270596050068e-01) (23, -2.15805647579956616511e+00) (24, 3.92905314315985132456e-01) (25, 3.52900451294227701649e-02) (26, 8.58475897766938333966e-01) (27, 7.44936613206827913380e-01) (28, 4.35001481998188666012e-01) (29, -1.83943735564399607485e-01) (30, -1.58154978026684589487e+00) (31, 6.21587619477745989549e-01) (32, 1.50000000000000000000e+03) (33, 3.72640280200771611963e-01) (34, 2.64284690849225734066e-01) (35, 3.35610319091712294703e-01) (36, 1.50000000000000000000e+03) (37, 1.16253507383985628110e+01) (38, -2.35090030335717681265e-01) (39, 1.62842225335572909906e-01) (40, 1.88717078469728183343e-01) (41, 2.77812441873796611702e+00) (42, 6.45315633440932567844e-01) (43, 1.10808789375873684158e+00) (44, -6.63191923124094473430e-01) (45, 2.11818536278392088867e-01) (46, 1.51206334587718260742e-01) (47, 2.48326452934133468098e-01) (48, 2.28745365731984051649e+00) (49, -1.85525264601128947461e+00) (50, 4.62119752140478201596e+00) (51, 1.25116211759213974419e-01) (52, 3.58937798792779094725e-01) (53, 3.98267950510536816733e-01) (54, 3.30266177437972430209e-01) (55, 6.67147706529117701102e-01) (56, -6.67582613486138232162e-01) (57, 4.52880882263241912877e-01) (58, 1.50000000000000000000e+03) (59, 3.47534752178100370124e-01) (60, 1.05874547387468176396e+01) (61, 1.06766842989353483162e+00) (62, 1.50000000000000000000e+03) (63, 8.65232307184067650496e+00) (64, -2.71802819637612680381e+00) (65, 1.37854825757478427484e-01) (66, 2.52119936570875460835e-02) (67, 3.81165404710011124223e+00) (68, 1.04099799690597505375e+00) (69, 4.15476749673796053042e-01) (70, 2.95673461669531845164e-01) (71, 1.93756194208232146448e-01) (72, 2.21247853134242278283e-01) (73, 1.14144647979127725201e-01) (74, 1.51999718686295720582e-01) (75, -1.85328222960598432145e+00) (76, 2.75941714933113502184e+00) (77, -1.32588253889537055485e+00) (78, 2.91139066078509645141e-01) (0, -9.70681708599212822453e-02) (1, -4.41358467234572726667e-02) (2, 1.99291065715573589845e-02) (3, -3.55236861810682424956e-01) (4, -1.95092918905642370708e-01) (5, 3.14464348102670876450e-01) (6, 1.50000000000000000000e+03) (7, -2.69194362479492410589e-01) (8, 5.06886666189026557916e-01) (9, 1.34261368263824433511e-02) (10, 3.13123570410144935749e+00) (11, 1.47137638888367572321e+00) (12, 7.58652739966955902418e+00) (13, 1.51941772602533053949e-01) (14, 1.84591900609468173577e-01) (15, 7.49957356775906025526e-01) (16, 3.95909254927781451006e-01) (17, -6.20030382540744315345e-02) (18, 1.28617543941246890299e-02) (19, -1.54625908301220582608e-01) (20, -2.91650594041691524350e-01) (21, -2.71321634607212758272e-01) (22, -4.20742785809499253435e-01) (23, -1.84134505380020985221e+00) (24, -3.66538037119280069032e-01) (25, -8.53819095871086314320e-02) (26, 4.07661081156417859361e-01) (27, 2.63411103629415721539e-01) (28, 2.98314395387066985665e-02) (29, -3.66967715744157041424e-01) (30, -4.39422093369345456715e-01) (31, 3.08550192447935689444e-01) (32, 1.50000000000000000000e+03) (33, -2.20463220456338787612e-01) (34, -4.34977610720262530819e-01) (35, -1.90348966996306878663e-01) (36, 6.17804824230189986167e+00) (37, -1.55715834300308353377e+00) (38, -3.98880623861389504992e-01) (39, 1.19628477893804263665e-01) (40, 9.52274911627518649837e-02) (41, 6.76024344899663010011e-01) (42, 6.17801809741975183066e-01) (43, 4.26823077189915800478e-01) (44, 1.43636422971537197624e-01) (45, -1.44255377539549339838e-01) (46, -2.25228868612204063959e-01) (47, -1.45927143057507785473e-01) (48, -9.70732926075089652684e-01) (49, -2.03709983793339199920e+00) (50, -2.29259550744156104241e-01) (51, -1.17632733008770820615e-01) (52, -1.26703906586803860534e-01) (53, -6.53959661305034273271e-02) (54, 2.71431658422315244539e-02) (55, -3.95356503081451093884e-01) (56, 6.31097930080668167996e-01) (57, 2.60014414760285916817e-01) (58, 1.50000000000000000000e+03) (59, -2.85339193990055028927e-01) (60, -4.77583063403644980660e-01) (61, -3.14305891924132052573e-02) (62, 4.73854827454586846613e+00) (63, 2.38772877816043394006e+00) (64, -4.58988101789653435425e-01) (65, 1.80103372834657382562e-01) (66, 9.65211354717957492610e-02) (67, -6.14260486330241994857e-02) (68, 4.57542696746656984974e-01) (69, -1.73052775066973224538e-01) (70, -6.09142067527932873361e-01) (71, -3.19898613585042734808e-01) (72, -1.30845726324128996954e-01) (73, -2.98998363501519537344e-01) (74, 1.66172429901583595946e-01) (75, -4.64768062416548166649e-01) (76, -2.59570500824576166909e-01) (77, -1.30909624072615332624e-01) (78, -2.41619400865864031314e-01) (0, -1.39161448974040174997e-01) (1, -1.59235389960157236455e-01) (2, -4.59272431381791967908e-02) (3, -1.30555172634301303036e-01) (4, -6.89062038681624439151e-02) (5, 4.03859090670348253038e-01) (6, 1.50000000000000000000e+03) (7, -1.31914830931362331290e-01) (8, -3.85703200156459813375e-01) (9, -2.47068524801354216791e-01) (10, 5.31265882683736978542e-01) (11, -2.59559974611688559776e-01) (12, -5.65419135244395931750e+00) (13, 1.88844930432771396234e-01) (14, 1.58828832731000013645e-02) (15, 8.77976074209315004993e-01) (16, 3.60704647522827659412e-01) (17, -3.67272438093985062468e-02) (18, 6.88528297361197139104e-01) (19, -2.73350088296199333904e-01) (20, -1.77164292333388873057e-01) (21, -1.90202671450690558030e-01) (22, -2.09329167500183960238e-01) (23, -1.22293925770443667744e+00) (24, -3.18529884554264397512e-01) (25, 2.62470297640615343737e-02) (26, 5.23887868795230082775e-01) (27, 5.18744546551009322322e-01) (28, -8.39425623177783686302e-01) (29, -5.00531760040982542925e-01) (30, -5.29600802685157523442e-01) (31, 2.09986358159056529793e-01) (32, 1.50000000000000000000e+03) (33, -1.71668168433909557047e-02) (34, -9.40306085449686634981e-01) (35, 4.44290870573313245728e+00) (36, 1.04155226385385679677e+00) (37, 2.45638467877112676163e+00) (38, -3.85812074971013385660e-01) (39, 9.02378373369919772884e-02) (40, 1.26573327980970096185e-01) (41, 2.73976081579872021710e-01) (42, 7.19376009596008447744e-01) (43, 3.27674035708099664621e-01) (44, 4.43887562084300940635e-02) (45, -2.45123133863912545660e-01) (46, -1.99297674800859386801e-01) (47, -2.18034387346926594731e-01) (48, -1.28599176396954129054e+00) (49, -2.49250817377522215779e+00) (50, -2.23772489542086588932e-01) (51, -9.38496412973526816792e-02) (52, 3.77367999326273517724e-02) (53, -1.26416808784042822289e-01) (54, 6.68418883359754162354e-02) (55, -1.29254872438463758177e-01) (56, 2.05861258944254199577e+00) (57, 1.81535330819939083602e-01) (58, 1.50000000000000000000e+03) (59, 2.76220508773427700366e-02) (60, -5.43553231955781201989e-01) (61, -2.53606567453735165518e-01) (62, 6.71954393695664564667e-01) (63, 3.24130140518834763963e-01) (64, -5.37050835052123476387e-01) (65, 1.64315562747453403070e-01) (66, 1.50967489980195712640e-01) (67, -4.51890690095620994882e-01) (68, 3.27067983366404690937e-01) (69, -2.07405133881402775620e-01) (70, 3.74497807824267070487e+00) (71, -2.49127872303526287645e-01) (72, -2.20148488894502974977e-01) (73, -1.05846773565075616408e-01) (74, 1.28192997749411053549e-02) (75, -6.66487269251843428286e-01) (76, -3.81206985193224101582e-01) (77, -4.55985790258068901526e-01) (78, -1.90292439843189997717e-01) (0, 4.04386245866736160348e-01) (1, 2.72967521717293049033e-01) (2, 2.33063653255365127448e-01) (3, 1.38125142017374691328e-01) (4, 1.24009600124926983034e-01) (5, -1.15246276807526318309e-01) (6, 1.50000000000000000000e+03) (7, 3.41204621142418895730e-01) (8, -4.83419865207936727547e-01) (9, -3.87244100973068938742e-01) (10, 1.39079999079704271026e+03) (11, 5.07703187216000273452e+00) (12, -4.97272518141587926976e+00) (13, 5.16822413131944949360e-02) (14, 1.22722309134935092523e-01) (15, 7.67143900555943059061e+00) (16, -2.58787577945649993616e-02) (17, 3.19651176010761484125e-01) (18, 2.19333951361530582469e-01) (19, 2.27716981633547005393e-01) (20, 2.20862261219862160422e-01) (21, 1.41539698591569368391e-01) (22, 3.28051874422555456157e-01) (23, 4.51297791262178574212e-02) (24, 2.18771646180982368146e-02) (25, 4.61944533712585092555e-01) (26, 2.32664417622919614814e+01) (27, 2.33401374331052835487e+01) (28, 4.68937590996186592918e-01) (29, 7.67627068130773485000e-04) (30, 3.01053618273328493782e-01) (31, -4.24515397020077456247e-01) (32, 1.50000000000000000000e+03) (33, -3.53690152380612465866e-01) (34, 6.90581033874133431993e+00) (35, -6.21602055444567813680e-01) (36, 1.40890130232035517110e+03) (37, 8.42702173829280454243e+00) (38, -7.96551168821035049383e-01) (39, 5.67092635259382540913e-02) (40, 1.18580647334805468901e-02) (41, 2.27063059466813177423e+00) (42, 8.08840035918224065092e-01) (43, 2.37786434601411189593e-01) (44, 2.34325257907845374561e+00) (45, 7.80218463808611817356e-02) (46, 2.53572910693319220066e-01) (47, 1.83386324098447295317e-01) (48, -1.36175079980599877949e+00) (49, -2.71768048683156049350e+00) (50, 2.59324087383841606069e-01) (51, 3.25149304406422201552e-01) (52, -2.49117622717506037588e-01) (53, -5.53473578814335454013e-01) (54, 1.96470728216488643714e-01) (55, 3.44055935123928902097e-01) (56, -9.68537107187065759994e-01) (57, -1.67117565695884123800e-01) (58, 1.50000000000000000000e+03) (59, -1.31677729671389354138e-01) (60, 3.82294907502751746264e-01) (61, -1.05060132541773243453e+00) (62, 1.45199999737739562988e+03) (63, 1.03735873751435452306e+01) (64, -3.82712578022630756092e-01) (65, 8.32864828929650302669e-02) (66, 9.51763503775345798275e-02) (67, 8.75139047588788021592e-01) (68, 1.11403157343591997785e-03) (69, -5.99109049658715031583e-01) (70, -8.24459732005547341060e-01) (71, 2.52797791539935701177e-01) (72, 2.69901463567523591802e-01) (73, 3.11583278825620313413e-01) (74, -1.51086422694641370201e-01) (75, 2.38385741554072883019e-01) (76, 8.91490679082157289059e-01) (77, 4.21096950011032644667e-01) (78, 2.00088797917452709818e-01) (0, -7.88037465739782483354e+00) (1, -4.98100606397585202179e-02) (2, 4.60571759879588427111e-01) (3, -2.13294960130725713698e-01) (4, -2.22370066060576132561e-01) (5, -1.20900717404132218569e+00) (6, 1.50000000000000000000e+03) (7, -2.07448292484397750490e-01) (8, -2.12201328473748640491e+00) (9, 1.32658734949150125537e+00) (10, 1.27785133609582128855e+01) (11, 1.38945689977193360676e+01) (12, 2.52989313040682661793e+00) (13, 2.12526657209150607319e-02) (14, 9.28607471809136386653e-02) (15, 1.92545818025578867605e+01) (16, 5.57614602977846995913e+00) (17, 1.52797183538706682349e+00) (18, -1.75007917599443629797e+00) (19, -2.96903660486505294180e-01) (20, -2.83740701119468474722e-01) (21, -2.12382659762208159115e-01) (22, -2.56771697453668956701e-01) (23, -3.82624332221864482673e-01) (24, -1.43777938510414093898e+00) (25, 2.06048479752926194664e+00) (26, 6.74485356648410583347e+00) (27, 6.43042294884078824424e+00) (28, -2.14722654588659134234e-01) (29, -4.09559047588794855610e-01) (30, -6.79793209058495939701e-01) (31, 4.30392867668613676724e-01) (32, 1.50000000000000000000e+03) (33, -7.16651800930462656858e-01) (34, -1.67496165662042884037e+00) (35, -2.85794819309679093422e-01) (36, 2.55553267421556862260e+00) (37, 5.95424116278029380567e+00) (38, -4.60470790936659712944e-01) (39, 5.07829301581136996480e-02) (40, 8.01536818597230714400e-03) (41, 2.44886306197159377973e+01) (42, 1.97590069943865387359e+00) (43, 3.84071982403195821831e+00) (44, 3.72821903960812273127e+00) (45, -3.07956007129071451800e-01) (46, -2.13620547956345857576e-01) (47, -2.71610829514387586148e-01) (48, 1.22169284105462949697e+00) (49, 1.26097326644158819198e-01) (50, -3.29952595531985803934e-01) (51, 1.94223676688971669257e+00) (52, -1.00664092141095267152e+01) (53, -1.39616639947396675714e-01) (54, -1.02019340508778533216e-01) (55, -2.46980229340697354790e-01) (56, -3.17985879804844051577e-01) (57, 1.68215525965687762167e+00) (58, 1.50000000000000000000e+03) (59, -3.80643355975041952632e-01) (60, -4.38675796139892382186e-01) (61, -1.39088246423998529444e-01) (62, 4.30704064528509711351e+00) (63, 9.25949044647055075075e+00) (64, -7.62790343717934526957e-01) (65, 1.47280868195031833245e-01) (66, 4.87229675576441104146e-02) (67, 6.46704508588357707133e-01) (68, 2.76348823080225391990e+00) (69, 1.32323552288699541890e+00) (70, -3.03578122144620454748e+00) (71, -1.53415363632700502139e-01) (72, -1.58755477868578492862e-01) (73, -2.72052704323057892299e-01) (74, 4.01769268442701055211e-01) (75, -2.87052696877003910014e-01) (76, -1.10576182785523591257e+00) (77, 3.81979964598812171683e-01) (78, -2.12593691328018807862e-01) (0, -2.39044841680534803086e-01) (1, 5.10651084409299627076e-01) (2, -1.46643871344705356563e-01) (3, 4.79866825352385062420e-01) (4, -2.73576860672547383935e-01) (5, -1.62843652144986292263e-02) (6, 1.50000000000000000000e+03) (7, -1.75291667707559883915e-01) (8, 3.33118417897820240370e+00) (9, 3.01969405543637825495e-01) (10, -9.06997970788995303337e+02) (11, 1.89049308434754648189e+00) (12, 3.34687179687834651665e-02) (13, 6.90363534316765781185e-02) (14, 1.93240996502374362542e-01) (15, -9.01827863296887910494e-01) (16, 6.84551380862267411231e-01) (17, 5.51981452701617580914e-01) (18, 8.59160787037091289164e+00) (19, -1.99144898972609590837e-01) (20, -2.54292822501757442843e-01) (21, -3.19776463503473273864e-01) (22, -1.73758812973571474814e+00) (23, -1.42408359931067082793e-02) (24, -2.62520930201896440792e+00) (25, 6.76322705236615751012e-01) (26, 1.63039932630170203431e+00) (27, 5.28184970609722892476e+00) (28, 4.91711101983512810509e-01) (29, -3.94485358131913654844e-01) (30, -5.17300439974226700102e-01) (31, 2.69255859920846163380e-01) (32, 1.50000000000000000000e+03) (33, -3.84353862959465164550e-01) (34, -4.01786622184202446562e+00) (35, 2.50581427133827083775e-01) (36, -1.42302542915821845781e+01) (37, 9.81307253980714833119e-01) (38, 2.09121408074445902514e-01) (39, 1.56350445054506015374e-01) (40, 8.11232291683899875423e-02) (41, 4.37471617227933318173e-01) (42, -3.52783586687291927930e-01) (43, 2.54886766574028145182e-01) (44, 1.08117300999542553797e+00) (45, -2.70889102876268661468e-01) (46, -1.55512436688028776732e-01) (47, -2.15440027641599723962e-01) (48, -4.73568378906865594669e-01) (49, -1.70622811620875891592e+00) (50, -2.13870368419949752337e+00) (51, 6.38224902346241407258e-01) (52, -1.74612052580320226136e-01) (53, -2.22367783016545889074e-02) (54, -2.85971600188563490619e-01) (55, 8.70656205520347947768e-01) (56, -2.15066395314407604600e-01) (57, -2.74437498753248576566e-01) (58, 1.50000000000000000000e+03) (59, -3.21370434971346319308e-01) (60, -2.60409832786466566290e+00) (61, -6.83218631390203889886e-02) (62, -8.69889273080299176399e+02) (63, 1.40792840473727256523e+01) (64, -4.06151680030522210796e-01) (65, 1.30164142750238132074e-01) (66, 1.67968373797868442132e-01) (67, -4.09546250050720139768e+00) (68, -1.99957997091719241745e-02) (69, 7.28678240181509950801e-01) (70, -1.25366837371948591784e-01) (71, -2.44008718790224066186e-01) (72, -2.35798089565446844507e-01) (73, -1.99996869099602070374e-01) (74, 1.46591375571627979824e+00) (75, -6.86866415310691458274e+00) (76, -7.28849655271544216717e-01) (77, -7.75790237363317147778e-02) (78, -2.37846136200171920372e-01) (0, -1.88332300938714086724e-01) (1, -9.65602540616065790902e-02) (2, -1.79168372146625620722e-01) (3, -2.78097405201697289723e-01) (4, -1.85516369946128412138e-01) (5, -6.72507844816345956573e-01) (6, 1.50000000000000000000e+03) (7, -1.13574467105086382435e-01) (8, -2.06803061237150709317e+00) (9, -4.46774115897268853104e+00) (10, -1.05703980064649503134e+01) (11, -1.20175587535824202057e+00) (12, 7.60850790713817004551e-01) (13, 1.03213053248857211663e-01) (14, 2.01064836286042880609e-01) (15, 4.64859870257238849689e-01) (16, 2.34924285933540769045e-02) (17, 3.61940548138540929557e-01) (18, 4.67381738868661300579e-01) (19, -2.18186589450606233109e-01) (20, -1.81729028494128114213e-01) (21, -2.33721871705337841396e-01) (22, -2.03739066276750036000e-01) (23, -8.78895121361877640354e-01) (24, -2.15169332795055318064e-01) (25, 9.99120433512796016218e-03) (26, 2.99217208721249516845e-01) (27, -5.20433734575597273242e-01) (28, -6.38724452605253789628e-01) (29, -1.76529458886743539914e-01) (30, -1.50203615411334451268e-01) (31, 1.16301633135724918899e-01) (32, 1.50000000000000000000e+03) (33, 3.39466589812558949824e-01) (34, -2.30720859984634563133e+00) (35, 3.00323582376220743484e+00) (36, 5.62817273891642710915e-01) (37, -9.72464681538626307677e-01) (38, -2.20093516287596213665e-01) (39, 7.56764971241700168392e-02) (40, 1.94220613740419101312e-01) (41, -5.99929770015159902208e-01) (42, 9.29448814864570760363e-01) (43, 4.52268962666929841276e-01) (44, -1.10072085129521823887e-01) (45, -1.73390219480761414994e-01) (46, -2.89207468302019654605e-01) (47, -2.27787719749311612372e-01) (48, -3.39305497109139320155e-01) (49, -2.64404921309477636271e+00) (50, 1.99421778785492193053e-01) (51, -2.53772179898148616747e-03) (52, 4.48023578209557682417e-01) (53, -1.43225314290479521784e-01) (54, -1.88941692460925014796e-01) (55, -1.13219854962382071584e-01) (56, 1.89671424739001515114e+00) (57, 3.35310651776000445690e-01) (58, 1.50000000000000000000e+03) (59, -6.02078864413435124736e-02) (60, -1.13174197585491809193e+00) (61, -5.95873446214696400602e-01) (62, -1.04035667584408741959e+01) (63, 3.91485084787131953910e-01) (64, -1.90000096622983644101e-01) (65, 4.40489873811952883931e-02) (66, 3.05905379876844699116e-02) (67, 1.91585169899962060036e+00) (68, 6.51866119689404777127e-01) (69, 3.87538687298576711715e-01) (70, 5.32271443660656817798e+00) (71, -2.57740180324300571790e-01) (72, -1.97855311762078961424e-01) (73, -2.77542454311517639010e-01) (74, -2.40615451352380188554e-01) (75, -4.27066044977307823771e-01) (76, 2.50676375284907493324e-01) (77, -1.56112598315004180716e-01) (78, -1.30488576573218967303e-01) (0, 4.47949306357766585673e-01) (1, 2.31632251513313597302e-01) (2, 1.72931434844047215993e-01) (3, -7.77685944180882993138e-01) (4, 2.10074153671994223735e-01) (5, -6.10163203774684070879e+00) (6, 1.50000000000000000000e+03) (7, 1.40612535271421923433e-01) (8, 1.76019870161974534284e+00) (9, 3.32730413877356534513e+00) (10, 9.82190279634790840646e+02) (11, 8.02491012749126220172e+00) (12, -1.60103823866916072927e-01) (13, 5.04190736040823275776e-02) (14, 9.26939137801873203060e-02) (15, 1.02918900131323276526e+01) (16, 2.23984568387181337545e-02) (17, 4.55789118742683518892e-01) (18, 1.55456484789998072849e-01) (19, 2.22067269439072012549e-01) (20, 2.91710684949726628545e-01) (21, 3.78062920823369619239e-01) (22, 2.41805194746304519260e-01) (23, 1.72317482564843665882e-01) (24, -1.64364488095521088518e+00) (25, 2.90973005466351852810e-01) (26, 2.32304118667365990802e+01) (27, 1.43828725126605476703e+01) (28, 3.15680370260563725182e-01) (29, -1.41587150265581906972e+00) (30, 1.55094644658892194533e-01) (31, -2.10322800879840954291e-01) (32, 1.50000000000000000000e+03) (33, -3.85514508622419205253e-01) (34, 4.41596144750982944061e+00) (35, -3.02340806727980859758e-01) (36, 1.29079999079704271026e+03) (37, 8.33920120090447980488e+00) (38, -1.71100529389970978933e+00) (39, 1.00623246334527682855e-01) (40, 7.41721727475869174739e-02) (41, 2.18376776981089548713e+00) (42, 5.77868473014531258691e-01) (43, 6.45582240911980020925e-01) (44, 1.52047397052890098657e+00) (45, 2.53542848484456018188e-01) (46, 2.33792562590777297515e-01) (47, 2.90208848371778127539e-01) (48, 1.07637415532575597688e+00) (49, -1.96761845235041010760e+00) (50, 9.76623099769856284347e-01) (51, 2.90810120873341904080e-01) (52, 1.41040028538327796848e-02) (53, 2.35570430470809666357e-01) (54, 2.30856289756612098607e-01) (55, -9.71139562409164880386e-01) (56, -1.36968228748891376889e-02) (57, -2.95258780740332682502e-01) (58, 1.50000000000000000000e+03) (59, 1.77699133660542685220e-01) (60, 1.15858573485793381330e+00) (61, -3.90891258589901013920e+00) (62, 9.92745321461290473053e+02) (63, 1.55295992999366241349e+01) (64, -1.65243802287390839645e+00) (65, 1.21045369707082461908e-01) (66, 1.08694974385236453607e-01) (67, -4.86593759997587027577e-01) (68, 3.24104704035292734421e-01) (69, 3.01765760547598571595e-01) (70, -1.56604287810787234925e+00) (71, 3.32707150151546005024e-01) (72, 3.72745527198131088031e-01) (73, 2.67833857824232801637e-01) (74, -9.09895557943887989261e-01) (75, -1.57667648014362948850e-01) (76, 1.25221777659068000954e-01) (77, 3.53263040911691750257e-01) (78, 3.91802789532750439516e-01) (0, -1.14973256191547679173e+00) (1, -1.16296666315134356040e+00) (2, 3.65922794557485331346e-01) (3, 2.73784259958784137456e-01) (4, -5.18680138774357035736e-01) (5, 8.30924870986968544528e-01) (6, 1.50000000000000000000e+03) (7, 3.42076491582366193356e-01) (8, 1.71195445755576214353e+00) (9, -1.21405133387591424032e+00) (10, 1.10200137261158647561e+03) (11, 5.32532586302981059134e+00) (12, 8.79038550613571834091e-01) (13, 1.11249733768438052728e-01) (14, 7.36076050028550143978e-02) (15, 1.20485853596878449423e+01) (16, -2.00700581502827220259e-02) (17, 3.49782426372222732258e-01) (18, 4.64169732333530593582e-01) (19, 3.36637427303992542438e-01) (20, 3.27730466816626819782e-01) (21, 1.85913616174700618844e-01) (22, -2.91985423447254444085e+00) (23, 9.90083218996228864306e-02) (24, 2.18556918016864137888e-01) (25, 3.85379999165483544399e-01) (26, 1.33558952282515281951e+01) (27, 2.66732631448113401973e+01) (28, 4.56615412896203443083e-01) (29, 1.38544912044755275105e-01) (30, 2.24731479497668279466e-01) (31, -3.25417430076276825712e-01) (32, 1.50000000000000000000e+03) (33, 2.59389594370838083570e-01) (34, 3.50245944037767344525e+02) (35, -1.13912379651917738954e+00) (36, 5.90176540247655793792e+02) (37, 8.02566789354646914489e+00) (38, -1.62719511323898546884e+00) (39, 1.36791955731843661859e-01) (40, 1.61805909179185580804e-01) (41, 4.79411483834261908932e-01) (42, 5.60249101135725680045e-01) (43, 8.77953654949917144945e-02) (44, 2.36163537888092776029e+01) (45, 1.17210869876103518372e-01) (46, 1.62062314537720908447e-01) (47, 2.99663937678581626667e-01) (48, -1.47997804603464100381e+00) (49, -2.82357043936125950978e+00) (50, 2.99896814400120392818e-01) (51, 4.78044792299219145626e-01) (52, 3.32096358446315687019e-01) (53, 1.94876723785991273763e-01) (54, 2.66199366231947787131e-01) (55, 3.52702130330892260623e-01) (56, -1.11231929872625290301e+00) (57, -3.78132501461296011147e-01) (58, 1.50000000000000000000e+03) (59, -1.11342602020244665906e-02) (60, 4.48458002950085754534e-01) (61, 2.19581544468185763108e+00) (62, 1.10198604976988258386e+03) (63, 1.01496297529890124878e+01) (64, -3.70315528807009464174e-01) (65, 4.14053798243753726216e-02) (66, 1.99523698590730380609e-01) (67, 6.80210056931143753900e+01) (68, 2.58132234069230359630e-01) (69, -5.61495255854614905289e-01) (70, -1.35564759110408189491e-01) (71, 2.10385363502179678630e-01) (72, 1.66815947694455679606e-01) (73, 3.09323958149200828327e-01) (74, 1.03434198300870597298e-01) (75, 4.78358045567572470746e-02) (76, 4.39938644790674127094e-01) (77, 3.79997965944685156536e-01) (78, 2.22337501720550417827e-01) (0, -1.28623397237902448165e-01) (1, -4.39663701199597689584e-02) (2, -8.36115525522894420529e-02) (3, 2.30181671364984824502e-01) (4, -4.75805112827882292770e-01) (5, -3.21914230617362306930e+00) (6, 1.50000000000000000000e+03) (7, -4.21001615464063130845e-02) (8, -2.60407749585434133976e+00) (9, 1.01728981869509094160e+00) (10, -3.26297685840705564697e-01) (11, -1.16197965695806071373e+00) (12, 1.21732798392178209745e+00) (13, 1.34636145137284946038e-01) (14, 1.28881227277253818109e-01) (15, -3.60052260118421452173e-01) (16, -4.61229591299110952551e-01) (17, -1.84919393954978111827e-01) (18, -6.47333202286986209018e-01) (19, -2.34971996380242770242e-01) (20, -5.27467243208021574485e-02) (21, -1.46657717891539196575e-01) (22, 6.58239578424384963462e-01) (23, -3.98165890808684785895e+00) (24, 5.65741236295538296730e-01) (25, -3.49834846454677161898e-01) (26, -4.90354029350958176003e-01) (27, -6.95579100593767818417e-01) (28, -1.96183717568020804523e-01) (29, 1.19971752019699451353e+00) (30, -6.51538216412740123218e-01) (31, -1.64118936287908678828e+00) (32, 1.50000000000000000000e+03) (33, -2.24861010496832575134e-01) (34, -1.05415459408222424997e+01) (35, -3.28825553043307849954e-01) (36, 3.31308154423837555869e-02) (37, -5.14052168946074150568e+00) (38, -5.46229235449068872832e-01) (39, 9.11790691838013644954e-02) (40, 1.45918022893403720452e-01) (41, -2.52680408823571900356e+00) (42, -4.56716801171013320193e-01) (43, -1.58774763452740330649e-01) (44, -2.27449569396636186447e-01) (45, -7.63528418839637124105e-02) (46, -2.53740258246725802760e-01) (47, -1.12337154833467137149e-01) (48, 1.68353739188703266372e+00) (49, -1.22011652562628931662e+01) (50, 3.41104559224226555614e-01) (51, -3.50630754726943549837e-01) (52, -2.94730009812063487029e-01) (53, -2.56287062156168088389e-01) (54, -2.80026607668755644909e-01) (55, -4.51303805451839790130e-01) (56, -7.95900179587258227443e-01) (57, -1.65783057456184879097e-01) (58, 1.50000000000000000000e+03) (59, -6.56213624036129129780e-03) (60, 1.55920751934432377794e+00) (61, 4.64403956973357956439e-02) (62, -1.25020902747508474984e-02) (63, -3.34773704274951233728e-01) (64, -3.24487140438047771962e-01) (65, 7.39194043502556796810e-02) (66, 6.26840815469972695295e-02) (67, 4.80346893556183207608e-01) (68, -3.29159253286536124250e+00) (69, -3.64048611367263241778e-01) (70, -3.37915120353640130446e-01) (71, -1.37861827310524986956e-01) (72, -7.35157448019609499612e-02) (73, -1.27699708343335965877e-01) (74, -3.57267715506825900285e-01) (75, -1.23715792428403918990e+01) (76, 1.00104321621164948919e-01) (77, -2.86109053374463351282e-01) (78, -2.04020323875187953311e-01) (0, -1.07670839494380854440e+00) (1, 3.93837557096854640193e-01) (2, -2.12131237803082323135e-01) (3, -1.91258124944876012341e-01) (4, -4.31345918819656781729e-01) (5, 1.73083937002725049559e-02) (6, 1.50000000000000000000e+03) (7, 1.44437760859188357720e-01) (8, -9.01496080638405139496e-01) (9, 9.13822248936961734067e-01) (10, 5.86247114253689460384e+02) (11, 1.52729110068866837935e+01) (12, -1.75730348728415919357e-01) (13, 1.36291944012394885405e-02) (14, 1.65164124272798251702e-01) (15, 1.68262118417663852910e+00) (16, 3.50918655660421618947e+00) (17, 4.29876513224590361961e-01) (18, -2.27861894886413374195e+00) (19, -1.75742859331081191510e-01) (20, -8.97242150578000802197e-02) (21, 1.15936367658539526970e-01) (22, 9.57895277137155276570e-01) (23, -5.32404326216045942211e-01) (24, -2.30007486195746979618e+00) (25, 8.07105485562028657220e-01) (26, 2.60571691106782621361e+00) (27, 9.97368015171176125477e-01) (28, -3.22245706644351648240e-01) (29, 7.68423843271991202641e-01) (30, -2.54846992396605820375e+00) (31, 3.91144304404469400627e-01) (32, 1.50000000000000000000e+03) (33, 1.88726292240389531552e-01) (34, 1.81202441604455324886e-02) (35, 4.40283426501590857693e-01) (36, 3.45477997760699395258e+02) (37, 2.93505380576362373546e+00) (38, -4.70720792739240723179e-01) (39, 1.44390221737359714105e-01) (40, 6.57171533033597543572e-02) (41, 8.72614069430754213386e+00) (42, 2.73747908944860021685e-02) (43, 7.37672407674276664480e-01) (44, 6.41261871839131192274e-01) (45, -2.38801747672262143496e-01) (46, -3.67897652201356839541e-01) (47, 1.29406091016693786111e-01) (48, -2.54159279555136041751e+00) (49, -1.45662223912063670817e+00) (50, -1.93775823931609747497e+00) (51, 6.66162851728142935137e-01) (52, 3.41049811163488703070e-01) (53, 2.95974750548404219597e-01) (54, -2.11013152162144085322e-01) (55, 6.00596746552978372202e-02) (56, -9.82291503903826024313e-02) (57, 6.23682071092018008862e-01) (58, 1.50000000000000000000e+03) (59, -1.39161482684136972310e-01) (60, -1.00083877185424302558e-01) (61, -1.66325298135313648373e+00) (62, 5.85589352888708276623e+02) (63, 5.73259165029318040752e+01) (64, -5.35637333648667501862e-01) (65, 1.97577845357392978265e-01) (66, 1.90131228469346713617e-01) (67, -1.71906595628405192144e+01) (68, -2.49714008724495339919e-01) (69, 7.01949337841679010808e-01) (70, -1.47317012851622575198e+00) (71, -4.74018060363898929843e-01) (72, -4.99506138958106693515e-01) (73, 1.93746468869610610763e-01) (74, 1.09102698062700720349e+00) (75, -3.90499853074659619701e-01) (76, -1.54168026033356708737e+00) (77, 7.53104808486747323570e-01) (78, -2.12571892446613036620e-01) (0, 4.27120241210670215093e-01) (1, 3.85322898195026852797e-01) (2, 2.61543590042771556536e-01) (3, 4.01436632193399589585e-01) (4, 3.85290812602156196309e-01) (5, -3.30187660036437735656e-01) (6, 1.50000000000000000000e+03) (7, 2.65554576965226496466e-01) (8, 1.16329828745789476407e+00) (9, 2.37328996938879654977e-01) (10, -1.35192657401782834192e+00) (11, 6.20634712354756867825e+00) (12, -7.20531060428122871464e-01) (13, 8.80832635388123508235e-02) (14, 1.14684362016652774408e-01) (15, 1.58474110555640756992e+00) (16, 1.43917626527004877124e-01) (17, -9.46444371548164076202e-02) (18, 3.59787025703864782322e-01) (19, 3.00933102401663210568e-01) (20, 4.12150847050119784054e-01) (21, 2.63996584329946437641e-01) (22, 3.94186502387415482751e-01) (23, 2.77633825149454616099e-01) (24, 1.96436734815752800376e-01) (25, 2.55647999581500695587e-01) (26, 2.11318379407794493252e-01) (27, 4.50860903088339703970e-01) (28, 3.28897078667984732459e-01) (29, 3.62620345941131738687e-01) (30, 2.19750983381988507226e-01) (31, -3.05054585151534052301e-01) (32, 1.50000000000000000000e+03) (33, 3.73846258315009061235e-01) (34, 3.93881914497560547961e-01) (35, 2.84481496754542539929e-01) (36, 3.58107599555968691973e+00) (37, 8.01534265543783419616e+00) (38, 3.08044671391957458617e-01) (39, 9.32576545104729648372e-02) (40, 8.05951916203248019954e-02) (41, -7.79861165148155593974e-02) (42, 1.92774624910884995188e+00) (43, 1.49910894888758694510e-01) (44, 7.40715491213441490359e-01) (45, 2.71882728984272348249e-01) (46, 3.52309410771047937239e-01) (47, 2.80104793419590325509e-01) (48, -9.11554461352370948291e-01) (49, -7.05689117059179193969e-02) (50, 3.26527688778528391023e-01) (51, 4.34593622919723199249e-01) (52, 3.61556085834394691503e-01) (53, 3.45583389063475410197e-01) (54, 3.95111035022916057269e-01) (55, 2.39394442633401816067e-01) (56, 3.85590800153677415452e-01) (57, -2.90505645130022804867e-01) (58, 1.50000000000000000000e+03) (59, 2.19338533042267053164e-01) (60, 9.10585202268115567747e-01) (61, 3.04576740742616702828e-01) (62, -1.16556336236006052864e+00) (63, 1.00398230465911044718e+01) (64, 1.67226177894118671619e-01) (65, 4.62051854059450442525e-02) (66, 6.98530264720665927669e-02) (67, 2.36611323882726126699e-01) (68, 1.28414475779901571251e+00) (69, 1.45973354639822913009e-04) (70, -1.13656939135060933155e-02) (71, 1.52123363599916433531e-01) (72, 2.58215533480783465681e-01) (73, 2.72097837284924148893e-01) (74, 1.17314551056864813106e+00) (75, 2.03376060782760492707e-01) (76, 2.02067116928192763714e-01) (77, 1.27276073967663799769e-01) (78, 3.34510906346379033316e-01) (0, 1.07427819902358856474e+00) (1, 2.07954822471772576842e-01) (2, 1.51974949818913851463e-01) (3, -4.57569932934389078660e-01) (4, -2.51299292371766180842e-01) (5, -2.11768195987158636129e+00) (6, 1.50000000000000000000e+03) (7, -3.08881555376519963130e-02) (8, -1.40905581840999283294e+00) (9, 6.53337009097727516860e-01) (10, -4.67090629053365957724e-01) (11, 1.63350414296884793863e+00) (12, -3.35033903862875626078e-01) (13, 1.77193295262788486077e-01) (14, 1.86884935997461032464e-01) (15, 1.69887874818633544116e+00) (16, 1.19991828963927216201e+00) (17, 8.24255979165400054498e-01) (18, 2.09705396150197120875e-01) (19, -5.40493870734413350831e-01) (20, -6.89378889857967580568e-01) (21, -4.39123631387084045752e-01) (22, 5.42769984718891040920e-01) (23, -2.32481779239280417215e+00) (24, 4.39873443860054724741e-01) (25, 5.44278915740128554218e-03) (26, 2.09247753476009057394e+00) (27, 3.11731615944812578967e-01) (28, 7.12189093370518486181e-03) (29, -1.89065997410212127683e+00) (30, -5.73537329240129789554e-01) (31, -7.89827470229962136372e-01) (32, 1.50000000000000000000e+03) (33, 3.19554679804577523861e-01) (34, -4.47569275791132148434e-01) (35, 9.12136114436447154041e-01) (36, 1.36706723426810894395e+00) (37, 3.31739918046102366667e-01) (38, -5.04332596186893300505e-01) (39, 1.22311700187658023431e-01) (40, 1.92009996674989413812e-01) (41, -9.70605607582970764113e-01) (42, 1.57121561924777275454e-01) (43, 7.45490303646880958510e-01) (44, -4.15671523151230637438e+00) (45, -5.62605752275095460924e-01) (46, -6.96607581005201814683e-01) (47, -5.55018923085371373993e-01) (48, -2.59114359057354404214e+00) (49, -1.29724918750984574700e+00) (50, 2.15530394239602046680e-01) (51, 1.07056303282748468964e-01) (52, 2.00359792426706828650e+00) (53, 7.89161606175786234374e-01) (54, 9.86028796256231548911e-02) (55, -5.04266544746849620928e-01) (56, -1.07693530547790933261e-01) (57, 8.30850594912467488307e-01) (58, 1.50000000000000000000e+03) (59, 5.35872625131393470754e-02) (60, -5.58545399125605634971e-01) (61, -8.20941990840773128113e-01) (62, 2.25504088375755173956e+00) (63, 4.87857849452071667962e-01) (64, -5.48136142525450620333e-01) (65, 7.28447549566971774837e-02) (66, 2.01090838812326144769e-01) (67, -1.31663915573048151408e+00) (68, 2.82264491125066352417e-01) (69, 1.50336427142386308553e+00) (70, 1.53614700350704874721e-01) (71, -5.67895096487235795379e-01) (72, -6.93530236131381760956e-01) (73, -5.45848539870420812470e-01) (74, 1.11711256322717766842e+00) (75, 8.20193830582085725567e-01) (76, 9.82208085463880387067e-01) (77, 2.23216530203806419463e-02) (78, -6.65629466888213339182e-01) (0, -1.57152759722736590220e+00) (1, -1.15222789747212206457e+00) (2, 3.10310449146737554749e-01) (3, 1.66481863808305596830e-01) (4, -1.25444912363338878514e-01) (5, 2.77274781668180647642e-01) (6, 1.50000000000000000000e+03) (7, -6.92537219224868133560e-02) (8, -6.35781605956471485008e-01) (9, -4.76563037584414539438e-01) (10, 1.50000000000000000000e+03) (11, 6.70082556028685072391e+00) (12, -7.80805408305444204053e-01) (13, 3.42824794873945529194e-02) (14, 8.49173404798256870052e-02) (15, 3.04749745296018481611e+01) (16, 9.24645332816243642471e-03) (17, 3.84085287165745858928e-01) (18, -8.03521118259322708610e-02) (19, 2.69909631469024469119e-01) (20, 3.75121671714557458621e-01) (21, 6.03649632286181320184e-02) (22, 8.26137399702194796802e-01) (23, 1.16296488767981178597e-02) (24, 7.99053245457727323586e-02) (25, 2.92878909193523218057e-01) (26, 3.32166560902164249569e+01) (27, 3.31952127939925460964e+01) (28, 3.55059377427768718682e-01) (29, 2.35839891621263980648e-01) (30, 1.49302457749883626947e-01) (31, -4.14025479984674260603e-01) (32, 1.50000000000000000000e+03) (33, -3.89001960714290620502e-02) (34, 3.17791754143845039948e+01) (35, -8.06189977599605755998e-01) (36, 1.50000000000000000000e+03) (37, 8.27176352933918579424e+00) (38, 2.01362712991700054666e-01) (39, 1.97413828276132297113e-01) (40, 3.34538780674688632222e-02) (41, 3.25435895770779382019e+00) (42, 8.32267029323812690400e-01) (43, 1.52670780463988520204e+00) (44, 2.72597732131343528650e+00) (45, 1.60552013887572508910e-01) (46, 1.00946314855027335922e-01) (47, -4.80744714955484500618e-02) (48, -4.30287677678145108473e+00) (49, -2.56682484948380240652e+00) (50, 4.68438395696569198634e-01) (51, 4.07695078335527261171e-01) (52, -8.59541118740423715217e-01) (53, 1.05473086414172953496e-01) (54, 2.54679393359228900540e-01) (55, 2.72870023291957197742e-01) (56, -1.59205584795844523605e+00) (57, -2.58701726139312360164e-01) (58, 1.50000000000000000000e+03) (59, -2.05635402555661428448e-01) (60, 1.77165056326043873769e-01) (61, -1.08767423674437724301e+00) (62, 1.50000000000000000000e+03) (63, 1.04070992087803837478e+01) (64, -5.59683293976010909354e-01) (65, 8.29922371134507175228e-02) (66, 1.49790655873750400140e-01) (67, -1.04655717744234522115e+01) (68, 1.90053790805381900286e-01) (69, -5.45090915617056248621e-01) (70, -8.00828692117976470577e-01) (71, 2.53942483612361880052e-01) (72, 1.56160281547370743960e-01) (73, 1.00624629565080461746e-01) (74, 6.08596372931324014477e-02) (75, -2.56688724512162368130e-02) (76, 2.00209493679738059768e+00) (77, 3.65582804257762461475e-01) (78, 3.07945957453020946470e-01) (0, 7.22135360524545771854e-02) (1, -3.17448888627186731615e-01) (2, 3.52666390844275201566e-01) (3, 4.02424586370031478477e-01) (4, -7.90857632137439869879e-01) (5, 5.84756519819281184169e+00) (6, 1.50000000000000000000e+03) (7, 3.99384524979749022666e-01) (8, 1.34307309112808792584e+00) (9, -3.17462161061753889157e+00) (10, 2.70483485854188216990e+01) (11, 6.24947410897828614651e+00) (12, 6.35980956543855491248e+00) (13, 1.47147607110475253656e-01) (14, 9.17923083159837525924e-03) (15, 1.14442997652267202113e+01) (16, -2.21547580563215051885e-01) (17, 2.96065926069960350109e-01) (18, 1.83155280649506591040e-01) (19, 2.33811814825858915734e-01) (20, 2.01602150242652738976e-01) (21, 2.56247306429269683381e-01) (22, -3.44405698729157938587e+00) (23, 5.29268980727483281945e-02) (24, 3.22911467786600292484e-01) (25, 3.07132319279654064648e-01) (26, 1.83097762155259111694e+01) (27, 1.42346723121157801017e+01) (28, 7.85262944539408147548e-01) (29, 1.36556617339730151928e-01) (30, 3.19464542855292354950e-01) (31, -3.97517465922510637721e-01) (32, 1.50000000000000000000e+03) (33, 3.03335447981156691721e-01) (34, 3.55973647796564648615e+02) (35, 2.04832859328757965756e+00) (36, 6.40781831874479337330e+01) (37, 8.00092490281427615173e+00) (38, 1.28131667092357265370e-01) (39, 1.34544249676202487542e-01) (40, 1.84472467802499484613e-01) (41, 3.88937050308639287177e-01) (42, 6.64628360185618327627e-01) (43, -1.00298338706241579876e-02) (44, 4.26486526432611015025e+01) (45, 2.41896047618183090977e-01) (46, 2.13900111045631474704e-01) (47, 3.46040736727886599766e-01) (48, -1.00549207484248270816e+00) (49, -2.71445043775683814147e+00) (50, 3.60686046850881292247e-01) (51, 4.07886556565466074087e-01) (52, 3.47083589780624979237e-01) (53, 2.57908263516692382034e-01) (54, 3.42345138221137379464e-01) (55, 1.66430517429208196800e-01) (56, -5.69223186038374517892e-01) (57, -4.22388208597474168471e-01) (58, 1.50000000000000000000e+03) (59, 3.38317250667815316856e-01) (60, 1.09603641508553035777e+01) (61, 5.92878429302928022793e+00) (62, 3.21324418524924553253e+01) (63, 9.95586830377434317541e+00) (64, -3.92581014432519359580e-01) (65, 1.27782885037397098138e-01) (66, 1.46165277861093234613e-01) (67, 2.10592102424963130147e+01) (68, 4.25760562708580647673e-01) (69, -5.72944109317542582538e-01) (70, -1.05074371656669773856e+00) (71, 3.62417291975204558518e-01) (72, 2.73941446221057982591e-01) (73, 2.66943131532469291045e-01) (74, 3.56635576939244747230e-01) (75, 2.45437662413386485649e-02) (76, 4.10500655794168389789e-01) (77, 3.81695287800520699495e-01) (78, 3.34525086170509189376e-01) (0, 3.53491840203463414394e-01) (1, 2.40207279906450549278e-01) (2, 2.97960337969603916708e-01) (3, -1.81071097620143756091e-01) (4, 4.67588278538139112683e-02) (5, -3.83137457825079552620e+00) (6, 1.50000000000000000000e+03) (7, 1.72784698900043248715e-01) (8, 3.05256327095273993777e+00) (9, -1.71345281592264564452e+00) (10, 1.10198918060070695901e+03) (11, 6.13376210705853974758e+00) (12, -4.13368151495799107664e+00) (13, 8.25884976014840122005e-02) (14, 1.64178248547052096917e-01) (15, 9.85675928237373355500e+00) (16, 2.61527999806492467139e-02) (17, 4.59533543708863956301e-01) (18, 1.45126625831598909944e-01) (19, 3.07844864509725701929e-01) (20, 2.43110904775285546764e-01) (21, 2.35547577056202411816e-01) (22, 1.00542622075466520082e-01) (23, -1.74199008594088405877e-01) (24, 3.16781124635190425298e-01) (25, 3.18319206707368240750e-01) (26, 5.94475202602663586049e+01) (27, 1.05891847088476680483e+01) (28, 4.80545077963032585266e-01) (29, -5.36745954080736886738e-01) (30, -3.05369419326527620495e-02) (31, -3.63645287517368798191e-01) (32, 1.50000000000000000000e+03) (33, 3.18884496956385155020e-01) (34, 7.06998124163015440047e+00) (35, 8.53861926363245343774e-02) (36, 1.06916801484993607119e+03) (37, 8.42327291906081754291e+00) (38, 5.93966847737497305459e-01) (39, 1.58215146563981723382e-01) (40, 2.11349018440000827046e-02) (41, 1.17522294164896057289e+00) (42, 6.22575480256075786123e-01) (43, 6.70133635030598973081e-01) (44, 2.31036054065050810991e+00) (45, 1.86339721072411729219e-01) (46, 2.31029886741137779893e-01) (47, 3.15680703356897129908e-01) (48, -1.08324934523582494528e+00) (49, -1.42505430551341905065e+00) (50, 5.99197179199899898627e-01) (51, 4.71350198261628550167e-01) (52, 3.48428264292418299330e-01) (53, 1.85721525809079607283e-01) (54, 2.72276723795930764016e-01) (55, 2.88815630867383134339e-02) (56, 4.39623685959128832068e-02) (57, -4.28379887559204142189e-01) (58, 1.50000000000000000000e+03) (59, 7.64602698335754699110e-02) (60, 4.03182029405393826949e-01) (61, -1.85614037819877703006e-01) (62, 1.10192375691837492013e+03) (63, 9.85732997208689276647e+00) (64, 2.70739698681873974806e-01) (65, 1.66432794235681247308e-01) (66, 1.35275568865274142816e-01) (67, -2.77991652956546708708e+00) (68, 2.40146884762067663877e-01) (69, 3.38437617031948079216e-01) (70, -6.59659073499181292100e-01) (71, 3.72514570375720277529e-01) (72, 2.21649931987563136859e-01) (73, 2.06787260457908322886e-01) (74, -1.55181396840653240687e+00) (75, -1.93561801742379357982e-01) (76, 3.73071764263402938511e-01) (77, 3.37911600259061306595e-01) (78, 2.92192041030675919711e-01) (0, -1.16376925304963532715e-01) (1, 1.40935024647733886383e-01) (2, 3.56519965366710378518e-01) (3, 1.48375971056746547294e-01) (4, 2.41369664238401143708e-01) (5, 3.43202798629382688222e-01) (6, 1.50000000000000000000e+03) (7, 3.39396813833974020369e-01) (8, -8.75599818338697266640e-01) (9, -6.45964420739523315085e-01) (10, 1.50000000000000000000e+03) (11, 8.97356983167770039245e+00) (12, 4.43931458371622178483e-01) (13, 4.13944721743814761372e-02) (14, 1.62019618377438716361e-02) (15, 8.47944996562939579121e+00) (16, 4.04138010978001560591e-01) (17, -2.48967216603808688680e-01) (18, 2.89920010923894855281e-01) (19, 2.67715638793860011280e-01) (20, 2.82270742870722346485e-01) (21, 3.09326464407287726743e-01) (22, 9.38661472471589708455e-01) (23, 1.40586453059993427006e-01) (24, 3.66031516680682733611e-01) (25, 3.80426338749257964000e-01) (26, 6.05502565889255439657e-01) (27, 4.39613552734118329113e+00) (28, 4.50576119996762003428e-01) (29, 1.09924951093007261527e-02) (30, 2.47297826360287686942e-01) (31, -2.60541543817502496694e-01) (32, 1.50000000000000000000e+03) (33, -1.37169341144645073882e-01) (34, 9.21028354244299740650e-01) (35, -5.42009945317833086165e-01) (36, 1.50000000000000000000e+03) (37, 8.41018798589908200825e+00) (38, 2.60271211720167761072e-01) (39, 1.82250645063852023675e-01) (40, 1.85820993088220309808e-01) (41, 3.67059366812795317969e+00) (42, 3.97784893608864764669e-01) (43, 2.34132227663989972433e-02) (44, 1.07072171988101882967e+00) (45, 2.65946877036570383801e-01) (46, 1.90667909417628150814e-01) (47, 3.99163814358554969175e-01) (48, 1.79005312457115622893e-01) (49, -9.23836751473391393219e-01) (50, -1.36361438489397079898e-01) (51, 3.72296697335569304332e-01) (52, 1.99572217788713500430e-02) (53, 2.99130222776442966648e-01) (54, 3.07744676867187705316e-01) (55, 2.57567316322451833610e-01) (56, 3.21425873666250250249e-01) (57, -2.94028253426019681172e-01) (58, 1.50000000000000000000e+03) (59, 2.33634852541534765447e-01) (60, 2.80804913913703046990e-01) (61, -5.06757758401901736711e-01) (62, 1.50000000000000000000e+03) (63, 1.40809373632983056979e+01) (64, 1.12450673238136053533e-01) (65, 5.71463481113664920064e-02) (66, 1.57954346440767001702e-01) (67, 1.20663030290590067573e+00) (68, 4.16972696359588057557e-01) (69, -1.15930279311669798270e-01) (70, 4.14666329729779958857e-01) (71, 3.41494446286928376999e-01) (72, 2.56441490391266069260e-01) (73, 3.76760499648891578062e-01) (74, 3.59344211536857138789e-01) (75, 1.47656361734018665155e-01) (76, -2.67081397137858944646e-01) (77, 3.91810093107305301707e-01) (78, 3.49392159744324692916e-01) (0, 4.60999455645202060872e-01) (1, 2.33430732410499719442e-01) (2, 2.09812627787889199871e-01) (3, 1.66706922850799271751e-01) (4, 2.37367979147604352130e-01) (5, 4.27395925348232064156e-02) (6, 1.50000000000000000000e+03) (7, 1.72461032017298343533e-01) (8, 4.70406279712722419362e-01) (9, -4.21100170358638614676e-01) (10, 1.50000000000000000000e+03) (11, 6.92585066563351858804e+00) (12, 1.53764195933564251639e+00) (13, 6.84476830587136264583e-02) (14, 9.94627215490090366146e-02) (15, 2.18306057330102021297e+01) (16, 8.15859314241702965331e-02) (17, 3.54565169006617275649e-01) (18, 3.31395158676737078274e-01) (19, 2.23288839107174036380e-01) (20, 1.87946980243343497730e-01) (21, 2.04542579017512826667e-01) (22, 3.14745762953623886560e-01) (23, 2.27556389392291918972e-01) (24, 2.73883229682135798111e-01) (25, 4.55709574236623948806e-01) (26, 1.96462998823772427848e+00) (27, 4.58921234236163222420e+00) (28, 3.72171427131713972170e-01) (29, 1.49012662883144714199e-01) (30, 2.56133999745185636510e-01) (31, -3.42093542494520397312e-01) (32, 1.50000000000000000000e+03) (33, 1.93350891127683083281e-01) (34, 6.85944606912752274930e-01) (35, -1.91861651569846608512e-01) (36, 1.50000000000000000000e+03) (37, 8.36348540285329633548e+00) (38, 2.10713198105331928067e-01) (39, 1.89034368895028781488e-01) (40, 2.00002085469697665765e-01) (41, 9.18270552255740057923e-01) (42, 6.48065732026315233227e-01) (43, 4.60008867407072752354e-01) (44, 8.44076054414353293964e-01) (45, -5.28383689126971312078e-01) (46, -4.15475765368941374334e-01) (47, 2.09141642128526483724e-01) (48, -1.08551360802442364850e+00) (49, -9.38189285093782632252e-01) (50, 3.62127764756734527030e-01) (51, 3.62864357843153184646e-01) (52, -2.22038199538381830767e-01) (53, -6.61809848737195394186e-01) (54, 3.06662179446279714590e-01) (55, 2.97563538972243080138e-01) (56, 3.60149613190068496049e-01) (57, -3.94481069544406703908e-01) (58, 1.50000000000000000000e+03) (59, -2.33764296689211475977e-01) (60, 3.92307823338119421308e-01) (61, -5.47480661851791450268e-01) (62, 1.50000000000000000000e+03) (63, 1.01673462352258265895e+01) (64, -3.84270203317642472518e-02) (65, 2.87548788413755709858e-02) (66, 1.82553585670922946527e-01) (67, 4.75834388674477637426e-01) (68, 1.50792563420733660706e-01) (69, -3.15449517100961585037e-01) (70, 1.29860575710817549577e-01) (71, -5.01950677034159742362e-01) (72, -4.29373751875659126487e-01) (73, 3.76623317872583185384e-01) (74, -1.98204043771434829102e-01) (75, 3.02902354350676916717e-01) (76, 1.25090282900825966461e-01) (77, 3.11186076636755626357e-01) (78, 3.96237681691647636306e-01) (0, -1.52848931001667465157e-01) (1, 5.92316445414440839734e-02) (2, 1.20298449712523305988e-01) (3, -1.62133644181477770685e-01) (4, -2.31838491473128377462e-01) (5, -1.40076259739179281860e-01) (6, 1.50000000000000000000e+03) (7, -5.57753652186728787754e-01) (8, 6.09031912536093900101e-01) (9, 7.18645390321721144744e-01) (10, -1.00876251197544020144e+00) (11, -4.35493831695821853600e+00) (12, -1.01700089606562986688e+01) (13, 9.04375576004731174251e-02) (14, 8.33625831231820102474e-02) (15, 4.22944718712228107105e-01) (16, 2.73946703650124356866e-01) (17, -8.63394557207104174079e-02) (18, -3.08734350631402254539e-01) (19, -1.44250389394508460317e-01) (20, -1.64097395000206092153e-01) (21, -1.11073740807058715663e-01) (22, -2.71897726132711736735e-01) (23, -4.20322346948349467866e-01) (24, 2.89763683578798780793e-01) (25, 1.25942633748454713150e-01) (26, 3.16050215907840326146e-01) (27, -2.45937394607820547510e-01) (28, -1.86563211480814450383e-01) (29, -7.84780799435188414215e-01) (30, -7.73880273598610557428e-01) (31, 1.67077238385821974509e-01) (32, 1.50000000000000000000e+03) (33, -3.30441955949999144337e-01) (34, -1.86693172839372728555e-01) (35, -9.26503563907880578476e-02) (36, 3.17127774059011491303e-01) (37, 2.14589119537039341168e+00) (38, -3.96691108838623629484e-01) (39, 1.21680978737806033685e-01) (40, 1.91546570561860751702e-01) (41, 2.72850701263435635457e-01) (42, 2.85925842983220213078e-01) (43, 4.04055370227463628297e-01) (44, 2.22709886942973245283e+00) (45, -2.79768551387795438856e-01) (46, -2.99090056368121248731e-01) (47, -1.81872153991112783800e-01) (48, -4.17299833070462344864e+00) (49, 3.05963238324106967525e+00) (50, -5.03930686424937657186e-01) (51, 1.05625039082318128436e-01) (52, -3.67820147915721651355e-01) (53, -4.03117229124363915527e-02) (54, -9.15591862346473370216e-03) (55, -3.50976375230084070012e-01) (56, -1.92887224611433455435e-01) (57, 1.95250816254475684230e-01) (58, 1.50000000000000000000e+03) (59, -1.91525679253208902519e-01) (60, -1.84466917187146162149e+00) (61, -1.04516667846735605840e-01) (62, 4.29557578209899446620e+01) (63, -1.03983511963394601452e+01) (64, -4.44404508440692957993e-01) (65, 6.07850328609697634907e-02) (66, 1.13372791610692691400e-01) (67, -2.90389437889684243199e-01) (68, 4.09681158412631030163e-01) (69, -1.03535480598871698632e+00) (70, -1.82567637166074943356e-02) (71, -2.10791089971401113257e-01) (72, -2.60066465874053853735e-01) (73, -1.36809850448021963487e-01) (74, -3.64074559508202055813e-01) (75, 4.28997601805319150881e-01) (76, -2.94938501114667683822e+00) (77, -2.92387764362756319425e-01) (78, -1.59393371875088757372e-01) (0, -5.78747976157578447598e-01) (1, 1.39754007676962804796e-01) (2, 1.00412485365755921318e-02) (3, -1.77297117828340011769e-01) (4, -2.57465411396267440658e-01) (5, -9.17851904018664788154e-01) (6, 1.50000000000000000000e+03) (7, -2.37127581811508225673e-01) (8, 1.24786068655279552830e-01) (9, -2.32001270452899044372e+00) (10, 1.19046462142474340773e+00) (11, 1.47751786577889232532e+00) (12, -1.08473660090521728527e+00) (13, 1.11268896661733340814e-01) (14, 1.95515569351648044183e-01) (15, 7.65717790529507391639e-01) (16, 1.15144050359219041191e-01) (17, -1.16439136927852926462e+00) (18, -5.12842844981016621198e-01) (19, -7.74893821378501018726e-02) (20, -1.38962587823465599790e-01) (21, 5.02337162594256453341e-02) (22, 1.27463987685827784269e-01) (23, -9.21739499893232255845e-02) (24, -1.09123118474447156068e+00) (25, 8.03721272325507718470e-01) (26, 7.06339616089183941483e-01) (27, 4.62190955507746414899e-01) (28, -3.97178906296865197323e-01) (29, -5.97488453208283587514e-01) (30, -7.52801027408921963335e-01) (31, -1.41711289537070905808e+00) (32, 1.50000000000000000000e+03) (33, 2.10089167287568490128e-01) (34, -7.43310857523641788092e-01) (35, -3.61467962953806898341e-01) (36, 8.93317478677999932124e-01) (37, 8.06070065053817508272e-01) (38, -6.26252480957696144870e-01) (39, 1.49728607438539218499e-01) (40, 1.88120629690622043206e-01) (41, -2.03026816450694402860e+00) (42, -3.20670850537970730798e-01) (43, 7.34132363282347988331e-01) (44, 1.43434211631550811994e+00) (45, -3.63635872830862627580e-01) (46, -2.32221347620005291734e-01) (47, -8.37127248545231766874e-02) (48, -5.35305751164827015032e+00) (49, 1.94993190043898501074e+00) (50, -8.00404570470417131567e-01) (51, 7.47603563329774511992e-01) (52, -3.89854594771827533961e+00) (53, -4.15647997043466999045e-01) (54, -2.35231711668654364100e-01) (55, -3.48077429326786202957e-01) (56, -3.58343890229921968604e-01) (57, 9.26244132609117531985e-02) (58, 1.50000000000000000000e+03) (59, -8.37076304448153563076e-02) (60, -4.81819940963820192437e-01) (61, -2.39650770256434747507e-01) (62, 9.01108844256979901743e-01) (63, 7.77296185578974174746e-01) (64, -6.37639070844575384100e-01) (65, 1.22178141079877566888e-01) (66, 1.47310238383744906976e-01) (67, -2.76809305078047032111e+01) (68, 2.97518555360492209516e-01) (69, -2.11599298493661880372e-01) (70, -5.19709337289263384463e-01) (71, -2.56940471403789727489e-01) (72, -3.60493040107679574291e-01) (73, -6.29896948834004488660e-02) (74, -1.19221934827605635654e+00) (75, -6.98367313983345172623e-02) (76, -1.04935401300797370716e+00) (77, 7.85589104227975121297e-01) (78, 5.52518593063131002729e-02) (0, 4.72313055261654568540e-01) (1, 3.37258544110999647359e-01) (2, 3.14437541103871009973e-01) (3, 2.89589354478216765010e-01) (4, 3.13572630506578742260e-01) (5, -4.79859399474890299664e-02) (6, 1.50000000000000000000e+03) (7, 2.42861563028315408097e-01) (8, 2.45794031254913634965e-02) (9, 1.56016070824728347866e-01) (10, 6.11441635103982093824e+02) (11, 6.30001495854474580227e+00) (12, -1.54239044416017923034e+00) (13, 1.30056928895448398187e-01) (14, 1.66134681604837131097e-01) (15, 9.83097691910750981492e+00) (16, -1.33013224432465878427e-02) (17, 2.52183989812220454851e-01) (18, 3.20383072923353884320e-01) (19, 2.51562628102118213125e-01) (20, 2.63592234951073367544e-01) (21, 2.50814696827296623738e-01) (22, -1.62255591445975178022e-01) (23, 2.60309576584229207530e-01) (24, 3.97531450760752635976e-01) (25, 2.64043938599390681787e-01) (26, 1.49011457363681709687e+00) (27, 1.51411682179152751182e+00) (28, 4.48007175280931091432e-01) (29, 1.42119085220056229346e-01) (30, 3.51285500282561169438e-01) (31, -2.73722440871870087431e-01) (32, 1.50000000000000000000e+03) (33, 3.71279567694053291849e-01) (34, 4.39064631168623153989e-01) (35, 3.61282068070437667462e-01) (36, 3.50370589842178389972e+02) (37, 7.97150313373172902942e+00) (38, -2.83380122046041960093e-01) (39, 1.78300406836007785394e-01) (40, 1.94273497961496066644e-01) (41, 8.29662334760274816636e-02) (42, 6.05454053494925426016e-01) (43, 3.39160218057081186416e-01) (44, 7.93468759471159357233e-01) (45, 3.14398927618026957642e-01) (46, 3.77204557884693369996e-01) (47, 3.59570117958364909860e-01) (48, -1.55251935890385689421e-01) (49, -8.86626996877621254001e-01) (50, 2.79960715323816389244e-01) (51, 2.88266438697926341561e-01) (52, 3.15283777130336673178e-01) (53, 3.30398186387821812815e-01) (54, 3.40942405072265253274e-01) (55, 4.23767348594781323445e-01) (56, 3.25742653442467833269e-01) (57, -4.67333103584765707783e-01) (58, 1.50000000000000000000e+03) (59, 4.51229619584294777690e-02) (60, 3.94756370233339370923e-01) (61, 1.20125045153091733474e-01) (62, 6.14828656149824837485e+02) (63, 9.82058664411161963415e+00) (64, -4.71432893075555581319e-01) (65, 6.42422587201347122798e-02) (66, 1.89083554372541581823e-02) (67, -8.62586485526598001350e-01) (68, 4.52097060836470221457e-01) (69, 2.60567233749611160132e-01) (70, 1.10891914440492830862e-01) (71, 1.27597989870086914177e-01) (72, 2.53054401261583461480e-01) (73, 3.34350573190031474802e-01) (74, -4.54984632601262317664e-01) (75, 4.38803396560741465482e-01) (76, 1.73664465319012056854e-01) (77, 6.26371463446361020910e-02) (78, 3.26247685051421210112e-01) (0, 1.76673827777417524754e-01) (1, 8.34322190363566557059e-02) (2, -4.35635450149793268526e-01) (3, -1.48786238034111006900e-01) (4, 2.05679481731942254141e-01) (5, 5.87645501136184411628e-01) (6, 1.50000000000000000000e+03) (7, 2.81699851494099984262e-01) (8, -2.76729187900046191828e+00) (9, -2.09789014929424366684e-01) (10, -2.58686219199291031146e+02) (11, -4.24644002141851661936e-01) (12, -3.96520797436697436389e-01) (13, 6.15231358036749179097e-02) (14, 1.18609476886724185540e-01) (15, -2.32028623393150468246e+00) (16, -2.70877676581709747605e-02) (17, -2.44649653186468862831e-01) (18, 2.14212926138180714819e-01) (19, 6.00372735580075173045e-02) (20, 1.21150079758988629686e-01) (21, -1.65913900671792485797e-01) (22, 1.06700845608336994386e-01) (23, -6.35303585530339609555e-02) (24, 1.55263920299921143187e-01) (25, 3.63956566730335093207e-02) (26, -1.02296168797986375409e+00) (27, -1.17837518401709506755e+00) (28, 3.23879550105983349262e-01) (29, -1.90957047666492418792e+00) (30, 1.03728895891510450311e-01) (31, 5.42142453924075229388e-01) (32, 1.50000000000000000000e+03) (33, 2.36918535374480182520e-01) (34, 2.60902103672756291441e-01) (35, 3.23577937817178640234e-01) (36, -7.09213011222940359346e+00) (37, 6.55853097642915017218e+00) (38, 9.84562700931844170249e-02) (39, 3.04843597635977084370e-02) (40, 4.99394611046068484517e-02) (41, 8.07005264921913934018e-01) (42, -1.62663453441124516985e+00) (43, -7.10002845629149947904e-01) (44, 2.42519848033682627886e+00) (45, 2.04525525120939966062e-01) (46, 2.62434283642020038663e-01) (47, 1.55590624936387478261e-01) (48, -8.93100887022974521123e-02) (49, -1.15385285016852723317e+00) (50, 3.48263947573895615850e-01) (51, 1.05133359685168070730e-01) (52, -6.76490244782590455230e-01) (53, 1.74252988646002165973e-01) (54, -1.29538258403336770108e-01) (55, -5.22266498873776807699e+00) (56, 4.31473997555922972325e-01) (57, -3.17818828428476030101e-01) (58, 1.50000000000000000000e+03) (59, 8.75354727354197836853e-02) (60, -1.11527543359855263461e+00) (61, 5.40666743308574448967e-01) (62, -4.65339756605597358430e+02) (63, 7.25870589928373011190e+00) (64, 2.61180336990888994908e-01) (65, 8.59248154387223239681e-02) (66, 3.75876389965765292378e-02) (67, -1.44731550288557664352e+00) (68, -3.88866938306232867717e-01) (69, -7.07470589246637748815e-01) (70, 6.40911538642023465018e-02) (71, 2.85916408471060867758e-01) (72, 2.20341702870322564412e-01) (73, 8.72535464338876631807e-02) (74, 3.38217507138562467617e-01) (75, -3.07579868025168234880e+00) (76, 2.50450407630807947434e-01) (77, 2.54256420377958369805e-01) (78, 1.19090358120111788898e-01) (0, 3.91915117765280096584e-01) (1, 3.66708254776844599920e-01) (2, 2.90849749887426456407e-01) (3, -7.86578739497697521088e-01) (4, 7.89779965200197858755e-02) (5, -2.08437867911843843771e+00) (6, 1.50000000000000000000e+03) (7, 2.56234075262303184761e-01) (8, -4.13263889698776409887e+00) (9, -6.09673961373535105990e-03) (10, 2.10339592208341130686e+01) (11, 4.96800666610211116847e+00) (12, -4.09694866169167770664e+00) (13, 1.77146088384126376702e-01) (14, 1.93452309869264316156e-01) (15, 8.76513746326359566297e+00) (16, 3.05000646796875773958e-01) (17, 3.62504012694224775348e-01) (18, -8.16957899448126467767e-01) (19, 1.12068190829083869087e-01) (20, 1.59152537242696179298e-01) (21, 1.29256079941921731002e-01) (22, -5.78797499415946492540e-01) (23, -8.88251025737512578395e-01) (24, -3.51711923953359761885e-01) (25, 4.87434317908006120579e-01) (26, 3.79295024018000692667e-01) (27, 8.66917097881792275693e-01) (28, 2.80214069087490802445e-01) (29, 1.61581911304022796116e+00) (30, -4.59599737385954443258e-01) (31, 1.18396837037596430742e-01) (32, 1.50000000000000000000e+03) (33, -8.18388151933159058160e-01) (34, -1.51633394088875717021e-01) (35, 3.70639573213558282117e-01) (36, 1.58397836608250969448e+02) (37, 6.83851127706339756429e+00) (38, -1.14541179679739868469e-01) (39, 1.98997270368074130609e-01) (40, 4.65639196858160311909e-02) (41, 4.81579433675512280644e+00) (42, 1.97285821822220008848e+00) (43, 7.05630545570763767493e-01) (44, -1.03629645004061438085e-01) (45, 2.39301882738656795935e-01) (46, 1.58218681866712285178e-01) (47, 1.76304656556595273909e-01) (48, 2.34926723574674145567e-01) (49, -1.46767403307470312157e+00) (50, -3.86676328001253788447e-01) (51, 4.67688092657639831184e-01) (52, 4.57313237286208706944e-01) (53, 3.27601598111999625651e-01) (54, 3.24543007087959300971e-01) (55, -2.25155259731535295487e+00) (56, -1.20998145729311978869e+00) (57, 2.97004457833559165625e-01) (58, 1.50000000000000000000e+03) (59, 3.68767017763841686850e-01) (60, -2.59055534415100874313e-01) (61, 2.00429734934520098477e+00) (62, 2.88818322624431615964e+01) (63, 1.06764131676793638803e+01) (64, -1.56871634553954231173e+00) (65, 1.13147642515634250238e-01) (66, 1.71669136785005282952e-01) (67, 3.71558476352743971560e+00) (68, 1.89311272445508604889e-01) (69, 4.29643194421606366973e-01) (70, 3.36874508387480064986e-01) (71, 1.44012204291696366276e-01) (72, 1.02294265212888438321e-01) (73, 1.34207818201530909574e-01) (74, 2.51137871569469761646e-01) (75, -6.18673139022877127680e-01) (76, -1.55582429743342220974e+00) (77, 3.97915825596447891854e-01) (78, 2.69052556160505329519e-01) (0, -1.61862735657521017441e-01) (1, -5.49607633091313274587e-02) (2, -5.93808458910130981812e-02) (3, 3.22539281966723254125e-02) (4, -1.50633750406619193463e-01) (5, 2.19725980678904617843e-03) (6, 1.50000000000000000000e+03) (7, -1.90521697369323922411e-01) (8, 4.49314190523939227528e-01) (9, -3.62263520808969383125e-02) (10, -5.83272871162162573455e+02) (11, -3.57797168216597540891e+01) (12, 1.65769667292504323086e+02) (13, 1.75290700100396823480e-01) (14, 1.00901090130558947905e-02) (15, 2.14135739375482470059e-01) (16, 4.38493572670478282127e-01) (17, -8.43862687146745976685e-02) (18, 4.38182864393458082475e+00) (19, -1.83184143026963480727e-01) (20, -2.38682847341195408797e-01) (21, -2.06536697901459925797e-01) (22, -2.05290702860821905329e-01) (23, -6.01812473985579798885e-01) (24, -3.95125278696689397062e-01) (25, -4.76624518205535196991e-01) (26, 4.94021137184767755723e-01) (27, 1.87226165435960045791e-01) (28, -1.20301323776096341645e-01) (29, -3.32030720741473994728e-01) (30, -1.02234111652800177539e-01) (31, 3.19470452676800020786e-01) (32, 1.50000000000000000000e+03) (33, -3.03044710726805444079e-01) (34, -3.94450506923083143995e-01) (35, -1.32389230132558766151e-01) (36, -2.44343038548236251017e+01) (37, -1.40592856144157529741e+00) (38, -4.42848001843401450905e-01) (39, 1.58369284175370883538e-01) (40, 1.17241703495732287749e-02) (41, 1.89533733020105288336e-01) (42, 1.17261910258396184759e+00) (43, 3.32891281132552230293e-01) (44, -1.17330539376830222942e+00) (45, -2.94443367375947839815e-01) (46, -1.13394452585794364152e-01) (47, -2.18148244331884816338e-01) (48, 2.37210407962507585644e-01) (49, -2.56309989442739061261e+00) (50, -2.79465333824359229986e-01) (51, -5.51894162985034242297e-01) (52, 1.30340341348941096689e-01) (53, 2.97999614574348779816e-02) (54, 2.24406656174113317004e-01) (55, -9.77099980759316560919e-02) (56, 1.44156771579104309167e-01) (57, 3.38455216827750871023e-01) (58, 1.50000000000000000000e+03) (59, -3.45427370041225367814e-01) (60, 9.01742531944686120937e-01) (61, -1.16603246267467608455e+00) (62, -1.46705645863931636086e+02) (63, -2.99281029717095847786e+01) (64, -5.46099759629988135146e-01) (65, 1.01858276926015567376e-01) (66, 3.14424671754591281148e-02) (67, -1.69323371427240743081e+00) (68, 4.08933850262397147191e-01) (69, 4.80067060220283392535e-01) (70, 4.11431157730334540190e+00) (71, -2.56499951543330106940e-01) (72, -3.15608991147994399906e-01) (73, -1.20021611475820980108e-01) (74, 1.17310353092972149969e-01) (75, -1.14106941241297343836e+00) (76, -2.98293099125200855681e-01) (77, -1.28048599062250190173e+00) (78, -9.21681118455773967790e-02) (0, 3.59814169963638741390e-01) (1, 7.80421089482482233102e-01) (2, 2.19147752277544932697e-02) (3, -2.65947751723076830643e-01) (4, -1.94574731346119078612e-01) (5, -2.38884866384986072063e+00) (6, 1.50000000000000000000e+03) (7, -4.69269974293815769761e-02) (8, -1.11366783833886384691e+00) (9, 1.01885276982219541431e+00) (10, 7.30758178369883637515e+01) (11, 6.07336764359281389147e+00) (12, -5.86751553201357189948e-01) (13, 3.35827507600538546773e-02) (14, 1.24615747533773135736e-01) (15, 8.31243805253367051833e-01) (16, 1.08795998338833221908e+00) (17, 5.96119089260107259953e-01) (18, 3.85970743286818240847e-01) (19, -2.61419265671841094534e-01) (20, -1.55511445506684164997e-01) (21, -1.58102287920319217740e-01) (22, -1.75861555723042267685e-01) (23, 3.25503802582979666347e-04) (24, -3.72652097596837816873e-01) (25, 2.05618282266837537620e-01) (26, 1.31364808061252635873e+00) (27, 8.33792981128289478754e-01) (28, 2.06802600316424341209e-02) (29, -2.92629760749568756939e-01) (30, -1.11456731939987188640e-01) (31, 5.55594069930518075218e-01) (32, 1.50000000000000000000e+03) (33, 3.74017726784504844773e-01) (34, -6.75896670822473177864e-01) (35, -1.10217540512160172561e+00) (36, 2.34537635416893008866e+00) (37, 5.23300291950905904770e+00) (38, 2.11586091669178799624e-01) (39, 1.42845194838975619867e-01) (40, 9.83921476230370517513e-02) (41, 9.58427126858706568413e-01) (42, 6.47452444532243265307e-01) (43, 1.22321890041410563654e+00) (44, -2.34722082456980535303e-01) (45, -2.49499454199171771807e-01) (46, -1.15956197528935281427e-01) (47, -2.47340459977670484859e-01) (48, -9.64691216194657752414e-02) (49, 6.64781628663860812978e-01) (50, -2.73789202779054663406e-01) (51, 8.50563467851972454525e-02) (52, 7.12641721015192963762e-01) (53, 5.05373526682516782671e-01) (54, -1.10121271264193493211e-01) (55, -2.07331424423060267648e-01) (56, -2.70397267464097201817e-01) (57, 7.33774961539275683009e-01) (58, 1.50000000000000000000e+03) (59, 4.09746368651769332647e-01) (60, -2.71906680921829346786e-01) (61, -2.52587203567287033046e-01) (62, 3.06236899823496493411e+01) (63, 4.44080470194193122069e+00) (64, -3.44337508522068791450e-01) (65, 1.68576192162965488031e-01) (66, 1.59248720906709384515e-01) (67, -1.38094263331349997870e+00) (68, 5.36852719803390887598e-01) (69, 4.67296759766364089295e-01) (70, 3.84184330945297192184e-01) (71, -3.15354328540696005057e-01) (72, -1.59634072271717969427e-01) (73, -1.47007749085708655512e-01) (74, -1.26039475589008020950e-01) (75, 2.53143645731737920723e-01) (76, 1.62528899218973787999e-01) (77, 8.67106114882733730598e-02) (78, -3.67400042237531962441e-02) (0, -1.20244233153775054168e-01) (1, 2.65984077291416154409e-01) (2, -1.62290597171340267302e+00) (3, -7.14102153798585881361e-01) (4, -3.75260327556799999638e-01) (5, -4.19907716244184570087e+01) (6, 1.50000000000000000000e+03) (7, 1.55570882771311827519e-02) (8, -2.07667084188972017600e+00) (9, 7.54039294487368838560e-01) (10, -1.58893750688923915959e+01) (11, -5.45374939753610066262e-01) (12, -1.54164456335580646318e+00) (13, 1.79560747049783420159e-01) (14, 1.76794271968339633538e-01) (15, 2.54739039227561414602e-01) (16, 4.41657569545385042531e-01) (17, -7.44146110599891774662e-01) (18, -5.34507948498240015311e-01) (19, -9.10682552438963482944e-02) (20, 5.10627529639016072838e-02) (21, 3.24878382977224156036e-01) (22, 7.62311550111191282841e-02) (23, -4.74782948598486953529e+00) (24, 1.00327188878276837847e-01) (25, -3.73573345719738991733e-01) (26, -3.11445715004869150278e+00) (27, -6.74821316951205751877e+00) (28, -3.54775729106725667972e-01) (29, -2.59637402302912478902e+00) (30, 5.09266451460543390084e-01) (31, -3.83237281328975554207e-04) (32, 1.50000000000000000000e+03) (33, -1.29820883182643265208e+00) (34, 4.28644584491781888147e-02) (35, -3.05327058500309389544e-01) (36, 7.31157204296045470926e+00) (37, 3.93430748688967546478e-01) (38, -6.45398526908566805282e-01) (39, 5.72625734433882052632e-02) (40, 1.11314375005696963861e-01) (41, -3.61023613974999491028e-01) (42, -4.02635514388511694950e-01) (43, -3.80381122568922980243e-01) (44, -3.55600046545007320020e-01) (45, -2.18507129706858843621e-01) (46, -1.45371031023978275476e-01) (47, 1.39904016816322784855e+00) (48, 3.48348400567153682061e+00) (49, -3.07613452838314183069e+00) (50, 3.29355105800301084518e-01) (51, -3.73863665043278725619e-01) (52, -4.25360724345340224239e-01) (53, -2.38089024334749377321e-01) (54, -1.14094477194506760398e+00) (55, -4.21722933613940842434e+00) (56, -2.47026110808067855817e-01) (57, -5.24362784934064185549e-01) (58, 1.50000000000000000000e+03) (59, -1.32633933005781368131e+00) (60, -1.44112935759071225661e+00) (61, -1.99918161811461669863e+00) (62, 6.29932743456631971668e-01) (63, 5.17956550257533399062e-01) (64, -1.18211851848051896496e+00) (65, 1.22318703733419131829e-01) (66, 1.09637189708684634759e-01) (67, -3.44455769993656758743e+02) (68, -1.96740033270341924121e-01) (69, -8.26319910879735219922e-01) (70, -2.38103868327120782311e+00) (71, -2.42481751590190391932e-01) (72, -1.83706535249171742930e-01) (73, 1.34643735551540810746e+00) (74, -6.60972526497434209602e+00) (75, -1.76866952392969167818e+00) (76, -3.73412525432811504000e-01) (77, -2.58697011235492602133e-01) (78, -3.82433630169731919590e-01) (0, 3.13961102493114430079e-01) (1, 5.72860102605550411403e-02) (2, 2.66399195096931551419e-01) (3, 3.82898330689377119906e-01) (4, -4.26592530133638805911e-02) (5, -4.11892728905800864503e-01) (6, 1.50000000000000000000e+03) (7, 4.99251665501318914187e-02) (8, 1.33144528331935596555e+00) (9, -1.86303611192896151350e-01) (10, 6.94731664938586561675e+01) (11, 7.10198711056815312759e+00) (12, 1.85261738362412753389e+00) (13, 1.96612965367768954827e-01) (14, 1.73552896879647922113e-01) (15, 2.48216608538178320487e+01) (16, -3.98033753466518896991e-02) (17, 2.96665573999453924259e-01) (18, 3.02715034901708313075e-01) (19, 3.85587811477735409316e-01) (20, 2.44850378491237502532e-01) (21, 2.85404255317873722930e-01) (22, 3.56390658226362233574e-01) (23, 2.90427229837323219730e-01) (24, 2.16184305403186477479e-01) (25, 4.07676575197927659744e-01) (26, 1.44516374195532715241e+00) (27, 3.50472699543743049233e+00) (28, 3.37984277875246152956e-01) (29, 1.44705788107405142195e-01) (30, 3.61045118398702014062e-01) (31, -4.04081673297560173275e-01) (32, 1.50000000000000000000e+03) (33, 2.26639993976627568406e-01) (34, 4.18644284008651168527e-01) (35, 2.61830787184504920617e-01) (36, 2.16278008706913055903e+02) (37, 8.52164903670751172626e+00) (38, 4.00572271469460117199e-01) (39, 8.89108963832604404232e-02) (40, 2.47643627748243624898e-02) (41, -1.02009372866044900618e+00) (42, 6.16207175247549976405e-01) (43, 5.28059573905764745305e-01) (44, 1.26162626246662101792e+00) (45, 2.15063022167988060485e-01) (46, 1.43807904513187284623e-01) (47, 2.66463491210586767011e-01) (48, -1.57751340616267854422e+00) (49, -1.04811872179950826833e+00) (50, 2.51806194019999984857e-01) (51, 3.73471727087251847976e-01) (52, 3.38435993010659519342e-01) (53, 1.45305590253668098777e-01) (54, 3.38307267690857338405e-01) (55, 2.56597417445022457638e-01) (56, 2.91064513412369996193e-01) (57, -3.51327018656520773110e-01) (58, 1.50000000000000000000e+03) (59, -1.01412041404425279367e-01) (60, 2.50258704467195780552e-01) (61, -7.86794725127961669386e-01) (62, 6.64723488419083139433e+01) (63, 1.00282494015051906189e+01) (64, 2.14537307718716901972e-01) (65, 5.21687642261736209126e-02) (66, 9.97097753510224338314e-02) (67, 5.60653208346279852137e-01) (68, 5.87798776782667786733e-01) (69, -2.21899714648298107544e-01) (70, 1.48470155213699994690e-01) (71, 1.73680844459462191409e-01) (72, 9.27372674679037278800e-02) (73, 2.21737820749521002961e-01) (74, 1.11993900588936406981e-01) (75, 3.12449952896756921739e-01) (76, 1.93439114961509700530e-01) (77, 1.15376088594643599894e-01) (78, 3.25020338902669958525e-01) (0, 2.56794781133725225075e-01) (1, 2.95812951861274153753e-01) (2, -1.37621576218816626946e-01) (3, -1.08088037897513172814e-01) (4, -2.29110222072382935243e-01) (5, -4.42860165833077121245e-02) (6, 1.50000000000000000000e+03) (7, -3.32230841180079394803e-01) (8, -2.63887370795772113752e+00) (9, 6.30961964231814498305e+00) (10, 2.46146364597254629913e+00) (11, 1.97976828565790755055e-02) (12, -2.47484992585885965610e-01) (13, 9.29356106147515292903e-02) (14, 6.80597834810959811946e-02) (15, 7.39349936326213819093e-01) (16, 3.47602413303615409568e-01) (17, 4.40880060122250894139e-01) (18, 1.31881668957895059613e+00) (19, -1.44606308085711204869e-01) (20, -1.35907084686548912389e-01) (21, -1.17920950312176864294e-01) (22, -2.53081752261382839087e-02) (23, -4.18468952060991716824e-01) (24, -2.56722454840474512139e-01) (25, -2.10047282322775585861e-02) (26, 2.23891106795154226639e-01) (27, -1.26994555326237668069e+00) (28, -1.26633687266982569719e-01) (29, -2.40343136024829900910e-01) (30, -2.74511429760817604606e-01) (31, 2.73982388362682349747e-01) (32, 1.50000000000000000000e+03) (33, 3.46389065772432558354e-01) (34, 5.02525729542980137410e-01) (35, 9.84585709905752004545e-01) (36, 2.34070444497358254310e+00) (37, 4.58827275978547166613e-01) (38, -3.54749143125355492767e-01) (39, 1.28374237619374942376e-01) (40, 8.49905573353516574642e-02) (41, 4.91448623495699066233e-01) (42, 3.25607799328378022530e-01) (43, 2.81118937753862763174e-01) (44, -4.62007419875118452435e-01) (45, -1.27208725543571821159e-01) (46, -1.41373307438446393913e-01) (47, -1.83983819269041226629e-01) (48, -1.05432199838795204183e-01) (49, -5.88019246037548182215e-01) (50, 1.17283850880458867527e-01) (51, 