FANN_FLO_2.1
num_layers=5
learning_rate=0.700000
connection_rate=1.000000
network_type=0
learning_momentum=0.000000
training_algorithm=2
train_error_function=1
train_stop_function=0
cascade_output_change_fraction=0.010000
quickprop_decay=-0.000100
quickprop_mu=1.750000
rprop_increase_factor=1.200000
rprop_decrease_factor=0.500000
rprop_delta_min=0.000000
rprop_delta_max=50.000000
rprop_delta_zero=0.100000
cascade_output_stagnation_epochs=12
cascade_candidate_change_fraction=0.010000
cascade_candidate_stagnation_epochs=12
cascade_max_out_epochs=150
cascade_min_out_epochs=50
cascade_max_cand_epochs=150
cascade_min_cand_epochs=50
cascade_num_candidate_groups=2
bit_fail_limit=3.49999999999999977796e-01
cascade_candidate_limit=1.00000000000000000000e+03
cascade_weight_multiplier=4.00000000000000022204e-01
cascade_activation_functions_count=10
cascade_activation_functions=3 5 7 8 10 11 14 15 16 17 
cascade_activation_steepnesses_count=4
cascade_activation_steepnesses=2.50000000000000000000e-01 5.00000000000000000000e-01 7.50000000000000000000e-01 1.00000000000000000000e+00 
layer_sizes=27 14 8 4 2 
scale_included=0
neurons (num_inputs, activation_function, activation_steepness)=(0, 0, 0.00000000000000000000e+00) (0, 0, 0.00000000000000000000e+00) (0, 0, 0.00000000000000000000e+00) (0, 0, 0.00000000000000000000e+00) (0, 0, 0.00000000000000000000e+00) (0, 0, 0.00000000000000000000e+00) (0, 0, 0.00000000000000000000e+00) (0, 0, 0.00000000000000000000e+00) (0, 0, 0.00000000000000000000e+00) (0, 0, 0.00000000000000000000e+00) (0, 0, 0.00000000000000000000e+00) (0, 0, 0.00000000000000000000e+00) (0, 0, 0.00000000000000000000e+00) (0, 0, 0.00000000000000000000e+00) (0, 0, 0.00000000000000000000e+00) (0, 0, 0.00000000000000000000e+00) (0, 0, 0.00000000000000000000e+00) (0, 0, 0.00000000000000000000e+00) (0, 0, 0.00000000000000000000e+00) (0, 0, 0.00000000000000000000e+00) (0, 0, 0.00000000000000000000e+00) (0, 0, 0.00000000000000000000e+00) (0, 0, 0.00000000000000000000e+00) (0, 0, 0.00000000000000000000e+00) (0, 0, 0.00000000000000000000e+00) (0, 0, 0.00000000000000000000e+00) (0, 0, 0.00000000000000000000e+00) (27, 4, 5.00000000000000000000e-01) (27, 4, 5.00000000000000000000e-01) (27, 4, 5.00000000000000000000e-01) (27, 4, 5.00000000000000000000e-01) (27, 4, 5.00000000000000000000e-01) (27, 4, 5.00000000000000000000e-01) (27, 4, 5.00000000000000000000e-01) (27, 4, 5.00000000000000000000e-01) (27, 4, 5.00000000000000000000e-01) (27, 4, 5.00000000000000000000e-01) (27, 4, 5.00000000000000000000e-01) (27, 4, 5.00000000000000000000e-01) (27, 4, 5.00000000000000000000e-01) (0, 0, 0.00000000000000000000e+00) (14, 4, 5.00000000000000000000e-01) (14, 4, 5.00000000000000000000e-01) (14, 4, 5.00000000000000000000e-01) (14, 4, 5.00000000000000000000e-01) (14, 4, 5.00000000000000000000e-01) (14, 4, 5.00000000000000000000e-01) (14, 4, 5.00000000000000000000e-01) (0, 0, 0.00000000000000000000e+00) (8, 4, 5.00000000000000000000e-01) (8, 4, 5.00000000000000000000e-01) (8, 4, 5.00000000000000000000e-01) (0, 0, 0.00000000000000000000e+00) (4, 13, 5.00000000000000000000e-01) (0, 13, 0.00000000000000000000e+00) 
connections (connected_to_neuron, weight)=(0, -1.50000000000000000000e+03) (1, -1.50000000000000000000e+03) (2, -1.37894362850305833490e+03) (3, 1.49114449740605778061e+03) (4, 6.53487159375401120087e+02) (5, -1.50000000000000000000e+03) (6, -1.50000000000000000000e+03) (7, -1.31393540058099097223e+03) (8, 6.71436693376344123863e+02) (9, 8.03308563898204397447e+01) (10, -1.49743470707130427400e+03) (11, -1.50000000000000000000e+03) (12, 1.50000000000000000000e+03) (13, 2.58423104089417776663e+00) (14, 2.61534567129524342377e+00) (15, -1.46635406641562803998e+03) (16, -1.46635406641562803998e+03) (17, -1.50000000000000000000e+03) (18, -1.50000000000000000000e+03) (19, 1.39815097625248085933e+03) (20, 1.39815097625248085933e+03) (21, 4.78188325147260172798e+02) (22, 6.63888176826219023496e+02) (23, 1.50000000000000000000e+03) (24, 1.44201477025509007035e+03) (25, -1.50000000000000000000e+03) (26, 2.64035742384380327508e+01) (0, -1.50000000000000000000e+03) (1, -1.50000000000000000000e+03) (2, -1.49999961600008100504e+03) (3, 6.25299182751416765313e+02) (4, 5.39275342374764136366e+02) (5, -1.50000000000000000000e+03) (6, -1.50000000000000000000e+03) (7, -1.07256550042985008986e+03) (8, 1.09883802909154852046e+02) (9, 1.49999987999999530075e+03) (10, -1.49743470707130427400e+03) (11, -1.50000000000000000000e+03) (12, 1.50000000000000000000e+03) (13, 2.53996577066112516619e+00) (14, 2.64890311610603612635e+00) (15, -1.46635406641562803998e+03) (16, -1.46635406641562803998e+03) (17, -1.50000000000000000000e+03) (18, -1.50000000000000000000e+03) (19, 1.49520712590223206462e+03) (20, 1.49520712590223206462e+03) (21, 1.07101930482597981609e+03) (22, 4.29525209147272619248e+02) (23, 1.50000000000000000000e+03) (24, 8.04891934742889816334e+02) (25, -1.50000000000000000000e+03) (26, -6.93646586142782339834e+00) (0, 1.50000000000000000000e+03) (1, 1.50000000000000000000e+03) (2, 1.50000000000000000000e+03) (3, -1.39029089475729028891e+03) (4, -1.09837653848932700384e+03) (5, 1.50000000000000000000e+03) (6, 1.50000000000000000000e+03) (7, 1.01144349981848222342e+02) (8, -9.44105866843074636563e+02) (9, 6.64036015583174162202e+02) (10, 1.50000000000000000000e+03) (11, 1.50000000000000000000e+03) (12, -1.50000000000000000000e+03) (13, 2.60608046454105624079e+00) (14, 2.63846819054987635766e+00) (15, 1.50000000000000000000e+03) (16, 1.50000000000000000000e+03) (17, 1.50000000000000000000e+03) (18, 1.50000000000000000000e+03) (19, -1.38596124643202597326e+03) (20, -1.38596124643202597326e+03) (21, -2.36255141104001324948e+02) (22, -3.90947875536070455382e+02) (23, -1.50000000000000000000e+03) (24, -1.46015308668658599345e+03) (25, 1.50000000000000000000e+03) (26, -2.44749207236478172334e+00) (0, -1.50000000000000000000e+03) (1, -1.50000000000000000000e+03) (2, -1.49999961600008100504e+03) (3, 1.49795350110961408063e+03) (4, 2.57577394155065462655e+02) (5, -1.50000000000000000000e+03) (6, -1.50000000000000000000e+03) (7, -1.36517314404741296130e+03) (8, 6.79009515290204717530e+02) (9, -3.66043845431014176484e+02) (10, -1.49743470707130427400e+03) (11, -1.50000000000000000000e+03) (12, 1.50000000000000000000e+03) (13, 2.67400258731741358176e+00) (14, 2.60569579851541854865e+00) (15, -1.46635406641562803998e+03) (16, -1.46635406641562803998e+03) (17, -1.50000000000000000000e+03) (18, -1.50000000000000000000e+03) (19, 1.49733427232748886127e+03) (20, 1.49733427232748886127e+03) (21, 4.14126234588387490021e+02) (22, 3.36515572368374137113e+02) (23, 1.50000000000000000000e+03) (24, 1.17184547638421827287e+03) (25, -1.50000000000000000000e+03) (26, -1.15437669566343537042e+00) (0, 1.50000000000000000000e+03) (1, 1.50000000000000000000e+03) (2, 1.50000000000000000000e+03) (3, -1.17642993713467058114e+03) (4, -4.58225401227853581076e+02) (5, 1.50000000000000000000e+03) (6, 1.50000000000000000000e+03) (7, -8.26059539395016372509e+02) (8, 1.29681343120530254964e+03) (9, -1.39159697495045156757e+03) (10, 1.50000000000000000000e+03) (11, 1.50000000000000000000e+03) (12, -1.50000000000000000000e+03) (13, 2.68554863285915157434e+00) (14, 2.65992209267518742166e+00) (15, 9.42741289969838589968e+02) (16, 9.42741289969838589968e+02) (17, 1.50000000000000000000e+03) (18, 1.50000000000000000000e+03) (19, -5.97480793032030760514e+02) (20, -5.97480793032030760514e+02) (21, 8.36646241322599507839e+02) (22, -7.89695202079239379600e+02) (23, -1.50000000000000000000e+03) (24, -1.42513263330664517525e+03) (25, 1.50000000000000000000e+03) (26, -6.43034631652114512690e+02) (0, -1.50000000000000000000e+03) (1, -1.50000000000000000000e+03) (2, -1.49984633034568128096e+03) (3, 1.48441534783066185810e+03) (4, 8.57787734821756316705e+02) (5, -1.50000000000000000000e+03) (6, -1.50000000000000000000e+03) (7, -9.20658679669723369443e+02) (8, 1.50000000000000000000e+03) (9, -4.22197748595923258108e+02) (10, -1.49743470707130427400e+03) (11, -1.50000000000000000000e+03) (12, 1.50000000000000000000e+03) (13, 2.50737167102035529709e+00) (14, 2.63992968153860463332e+00) (15, -1.46635406641562803998e+03) (16, -1.46635406641562803998e+03) (17, -1.50000000000000000000e+03) (18, -1.50000000000000000000e+03) (19, 1.50000000000000000000e+03) (20, 1.50000000000000000000e+03) (21, 4.07431489212407825562e+02) (22, 7.74897120123900094768e+02) (23, 1.50000000000000000000e+03) (24, 8.67265782272134856612e+02) (25, -1.50000000000000000000e+03) (26, 2.29578209669691339911e+01) (0, -1.50000000000000000000e+03) (1, -1.50000000000000000000e+03) (2, -1.49043918660284566613e+03) (3, 1.49853792546645308903e+03) (4, 7.26677515714226387900e+02) (5, -1.50000000000000000000e+03) (6, -1.50000000000000000000e+03) (7, -8.95414343935147371667e+02) (8, 1.50000000000000000000e+03) (9, -5.55785671807593416816e+02) (10, -1.49743470707130427400e+03) (11, -1.50000000000000000000e+03) (12, 1.50000000000000000000e+03) (13, 2.55483060654923743726e+00) (14, 2.68213114094631732698e+00) (15, -1.46635406641562803998e+03) (16, -1.46635406641562803998e+03) (17, -1.50000000000000000000e+03) (18, -1.50000000000000000000e+03) (19, 1.49604353805870732685e+03) (20, 1.49604353805870732685e+03) (21, 2.53198602782680268319e+02) (22, 5.07180157635189345910e+02) (23, 1.50000000000000000000e+03) (24, 1.03929575411677978991e+03) (25, -1.50000000000000000000e+03) (26, -1.86948002193810474125e+01) (0, -1.50000000000000000000e+03) (1, -1.50000000000000000000e+03) (2, -1.49765816420680221199e+03) (3, 1.46987569821901070100e+03) (4, 1.03164646442282423777e+03) (5, -1.50000000000000000000e+03) (6, -1.50000000000000000000e+03) (7, -1.47365762856897003985e+03) (8, 1.50000000000000000000e+03) (9, -7.97936061120171189032e+02) (10, -1.49743470707130427400e+03) (11, -1.50000000000000000000e+03) (12, 1.50000000000000000000e+03) (13, 2.50383309972224132878e+00) (14, 2.56713366460723246831e+00) (15, -1.46635406641562803998e+03) (16, -1.46635406641562803998e+03) (17, -1.50000000000000000000e+03) (18, -1.50000000000000000000e+03) (19, 1.49997300988111669540e+03) (20, 1.49997300988111669540e+03) (21, 9.96238775737771106833e+02) (22, 1.50000000000000000000e+03) (23, 1.50000000000000000000e+03) (24, 1.10193193259426834629e+03) (25, -1.50000000000000000000e+03) (26, -8.12270010094376049281e-01) (0, -1.50000000000000000000e+03) (1, -1.50000000000000000000e+03) (2, -1.44410768401387917947e+03) (3, 1.49988024495837908034e+03) (4, 3.37121158419984396915e+02) (5, -1.50000000000000000000e+03) (6, -1.50000000000000000000e+03) (7, -1.14077401712151731772e+03) (8, 1.50000000000000000000e+03) (9, -4.41919514273687070727e+02) (10, -1.49743470707130427400e+03) (11, -1.50000000000000000000e+03) (12, 1.50000000000000000000e+03) (13, 2.61173292201670603774e+00) (14, 2.63945877504255754786e+00) (15, -1.46635406641562803998e+03) (16, -1.46635406641562803998e+03) (17, -1.50000000000000000000e+03) (18, -1.50000000000000000000e+03) (19, 1.47662852888753513980e+03) (20, 1.47662852888753513980e+03) (21, 1.34144397727785531060e+03) (22, 9.00126706358539536268e+02) (23, 1.50000000000000000000e+03) (24, 1.31330744514250841348e+03) (25, -1.50000000000000000000e+03) (26, -9.14377414549887035378e+00) (0, 1.50000000000000000000e+03) (1, 1.50000000000000000000e+03) (2, 1.50000000000000000000e+03) (3, -1.32482710017375757161e+03) (4, -6.03853519773114499003e+02) (5, 1.50000000000000000000e+03) (6, 1.50000000000000000000e+03) (7, 1.26168634012577354042e+03) (8, -8.90101956563561770963e+02) (9, 6.32750092672553819284e+02) (10, 1.50000000000000000000e+03) (11, 1.50000000000000000000e+03) (12, -1.50000000000000000000e+03) (13, 2.63693873536494338694e+00) (14, 2.67367193055052299044e+00) (15, 1.50000000000000000000e+03) (16, 1.50000000000000000000e+03) (17, 1.50000000000000000000e+03) (18, 1.50000000000000000000e+03) (19, -1.24290543946913589934e+03) (20, -1.24290543946913589934e+03) (21, -3.09701468686866974167e+02) (22, -1.11874774890466369470e+02) (23, -1.50000000000000000000e+03) (24, -1.19600383593088781709e+03) (25, 1.50000000000000000000e+03) (26, -6.04605612631396525103e+02) (0, -1.50000000000000000000e+03) (1, -1.50000000000000000000e+03) (2, -1.49999961600008100504e+03) (3, 1.43720471209003790136e+03) (4, 5.98586879289190733289e+02) (5, -1.50000000000000000000e+03) (6, -1.50000000000000000000e+03) (7, -9.20784052905501084751e+02) (8, 3.05675377727483862600e+02) (9, -5.42726350529613341678e+02) (10, -1.49743470707130427400e+03) (11, -1.50000000000000000000e+03) (12, 1.50000000000000000000e+03) (13, 2.69934229504955824908e+00) (14, 2.69019359302416516400e+00) (15, -1.46635406641562803998e+03) (16, -1.46635406641562803998e+03) (17, -1.50000000000000000000e+03) (18, -1.50000000000000000000e+03) (19, 1.49611406883438803561e+03) (20, 1.49611406883438803561e+03) (21, 6.12793909185440952569e+02) (22, 2.21845853190683754974e+02) (23, 1.50000000000000000000e+03) (24, 1.01580790100219564920e+03) (25, -1.50000000000000000000e+03) (26, 1.94425003729203105252e+01) (0, -1.50000000000000000000e+03) (1, -1.50000000000000000000e+03) (2, -1.43823116866119084989e+03) (3, 1.50000000000000000000e+03) (4, 1.50000000000000000000e+03) (5, -1.47932533325069630337e+03) (6, -1.47932533325069630337e+03) (7, -1.29377199682114246571e+03) (8, 1.50000000000000000000e+03) (9, 6.39855449945638270037e+02) (10, -1.49743470707130427400e+03) (11, -1.50000000000000000000e+03) (12, 1.50000000000000000000e+03) (13, 2.64513213884736231307e+00) (14, 2.57999770295540198362e+00) (15, -1.46635382641561864148e+03) (16, -1.46635382641561864148e+03) (17, -1.50000000000000000000e+03) (18, -1.50000000000000000000e+03) (19, 1.29904361510241528777e+03) (20, 1.29904361510241528777e+03) (21, 9.27677520983907015761e+02) (22, 1.50000000000000000000e+03) (23, 1.50000000000000000000e+03) (24, 1.45373106979293220320e+03) (25, -1.50000000000000000000e+03) (26, 3.24613446935068026278e+01) (0, -1.50000000000000000000e+03) (1, -1.50000000000000000000e+03) (2, -1.47802600464912234202e+03) (3, 1.49171533106582614892e+03) (4, 7.20308416652214418718e+02) (5, -1.49999987999999530075e+03) (6, -1.49999987999999530075e+03) (7, -1.13840311664212276810e+03) (8, 7.25410768767724789541e+02) (9, -6.22780118848847450863e+02) (10, -1.49743470707130427400e+03) (11, -1.50000000000000000000e+03) (12, 1.50000000000000000000e+03) (13, 2.51732658547097765123e+00) (14, 2.55217380028889628818e+00) (15, -1.46635406641562803998e+03) (16, -1.46635406641562803998e+03) (17, -1.50000000000000000000e+03) (18, -1.50000000000000000000e+03) (19, 1.49965528169596177577e+03) (20, 1.49965528169596177577e+03) (21, 7.62636316644539078879e+02) (22, 1.50000000000000000000e+03) (23, 1.50000000000000000000e+03) (24, 1.14280052069267617298e+03) (25, -1.50000000000000000000e+03) (26, 2.81510666937034237378e+01) (27, -1.50000000000000000000e+03) (28, -1.50000000000000000000e+03) (29, 1.50000000000000000000e+03) (30, -1.50000000000000000000e+03) (31, 1.50000000000000000000e+03) (32, -1.50000000000000000000e+03) (33, -1.50000000000000000000e+03) (34, -1.50000000000000000000e+03) (35, -1.50000000000000000000e+03) (36, 1.50000000000000000000e+03) (37, -1.50000000000000000000e+03) (38, -1.50000000000000000000e+03) (39, -1.50000000000000000000e+03) (40, -4.76895883091410244248e+00) (27, -1.50000000000000000000e+03) (28, -1.50000000000000000000e+03) (29, 1.50000000000000000000e+03) (30, -1.50000000000000000000e+03) (31, 1.50000000000000000000e+03) (32, -1.50000000000000000000e+03) (33, -1.50000000000000000000e+03) (34, -1.50000000000000000000e+03) (35, -1.50000000000000000000e+03) (36, 1.50000000000000000000e+03) (37, -1.50000000000000000000e+03) (38, -1.48198991458727709869e+03) (39, -1.50000000000000000000e+03) (40, 1.29681569770130291630e+01) (27, -1.50000000000000000000e+03) (28, -1.50000000000000000000e+03) (29, 1.50000000000000000000e+03) (30, -1.50000000000000000000e+03) (31, 1.50000000000000000000e+03) (32, -1.50000000000000000000e+03) (33, -1.50000000000000000000e+03) (34, -1.50000000000000000000e+03) (35, -1.50000000000000000000e+03) (36, 1.50000000000000000000e+03) (37, -1.50000000000000000000e+03) (38, -5.09681026686011591664e+02) (39, -1.50000000000000000000e+03) (40, -1.09859224630921789867e+03) (27, -1.50000000000000000000e+03) (28, -1.50000000000000000000e+03) (29, 1.50000000000000000000e+03) (30, -1.50000000000000000000e+03) (31, 1.50000000000000000000e+03) (32, -1.50000000000000000000e+03) (33, -1.50000000000000000000e+03) (34, -1.50000000000000000000e+03) (35, -1.50000000000000000000e+03) (36, 1.50000000000000000000e+03) (37, -1.50000000000000000000e+03) (38, -5.14963269099217995972e+02) (39, -1.50000000000000000000e+03) (40, 5.09669949463915600063e+02) (27, -1.50000000000000000000e+03) (28, -1.50000000000000000000e+03) (29, 1.50000000000000000000e+03) (30, -1.50000000000000000000e+03) (31, 1.50000000000000000000e+03) (32, -1.50000000000000000000e+03) (33, -1.50000000000000000000e+03) (34, -1.50000000000000000000e+03) (35, -1.50000000000000000000e+03) (36, 1.50000000000000000000e+03) (37, -1.50000000000000000000e+03) (38, -1.45377187529256707421e+03) (39, -1.50000000000000000000e+03) (40, -1.90609550943210308560e+01) (27, -1.50000000000000000000e+03) (28, -1.50000000000000000000e+03) (29, 1.50000000000000000000e+03) (30, -1.50000000000000000000e+03) (31, 1.50000000000000000000e+03) (32, -1.50000000000000000000e+03) (33, -1.50000000000000000000e+03) (34, -1.50000000000000000000e+03) (35, -1.50000000000000000000e+03) (36, 1.50000000000000000000e+03) (37, -1.50000000000000000000e+03) (38, -5.73057474494078178395e+02) (39, -1.50000000000000000000e+03) (40, -1.98618181945897664953e+00) (27, -1.50000000000000000000e+03) (28, -1.50000000000000000000e+03) (29, 1.50000000000000000000e+03) (30, -1.50000000000000000000e+03) (31, 1.50000000000000000000e+03) (32, -1.50000000000000000000e+03) (33, -1.50000000000000000000e+03) (34, -1.50000000000000000000e+03) (35, -1.50000000000000000000e+03) (36, 1.50000000000000000000e+03) (37, -1.50000000000000000000e+03) (38, -6.75424395934749554726e+02) (39, -1.50000000000000000000e+03) (40, 2.78445206428493861495e+02) (41, -1.41026647458263278168e+03) (42, -8.36504565075577716016e+02) (43, 7.63283829276301958089e+02) (44, 8.04708091035224128973e+02) (45, -9.32918726815737045399e+02) (46, 3.63322294081228449159e+02) (47, 4.13038245959406424390e+02) (48, 1.11988266180909494807e+01) (41, 1.49841438169934895086e+03) (42, 1.50000000000000000000e+03) (43, 1.50000000000000000000e+03) (44, 1.20196701652547653794e+03) (45, 1.50000000000000000000e+03) (46, 1.50000000000000000000e+03) (47, 1.50000000000000000000e+03) (48, 2.75010547292400131525e+00) (41, -2.60878616944237194275e+02) (42, 3.63394212687314336563e+02) (43, 4.59384169514537404666e+02) (44, -9.43991636763211886318e+02) (45, 2.29339326373680535198e+02) (46, 3.35440156841294481183e+01) (47, 1.26385544788282189188e+02) (48, -1.88327551288688077591e+00) (49, 3.30294327398690654718e+01) (50, -4.24552817231493762051e+01) (51, 4.11181948637412517655e+01) (52, -5.03002616903454047304e-01) 
